//Numpy array shape [5, 16, 32]
//Min -0.500000000000
//Max 0.500000000000
//Number of zeros 1388

#ifndef W5_H_
#define W5_H_

#ifndef __SYNTHESIS__
weight5_t w5[2560];
#else
weight5_t w5[2560] = {-0.25, 0.00, 0.00, 0.00, 0.00, 0.00, 0.00, 0.00, 0.25, 0.00, 0.25, 0.00, 0.00, -0.25, 0.25, 0.25, 0.00, 0.25, 0.00, -0.25, -0.25, -0.25, 0.00, 0.25, 0.25, 0.00, 0.00, -0.25, 0.25, 0.00, 0.00, 0.00, 0.25, -0.25, 0.00, 0.00, -0.25, 0.25, -0.25, -0.25, -0.25, -0.25, 0.25, -0.25, 0.00, -0.25, -0.25, 0.25, 0.00, 0.25, 0.25, 0.00, -0.25, 0.00, -0.25, 0.00, -0.25, 0.00, 0.00, -0.25, -0.25, 0.00, 0.25, 0.25, 0.25, 0.25, -0.25, -0.25, 0.00, -0.25, 0.00, 0.25, 0.00, 0.00, 0.00, 0.00, 0.00, 0.00, 0.00, 0.00, 0.00, 0.00, 0.00, -0.25, 0.25, -0.25, 0.00, -0.50, -0.25, -0.25, -0.25, 0.00, -0.25, -0.25, 0.00, 0.00, -0.25, 0.00, 0.25, 0.00, 0.25, -0.25, 0.00, 0.00, 0.00, 0.00, 0.25, 0.00, -0.25, -0.25, 0.25, -0.25, 0.00, -0.25, 0.00, 0.00, -0.25, 0.00, 0.00, 0.00, 0.25, 0.00, 0.25, 0.00, 0.00, 0.00, 0.00, -0.25, 0.00, 0.00, -0.25, 0.00, 0.00, 0.00, 0.00, 0.00, -0.25, 0.00, 0.25, 0.00, -0.25, -0.25, -0.25, -0.25, 0.25, 0.00, 0.00, 0.00, -0.25, 0.00, 0.00, 0.00, 0.00, 0.00, 0.00, 0.00, 0.00, 0.25, -0.25, -0.25, 0.00, -0.25, 0.00, 0.00, 0.00, 0.00, -0.25, 0.00, 0.00, 0.00, -0.25, 0.25, 0.00, 0.00, -0.25, 0.00, -0.25, 0.25, 0.00, -0.25, -0.25, 0.00, 0.25, 0.00, 0.00, 0.00, -0.25, -0.25, 0.00, 0.00, -0.25, 0.00, -0.25, -0.25, 0.00, -0.25, 0.00, -0.25, 0.00, 0.25, 0.00, 0.00, 0.00, -0.25, 0.00, 0.25, -0.25, 0.25, 0.00, 0.00, 0.00, -0.25, -0.25, 0.00, -0.25, -0.25, 0.00, 0.00, 0.00, 0.00, 0.00, 0.00, -0.25, -0.50, -0.25, -0.25, 0.00, -0.25, -0.25, 0.25, 0.00, -0.25, 0.00, -0.25, 0.00, 0.00, 0.25, 0.00, 0.00, 0.00, 0.00, 0.00, -0.25, 0.00, 0.00, 0.00, 0.00, -0.25, 0.00, -0.25, -0.25, 0.00, -0.25, 0.00, 0.00, -0.25, 0.00, 0.00, 0.00, 0.00, 0.00, 0.00, 0.00, 0.00, -0.25, -0.25, 0.00, -0.25, 0.25, -0.25, -0.25, -0.25, 0.00, 0.00, 0.25, 0.00, 0.00, 0.25, 0.00, 0.00, 0.25, 0.00, 0.00, 0.00, -0.25, 0.00, 0.00, 0.00, 0.00, -0.25, 0.00, 0.00, 0.00, 0.00, 0.25, 0.00, -0.25, 0.25, 0.00, -0.25, 0.00, 0.00, -0.25, 0.25, 0.00, 0.00, -0.25, -0.25, -0.25, 0.00, 0.00, -0.25, -0.25, 0.00, 0.00, -0.25, 0.00, -0.25, 0.00, 0.00, 0.00, 0.00, 0.25, 0.25, 0.00, 0.25, -0.25, 0.00, 0.00, 0.25, 0.00, 0.00, 0.00, 0.00, 0.00, -0.25, -0.25, 0.00, 0.00, 0.25, -0.25, 0.00, 0.25, 0.25, -0.25, 0.00, 0.25, -0.25, 0.00, -0.25, 0.25, 0.00, 0.00, 0.00, -0.25, 0.25, 0.00, -0.25, 0.00, 0.00, 0.00, 0.00, 0.00, -0.25, 0.00, -0.25, 0.25, -0.25, 0.00, 0.25, -0.25, 0.00, 0.00, 0.00, 0.00, 0.00, 0.00, 0.00, 0.00, 0.00, -0.25, 0.00, 0.00, 0.00, -0.25, 0.00, -0.25, 0.25, 0.00, -0.25, 0.00, 0.00, -0.25, 0.00, 0.00, 0.25, 0.25, 0.00, 0.25, 0.00, 0.25, 0.25, 0.25, 0.00, 0.00, 0.00, 0.00, 0.00, -0.25, 0.00, 0.00, 0.25, -0.25, 0.25, 0.00, -0.25, 0.00, -0.25, 0.00, -0.25, 0.00, 0.00, -0.25, 0.00, -0.25, 0.00, 0.00, 0.00, -0.25, -0.25, 0.00, 0.00, 0.00, -0.25, 0.00, 0.00, 0.00, 0.00, -0.25, 0.00, 0.00, -0.25, 0.00, -0.25, 0.25, 0.00, 0.00, -0.25, -0.25, 0.00, 0.25, 0.00, 0.00, -0.25, 0.25, 0.00, 0.00, 0.00, 0.00, 0.00, -0.25, -0.25, -0.25, 0.25, 0.25, -0.25, 0.00, 0.00, -0.25, 0.00, -0.25, -0.25, -0.25, -0.25, -0.25, -0.25, 0.00, -0.25, 0.00, 0.25, -0.25, 0.00, 0.25, 0.25, 0.25, 0.00, 0.00, 0.00, -0.25, 0.00, -0.25, 0.25, 0.00, 0.00, 0.00, 0.25, 0.00, 0.00, 0.00, 0.00, 0.25, 0.00, -0.25, 0.00, 0.25, 0.25, -0.25, 0.00, 0.25, 0.00, -0.25, -0.25, -0.25, 0.00, 0.00, 0.25, 0.50, 0.00, 0.25, 0.00, -0.25, 0.00, 0.00, -0.25, -0.25, 0.00, 0.00, -0.25, -0.25, 0.00, 0.00, -0.25, 0.00, 0.50, 0.00, 0.00, -0.25, -0.25, 0.00, -0.25, 0.00, 0.00, 0.00, 0.00, 0.00, 0.00, 0.00, 0.00, 0.00, 0.00, 0.00, 0.25, 0.00, 0.00, 0.00, 0.25, 0.00, 0.00, -0.25, -0.25, 0.00, 0.00, 0.00, 0.00, 0.25, -0.25, 0.00, -0.25, 0.00, -0.25, 0.00, 0.00, -0.25, 0.25, 0.00, 0.00, -0.25, 0.00, 0.00, 0.00, -0.25, -0.25, 0.00, 0.00, 0.25, 0.25, -0.25, -0.25, -0.25, 0.00, 0.00, 0.00, 0.25, 0.25, 0.00, -0.25, -0.25, -0.25, -0.25, 0.00, 0.25, 0.25, -0.25, 0.00, -0.25, -0.25, 0.00, 0.00, -0.25, 0.25, -0.25, 0.25, 0.00, 0.00, 0.00, 0.00, 0.25, 0.00, -0.25, 0.25, 0.00, 0.00, -0.25, 0.25, -0.25, 0.00, 0.25, 0.00, 0.25, 0.25, 0.00, 0.50, 0.00, 0.00, 0.00, -0.25, -0.25, 0.00, -0.25, 0.25, -0.25, 0.00, -0.25, 0.00, 0.25, 0.00, -0.25, 0.00, 0.00, 0.00, -0.25, -0.25, 0.00, 0.00, 0.25, -0.25, -0.25, 0.00, 0.00, 0.25, 0.25, 0.00, 0.00, -0.25, -0.25, 0.00, 0.25, -0.25, 0.00, -0.25, 0.00, -0.25, 0.00, -0.25, 0.25, 0.00, 0.00, 0.00, -0.25, 0.00, 0.25, 0.25, -0.25, -0.25, 0.00, 0.00, 0.00, 0.00, 0.25, 0.25, -0.25, 0.00, -0.25, 0.00, -0.25, -0.25, 0.00, 0.00, -0.25, 0.00, 0.00, -0.25, -0.25, 0.25, -0.25, 0.25, 0.00, 0.00, -0.50, 0.00, 0.00, 0.00, 0.25, 0.25, 0.00, 0.00, -0.50, -0.25, 0.00, 0.25, 0.00, 0.25, 0.00, 0.00, -0.25, -0.25, 0.00, 0.00, -0.25, 0.00, 0.00, 0.25, 0.25, 0.25, 0.00, -0.25, 0.00, 0.00, -0.25, -0.25, -0.25, 0.00, 0.25, 0.00, 0.00, 0.00, 0.00, 0.00, 0.00, 0.00, -0.25, 0.00, 0.00, 0.25, 0.00, 0.00, 0.25, -0.25, 0.00, 0.00, 0.00, -0.25, -0.25, 0.00, 0.00, 0.00, 0.00, 0.00, 0.00, 0.00, 0.00, 0.00, 0.25, -0.25, 0.00, 0.00, -0.50, 0.00, 0.25, 0.00, 0.25, -0.25, -0.25, 0.00, 0.00, 0.25, 0.00, -0.25, -0.25, 0.25, 0.00, 0.00, -0.25, -0.25, 0.00, 0.00, 0.00, 0.00, 0.00, 0.00, 0.00, 0.00, 0.25, -0.25, 0.00, 0.00, 0.00, -0.25, 0.00, -0.25, -0.25, 0.00, -0.25, 0.00, 0.00, 0.00, 0.00, -0.25, 0.00, -0.25, -0.25, 0.00, 0.00, 0.00, 0.25, 0.00, 0.25, 0.00, 0.00, -0.25, -0.25, 0.00, -0.25, 0.00, 0.00, 0.00, 0.00, 0.00, -0.25, 0.00, 0.00, -0.25, 0.00, 0.25, 0.00, 0.00, 0.25, -0.25, 0.00, 0.00, 0.25, 0.25, 0.00, -0.25, -0.25, -0.25, -0.25, 0.00, 0.00, 0.00, -0.25, 0.00, 0.25, 0.25, 0.00, 0.00, 0.25, -0.25, -0.25, 0.25, -0.25, 0.00, 0.25, 0.00, -0.25, 0.00, -0.25, -0.25, 0.00, 0.00, 0.00, 0.25, 0.00, -0.25, 0.00, 0.00, -0.25, 0.25, 0.00, 0.00, -0.25, 0.00, 0.00, -0.25, 0.00, 0.00, -0.25, 0.00, 0.00, 0.00, 0.00, -0.25, -0.25, -0.25, 0.25, 0.00, -0.25, 0.00, 0.00, 0.00, 0.00, 0.25, -0.25, 0.25, 0.25, 0.00, 0.00, 0.25, 0.00, 0.00, 0.25, 0.00, 0.00, 0.00, -0.25, -0.25, 0.50, 0.00, 0.00, 0.00, -0.25, 0.25, 0.25, 0.00, 0.00, 0.25, -0.25, 0.00, 0.00, 0.00, 0.00, 0.00, 0.00, 0.00, -0.25, -0.25, -0.25, -0.25, 0.00, 0.50, 0.25, 0.00, -0.25, 0.00, 0.00, 0.25, 0.00, 0.00, -0.25, 0.00, -0.25, 0.25, 0.00, -0.25, 0.00, 0.00, 0.00, -0.25, 0.25, 0.00, 0.00, -0.25, 0.00, 0.00, 0.00, 0.00, 0.00, 0.00, 0.00, 0.00, -0.25, 0.00, -0.25, 0.25, 0.00, 0.25, 0.00, -0.25, 0.00, 0.00, -0.25, -0.25, 0.00, 0.00, -0.25, 0.00, 0.00, 0.25, -0.25, -0.25, 0.00, -0.50, 0.00, 0.00, -0.25, 0.00, 0.00, 0.00, 0.25, 0.00, 0.00, -0.25, 0.00, 0.00, 0.00, 0.00, 0.00, -0.25, 0.25, 0.25, 0.00, -0.25, 0.00, 0.25, 0.25, 0.00, 0.00, 0.00, 0.00, 0.00, -0.25, 0.25, 0.00, 0.00, 0.00, -0.25, 0.25, 0.00, 0.00, -0.25, 0.00, -0.25, 0.25, 0.00, -0.25, 0.00, 0.00, 0.00, 0.25, 0.00, 0.00, -0.25, 0.00, 0.00, -0.25, 0.00, -0.25, 0.00, -0.25, -0.25, -0.25, 0.00, 0.25, -0.25, 0.25, 0.00, 0.00, -0.25, 0.00, 0.25, -0.25, -0.25, -0.25, -0.25, -0.25, 0.00, 0.00, 0.00, 0.00, 0.00, 0.00, 0.00, 0.00, 0.00, -0.25, -0.25, 0.25, -0.25, 0.25, 0.00, -0.25, 0.00, 0.00, 0.00, -0.25, 0.00, -0.25, 0.00, -0.25, 0.00, 0.00, 0.00, 0.00, -0.25, 0.25, -0.25, 0.00, 0.00, 0.00, 0.25, 0.00, 0.25, -0.25, 0.25, 0.00, -0.25, -0.25, 0.25, -0.25, 0.25, 0.25, 0.00, 0.00, 0.00, 0.25, 0.00, 0.00, 0.00, -0.25, 0.00, 0.25, -0.25, 0.00, 0.00, 0.00, 0.00, 0.00, 0.00, -0.25, -0.25, 0.25, 0.25, 0.00, 0.00, 0.00, 0.00, 0.00, 0.25, 0.25, 0.00, 0.25, -0.25, -0.50, 0.00, 0.00, 0.25, 0.00, 0.00, 0.00, -0.25, 0.00, 0.00, -0.25, 0.00, 0.25, 0.25, 0.00, 0.25, -0.25, 0.25, 0.00, 0.00, 0.00, 0.00, -0.25, -0.25, -0.25, -0.25, -0.25, -0.25, 0.25, 0.00, 0.25, 0.25, -0.25, 0.00, -0.25, 0.00, 0.00, 0.00, -0.25, 0.00, -0.25, -0.25, 0.00, 0.00, 0.25, -0.25, -0.25, 0.00, -0.25, 0.00, -0.25, 0.00, -0.25, -0.25, 0.00, 0.00, 0.25, 0.50, 0.00, 0.25, 0.00, -0.25, 0.00, 0.00, 0.00, 0.00, 0.00, 0.00, 0.25, 0.00, 0.00, 0.00, 0.25, 0.25, 0.00, 0.00, -0.25, 0.00, 0.00, -0.25, -0.25, 0.00, 0.00, 0.00, 0.25, 0.25, 0.00, 0.25, 0.00, 0.00, 0.25, -0.50, 0.25, 0.00, 0.00, 0.00, 0.00, -0.25, 0.00, -0.25, 0.25, 0.25, 0.25, 0.00, 0.00, 0.00, 0.00, -0.25, 0.25, -0.25, 0.00, -0.50, -0.25, -0.25, 0.00, 0.25, 0.00, 0.50, 0.00, -0.25, 0.00, 0.00, 0.00, -0.25, 0.25, -0.25, 0.00, 0.25, -0.25, 0.25, -0.25, -0.25, 0.25, 0.00, 0.00, -0.25, 0.00, 0.00, -0.25, -0.25, 0.00, 0.00, 0.00, -0.25, 0.00, 0.25, 0.25, 0.00, -0.25, 0.00, 0.00, 0.00, 0.00, 0.00, 0.00, -0.25, 0.00, 0.00, 0.00, -0.25, 0.00, 0.00, 0.00, -0.25, 0.25, -0.25, -0.25, 0.00, 0.00, 0.25, 0.00, -0.25, 0.00, 0.00, -0.25, 0.00, -0.50, 0.25, 0.25, 0.00, 0.00, 0.00, 0.25, -0.25, 0.00, 0.00, -0.25, 0.00, 0.25, 0.00, -0.25, 0.00, 0.25, 0.25, 0.00, 0.25, -0.25, -0.25, 0.00, 0.00, 0.00, -0.25, -0.25, 0.25, -0.25, 0.00, 0.00, 0.25, -0.25, 0.00, -0.25, 0.00, 0.00, 0.00, 0.00, -0.25, -0.25, 0.00, 0.00, 0.25, 0.00, 0.00, -0.25, -0.25, 0.00, 0.00, -0.25, 0.25, 0.00, -0.25, 0.00, 0.25, 0.00, 0.00, 0.00, 0.25, 0.25, 0.00, 0.00, -0.25, 0.00, 0.00, -0.25, 0.00, 0.00, 0.00, 0.00, 0.00, -0.25, 0.00, 0.00, 0.00, 0.00, -0.25, 0.00, 0.00, 0.00, 0.00, 0.00, 0.00, -0.25, 0.00, 0.25, 0.00, 0.00, 0.00, 0.25, 0.00, 0.00, 0.00, 0.00, 0.25, -0.25, 0.00, 0.00, -0.25, 0.00, -0.25, -0.25, 0.00, 0.25, 0.00, 0.00, 0.00, 0.00, 0.00, 0.00, 0.00, 0.00, -0.25, 0.25, 0.00, -0.25, 0.00, 0.00, -0.25, -0.25, -0.25, -0.25, 0.00, -0.25, 0.25, -0.25, 0.00, -0.25, 0.00, -0.25, 0.00, 0.00, -0.50, 0.25, -0.25, 0.25, 0.00, -0.25, 0.25, 0.00, 0.00, -0.25, 0.00, 0.00, 0.00, 0.00, -0.25, 0.00, 0.25, -0.25, -0.25, 0.00, 0.00, 0.00, 0.00, 0.00, -0.25, 0.00, -0.25, -0.25, 0.25, 0.25, 0.00, -0.25, 0.25, -0.25, 0.25, 0.25, 0.00, -0.25, 0.00, 0.00, -0.25, 0.00, 0.00, 0.25, 0.00, 0.00, 0.00, 0.00, 0.25, 0.00, 0.00, -0.25, 0.00, 0.00, -0.25, 0.00, -0.25, 0.00, 0.25, 0.00, 0.00, 0.25, 0.00, 0.00, 0.00, -0.25, -0.25, 0.00, 0.00, -0.25, 0.25, 0.00, -0.25, -0.25, -0.25, 0.00, 0.00, 0.50, 0.25, -0.25, 0.25, 0.00, 0.00, 0.00, 0.00, 0.00, 0.00, -0.25, 0.00, 0.00, 0.25, -0.25, 0.00, 0.25, 0.00, -0.25, -0.25, 0.00, 0.00, 0.25, 0.00, 0.00, 0.00, 0.00, 0.25, 0.00, 0.00, 0.00, 0.00, 0.25, -0.25, 0.25, 0.50, -0.25, 0.00, -0.25, 0.00, 0.00, -0.25, 0.00, 0.00, 0.00, 0.00, 0.00, 0.00, 0.00, -0.25, 0.00, 0.25, -0.25, 0.00, 0.00, 0.25, 0.00, -0.25, 0.00, 0.00, 0.00, -0.25, 0.00, 0.00, 0.00, 0.00, 0.00, 0.00, 0.25, -0.25, 0.00, -0.25, 0.25, -0.25, 0.00, -0.25, -0.25, 0.00, 0.00, 0.00, 0.00, 0.00, -0.50, -0.25, -0.25, 0.25, -0.25, -0.25, -0.25, 0.00, 0.00, -0.25, 0.00, 0.00, -0.25, 0.00, 0.00, 0.25, 0.00, 0.00, 0.25, 0.00, -0.25, -0.25, 0.00, 0.25, 0.25, 0.00, 0.25, 0.00, -0.25, 0.00, 0.00, 0.25, 0.00, 0.25, 0.25, 0.00, 0.00, 0.00, 0.00, 0.25, 0.00, 0.00, 0.00, 0.00, 0.25, 0.25, 0.00, -0.25, 0.00, 0.00, 0.00, 0.00, -0.25, 0.00, -0.25, -0.25, -0.25, -0.25, 0.00, 0.00, 0.00, 0.00, 0.25, 0.00, 0.25, 0.00, -0.25, 0.00, 0.25, 0.00, 0.00, 0.00, 0.00, 0.00, 0.00, 0.00, 0.00, 0.00, 0.25, 0.00, 0.25, 0.00, 0.00, -0.25, 0.25, 0.25, 0.00, -0.25, -0.25, 0.00, 0.00, 0.25, -0.25, 0.00, -0.25, -0.25, 0.25, 0.25, 0.00, 0.25, 0.25, -0.25, 0.00, -0.25, 0.25, -0.25, 0.00, -0.25, 0.00, -0.25, 0.00, 0.00, 0.25, 0.00, 0.00, 0.25, 0.00, 0.00, 0.00, 0.00, 0.00, -0.25, 0.00, 0.00, 0.00, 0.00, 0.25, 0.00, 0.00, 0.00, -0.25, 0.00, -0.25, 0.00, -0.25, 0.00, 0.25, 0.00, 0.00, 0.00, -0.25, 0.00, -0.50, -0.25, 0.25, 0.00, 0.00, -0.25, -0.25, 0.00, -0.25, -0.25, 0.00, -0.25, -0.25, 0.25, 0.00, -0.25, -0.25, -0.25, 0.00, 0.00, 0.00, -0.25, 0.00, 0.00, 0.25, -0.25, -0.25, -0.25, -0.25, 0.25, 0.00, 0.00, -0.25, 0.25, 0.00, 0.00, 0.00, 0.00, 0.00, 0.00, 0.00, 0.25, 0.25, 0.00, -0.25, -0.25, 0.00, 0.00, 0.00, -0.25, -0.25, 0.00, 0.00, -0.25, 0.00, 0.25, 0.00, 0.00, 0.00, 0.00, -0.25, 0.00, 0.00, 0.25, 0.25, 0.00, 0.00, -0.25, 0.25, 0.00, 0.00, 0.00, 0.00, 0.25, 0.00, 0.00, 0.00, 0.00, -0.25, -0.50, 0.25, 0.00, -0.25, 0.00, 0.25, 0.00, -0.25, -0.25, 0.00, 0.25, -0.25, 0.00, 0.00, 0.00, -0.25, -0.25, 0.00, -0.25, -0.25, 0.00, -0.25, 0.00, 0.00, 0.00, 0.00, 0.00, 0.00, 0.00, 0.00, 0.25, 0.25, 0.00, -0.25, -0.25, 0.00, 0.00, -0.25, 0.00, 0.00, 0.00, 0.00, 0.00, -0.25, 0.00, -0.25, 0.25, 0.00, -0.25, 0.00, 0.25, 0.00, -0.25, 0.00, 0.00, 0.00, -0.25, 0.00, -0.25, 0.00, 0.25, 0.00, 0.00, 0.25, 0.25, 0.00, 0.25, 0.00, -0.25, -0.25, 0.00, -0.25, 0.00, 0.00, 0.00, 0.25, -0.25, -0.25, 0.00, 0.00, 0.25, -0.25, 0.00, 0.25, 0.25, 0.00, 0.25, 0.00, 0.25, 0.25, 0.00, -0.25, 0.00, 0.00, -0.25, 0.25, -0.25, 0.00, -0.50, 0.00, 0.00, -0.25, 0.25, 0.25, -0.25, 0.00, 0.00, 0.00, 0.00, -0.25, -0.25, 0.25, 0.00, 0.00, -0.25, 0.25, -0.25, 0.25, 0.00, -0.25, 0.00, -0.25, 0.00, -0.25, 0.00, 0.00, -0.25, -0.25, 0.00, -0.25, 0.00, 0.00, 0.00, -0.25, -0.25, -0.25, 0.00, -0.25, 0.00, 0.00, -0.25, 0.00, 0.00, -0.25, 0.00, -0.25, 0.00, 0.25, 0.00, -0.25, 0.00, -0.25, 0.00, -0.25, -0.25, 0.00, 0.00, -0.25, 0.25, 0.00, 0.00, 0.00, 0.00, 0.00, 0.25, 0.25, 0.00, 0.00, 0.25, 0.00, 0.00, -0.50, 0.00, -0.25, 0.00, -0.25, 0.25, 0.00, 0.00, 0.25, 0.25, 0.00, 0.00, 0.00, 0.00, 0.00, -0.25, 0.00, 0.00, 0.25, -0.25, -0.25, 0.00, 0.00, 0.00, 0.25, 0.50, 0.00, 0.00, 0.00, 0.00, -0.25, 0.00, 0.00, -0.25, -0.25, 0.25, 0.00, 0.00, 0.00, -0.25, 0.00, 0.00, 0.00, 0.25, 0.00, 0.00, 0.00, 0.25, 0.00, 0.00, 0.00, 0.00, 0.00, 0.25, 0.25, 0.00, 0.25, -0.25, 0.00, 0.25, 0.25, 0.25, 0.00, -0.25, 0.00, -0.25, 0.00, 0.00, 0.00, 0.00, 0.25, 0.00, -0.50, 0.25, 0.00, 0.25, 0.00, -0.25, 0.00, 0.00, -0.25, 0.00, 0.00, -0.25, 0.00, -0.25, 0.25, 0.00, 0.00, -0.25, 0.00, -0.25, 0.00, 0.00, -0.25, -0.25, 0.00, 0.00, 0.00, -0.25, 0.25, 0.00, -0.25, 0.00, 0.00, 0.00, 0.00, -0.25, 0.25, 0.00, 0.00, 0.00, -0.25, 0.00, 0.00, 0.00, -0.25, -0.25, 0.25, 0.00, 0.00, 0.00, 0.00, 0.25, 0.00, -0.25, -0.25, -0.25, 0.00, 0.00, 0.25, 0.25, 0.25, 0.25, 0.00, 0.00, 0.00, 0.00, 0.00, 0.00, -0.25, 0.00, 0.00, -0.25, -0.25, -0.25, 0.00, 0.25, -0.25, 0.00, 0.00, 0.00, -0.25, -0.25, 0.00, 0.25, 0.00, 0.25, -0.25, -0.25, 0.25, -0.25, 0.00, 0.25, 0.00, -0.25, 0.00, -0.25, -0.25, -0.25, 0.00, 0.25, 0.00, 0.25, -0.25, 0.00, 0.00, 0.00, -0.25, -0.25, 0.00, 0.00, 0.00, 0.25, 0.25, 0.00, -0.25, 0.00, 0.00, 0.00, 0.25, 0.25, 0.00, -0.25, -0.25, -0.25, 0.00, 0.00, -0.25, 0.00, 0.25, -0.25, -0.25, -0.25, 0.00, -0.25, 0.00, 0.25, -0.25, 0.25, 0.00, 0.00, -0.25, -0.25, 0.25, -0.25, 0.00, -0.25, -0.25, -0.25, -0.25, -0.25, -0.25, 0.25, 0.00, 0.25, 0.00, 0.00, 0.00, 0.00, 0.00, 0.00, 0.00, 0.00, 0.00, 0.00, 0.00, 0.00, 0.00, -0.25, 0.00, 0.00, 0.00, 0.00, 0.00, -0.25, 0.00, 0.25, 0.00, 0.00, -0.25, 0.00, 0.00, -0.25, -0.25, 0.25, 0.25, 0.00, -0.25, 0.00, 0.00, 0.00, 0.25, 0.00, 0.00, 0.00, 0.00, 0.25, 0.00, -0.25, 0.00, 0.00, 0.00, 0.00, 0.25, 0.00, 0.00, -0.25, 0.00, 0.00, -0.25, 0.00, -0.25, 0.00, 0.25, -0.25, 0.00, -0.25, 0.00, 0.00, 0.25, 0.00, 0.00, 0.00, 0.00, 0.00, 0.00, -0.25, 0.00, 0.00, 0.25, -0.25, -0.25, 0.00, 0.00, 0.00, -0.25, -0.25, 0.00, 0.00, 0.00, 0.25, 0.00, 0.00, 0.00, -0.25, 0.25, 0.25, 0.25, 0.00, 0.25, 0.00, 0.25, 0.00, 0.00, 0.00, 0.00, -0.25, 0.00, 0.00, -0.25, 0.00, 0.00, -0.25, -0.25, 0.25, 0.00, 0.25, -0.25, -0.25, 0.00, -0.50, 0.00, 0.00, 0.25, 0.25, -0.25, 0.00, 0.00, 0.00, -0.25, 0.00, 0.00, 0.00, 0.00, 0.00, -0.50, 0.25, -0.25, 0.00, 0.00, 0.00, 0.00, 0.00, 0.00, -0.25, 0.00, 0.00, 0.00, 0.00, 0.00, -0.25, 0.00, 0.00, 0.00, 0.00, 0.00, 0.25, 0.00, -0.25, 0.00, 0.00, 0.00, -0.25, 0.25, -0.25, 0.00, -0.50, 0.00, 0.00, 0.00, 0.00, 0.00, -0.25, 0.00, 0.25, 0.00, 0.25, 0.00, 0.00, -0.25, -0.25, 0.25, 0.00, 0.00, 0.00, 0.25, 0.25, 0.25, 0.00, 0.00, 0.25, 0.25, 0.00, -0.25, 0.00, -0.50, -0.25, 0.25, 0.00, -0.25, 0.00, 0.00, 0.25, 0.25, 0.25, 0.00, 0.25, 0.00, 0.25, -0.25, 0.00, -0.25, 0.00, -0.25, 0.25, -0.25, -0.25, 0.00, -0.25, 0.50, 0.25, -0.25, -0.25, -0.25, 0.25, 0.00, -0.25, 0.00, 0.25, 0.00, 0.00, 0.00, -0.25, -0.25, -0.25, 0.25, 0.25, -0.25, 0.25, 0.00, 0.00, -0.25, 0.00, 0.00, -0.25, 0.00, 0.00, -0.25, -0.25, 0.00, -0.25, 0.00, 0.25, 0.00, 0.00, 0.00, 0.25, -0.25, 0.00, 0.00, -0.25, 0.00, 0.00, 0.00, 0.25, 0.00, 0.25, 0.25, -0.25, -0.25, -0.25, 0.00, 0.00, -0.25, 0.00, -0.25, -0.25, 0.00, 0.00, 0.00, 0.00, 0.00, 0.25, 0.00, 0.00, 0.25, 0.00, 0.00, 0.25, -0.25, 0.00, -0.25, 0.00, -0.25, 0.00, -0.50, -0.25, -0.25, -0.25, 0.00, 0.25, 0.25, 0.25, 0.00, 0.00, 0.25, 0.00, -0.25, 0.25, 0.00, -0.25, -0.25, 0.00, 0.00, 0.25, 0.25, 0.25, 0.25, 0.00, -0.25, 0.00, 0.25, 0.00, 0.00, -0.25, 0.25, 0.00};
#endif

#endif
