//Numpy array shape [9, 32, 64]
//Min -0.500000000000
//Max 0.500000000000
//Number of zeros 13172

#ifndef W8_H_
#define W8_H_

#ifndef __SYNTHESIS__
weight8_t w8[18432];
#else
weight8_t w8[18432] = {0.00, 0.00, 0.00, 0.00, 0.00, 0.00, 0.25, 0.25, 0.25, 0.00, 0.00, 0.00, 0.00, 0.00, 0.00, 0.00, 0.00, 0.00, 0.00, 0.00, 0.00, -0.25, 0.00, 0.00, 0.00, 0.00, 0.00, 0.00, 0.00, 0.00, 0.25, 0.00, 0.00, 0.00, 0.00, -0.25, 0.00, 0.00, 0.00, 0.00, 0.00, 0.00, 0.00, 0.00, 0.00, 0.00, 0.00, -0.25, 0.00, 0.00, 0.25, 0.00, 0.00, 0.00, -0.25, -0.25, 0.00, 0.00, 0.00, 0.00, 0.25, -0.25, 0.00, 0.00, -0.25, 0.00, 0.00, -0.25, 0.00, 0.00, 0.00, 0.00, 0.00, 0.25, 0.00, 0.00, 0.00, 0.25, 0.00, 0.00, 0.00, -0.25, 0.00, 0.00, 0.00, 0.00, 0.00, -0.25, 0.00, -0.25, 0.25, 0.00, -0.25, 0.00, 0.25, 0.25, 0.00, 0.00, 0.00, 0.25, 0.00, 0.00, -0.25, 0.00, 0.00, 0.00, 0.00, -0.25, -0.25, -0.25, 0.00, -0.25, -0.25, 0.25, 0.00, -0.25, 0.00, 0.00, 0.00, 0.00, 0.00, -0.25, 0.00, 0.00, 0.25, 0.00, 0.25, 0.25, 0.00, 0.00, 0.00, 0.00, 0.00, 0.00, 0.00, 0.00, 0.00, 0.00, 0.00, 0.25, 0.00, 0.00, -0.25, 0.00, 0.25, -0.25, 0.00, 0.00, 0.00, 0.00, 0.00, 0.00, 0.00, 0.25, 0.00, 0.00, 0.00, -0.25, 0.25, -0.25, 0.25, 0.00, -0.25, 0.00, 0.00, 0.00, -0.25, 0.00, 0.00, 0.00, -0.25, 0.00, 0.00, 0.00, 0.00, 0.00, 0.00, 0.00, 0.25, 0.00, -0.25, 0.00, 0.00, 0.25, 0.00, 0.00, -0.25, 0.00, 0.00, 0.00, -0.25, 0.00, -0.25, 0.00, 0.25, 0.00, 0.00, -0.25, 0.00, 0.25, -0.25, 0.00, 0.00, 0.00, 0.00, 0.25, 0.25, 0.00, -0.25, 0.00, 0.00, 0.25, 0.00, 0.00, 0.00, 0.00, 0.25, 0.00, 0.00, 0.00, 0.00, 0.25, -0.25, 0.25, 0.00, 0.25, 0.00, 0.00, -0.25, 0.00, -0.25, 0.00, 0.00, 0.00, 0.00, 0.00, 0.00, 0.00, 0.00, -0.25, 0.00, 0.00, 0.00, 0.00, 0.25, 0.00, -0.25, 0.00, 0.00, 0.00, -0.25, 0.00, 0.00, 0.00, 0.00, 0.00, 0.00, 0.00, 0.00, 0.00, 0.00, 0.00, 0.00, 0.00, 0.00, 0.00, 0.00, 0.00, 0.00, 0.00, 0.00, 0.00, -0.25, 0.00, -0.25, 0.00, 0.00, 0.00, 0.00, 0.25, 0.00, 0.00, 0.00, 0.25, -0.25, 0.00, 0.00, 0.00, 0.00, 0.00, 0.00, 0.00, 0.00, 0.00, 0.00, 0.00, 0.00, 0.00, 0.00, -0.25, 0.00, 0.00, -0.25, -0.25, 0.00, -0.25, 0.00, 0.00, 0.00, 0.00, 0.00, 0.00, 0.00, 0.00, 0.00, 0.00, 0.00, 0.00, 0.00, 0.00, 0.00, 0.00, 0.00, -0.25, 0.00, -0.25, 0.00, 0.00, 0.00, 0.00, 0.00, 0.25, 0.00, 0.25, 0.00, 0.25, -0.25, 0.25, 0.00, 0.00, 0.00, 0.00, -0.25, 0.00, 0.00, 0.25, 0.00, 0.00, 0.25, 0.00, 0.00, 0.00, 0.00, 0.00, 0.00, 0.00, 0.00, 0.00, 0.00, 0.25, 0.00, 0.00, 0.25, 0.00, 0.00, 0.00, -0.25, 0.00, 0.00, 0.00, 0.00, 0.00, 0.00, 0.00, 0.25, 0.00, 0.00, -0.25, 0.00, 0.00, 0.00, 0.00, 0.00, -0.25, 0.00, 0.00, 0.00, 0.25, 0.00, 0.00, -0.25, 0.00, 0.00, 0.00, 0.00, 0.00, 0.00, 0.00, -0.25, 0.00, 0.00, 0.00, 0.00, 0.00, 0.00, 0.00, 0.00, 0.00, -0.25, 0.00, 0.00, 0.00, 0.00, 0.00, -0.25, 0.00, 0.00, 0.00, 0.00, 0.00, 0.00, 0.00, 0.00, 0.00, 0.00, 0.00, -0.25, 0.00, 0.00, 0.00, 0.00, 0.25, 0.00, 0.00, 0.00, 0.25, 0.00, 0.00, 0.00, 0.00, 0.00, 0.25, 0.00, 0.00, 0.00, 0.25, 0.00, 0.25, 0.25, 0.00, 0.00, -0.25, 0.00, -0.25, 0.00, 0.00, 0.00, 0.00, 0.25, 0.00, 0.00, 0.25, 0.00, 0.00, 0.00, 0.25, 0.00, 0.00, 0.00, 0.00, 0.00, 0.00, 0.00, 0.25, 0.00, 0.00, 0.25, 0.00, 0.00, 0.00, 0.00, 0.00, 0.00, 0.00, 0.00, 0.00, 0.00, -0.25, 0.00, 0.00, 0.00, 0.00, 0.00, 0.00, 0.00, 0.00, -0.25, 0.00, 0.25, 0.00, -0.25, 0.00, 0.00, 0.00, 0.00, 0.25, 0.00, 0.25, -0.25, 0.00, 0.00, -0.25, 0.00, 0.00, 0.00, 0.00, 0.00, -0.25, -0.25, 0.00, -0.25, 0.00, -0.25, 0.00, 0.00, 0.00, 0.25, 0.00, 0.25, 0.00, 0.00, 0.25, 0.00, 0.00, -0.25, 0.00, -0.25, 0.00, 0.00, 0.00, 0.00, 0.00, -0.25, 0.25, 0.00, 0.25, -0.25, 0.00, 0.25, 0.00, 0.25, 0.00, -0.25, 0.00, -0.25, 0.00, 0.25, -0.25, 0.00, 0.00, 0.25, 0.00, 0.25, 0.00, 0.25, 0.00, 0.00, -0.25, 0.00, 0.00, 0.00, -0.25, 0.25, 0.00, 0.25, 0.00, 0.00, 0.00, 0.00, -0.25, 0.00, 0.25, 0.00, 0.25, 0.00, 0.00, 0.00, 0.00, -0.25, -0.25, 0.00, 0.00, 0.25, 0.00, 0.00, -0.25, 0.00, -0.25, 0.00, 0.00, 0.00, 0.25, -0.25, 0.00, -0.25, 0.00, 0.00, 0.00, -0.25, 0.00, 0.00, 0.00, 0.00, 0.00, 0.00, 0.25, 0.25, 0.00, -0.25, 0.25, 0.00, -0.25, 0.25, 0.00, 0.00, 0.00, 0.25, 0.00, 0.00, 0.25, 0.00, -0.25, 0.25, 0.25, 0.00, 0.00, 0.00, 0.25, 0.25, 0.00, 0.00, 0.00, 0.00, 0.00, -0.25, 0.00, 0.00, 0.00, 0.00, 0.00, -0.25, 0.00, -0.25, 0.00, 0.00, -0.25, 0.00, 0.25, -0.25, 0.00, 0.00, -0.25, 0.00, 0.25, 0.00, 0.00, 0.00, 0.00, 0.00, 0.00, 0.00, 0.00, -0.25, 0.00, 0.00, 0.00, -0.25, 0.00, 0.00, 0.25, 0.25, -0.25, 0.00, 0.00, -0.25, 0.00, 0.00, 0.25, 0.25, 0.00, 0.00, 0.00, 0.00, 0.00, 0.00, 0.00, 0.00, 0.25, 0.00, 0.00, -0.25, -0.25, 0.25, 0.00, 0.00, 0.00, 0.00, 0.25, -0.25, 0.00, 0.00, 0.00, 0.25, 0.00, -0.25, 0.25, 0.00, -0.25, 0.00, 0.00, 0.00, 0.00, 0.00, 0.00, 0.00, 0.00, 0.00, 0.00, 0.00, 0.00, 0.00, -0.25, 0.00, 0.25, 0.00, 0.00, -0.25, 0.00, -0.25, -0.25, -0.25, 0.00, 0.00, 0.00, 0.00, 0.00, -0.25, 0.00, -0.25, 0.00, 0.00, 0.00, 0.25, 0.00, 0.00, 0.00, 0.00, 0.00, 0.00, 0.00, 0.00, -0.25, -0.25, 0.00, 0.00, 0.00, 0.00, 0.00, 0.00, -0.25, 0.00, 0.00, 0.00, 0.00, -0.25, 0.00, 0.00, 0.00, 0.25, 0.00, 0.00, 0.00, 0.00, -0.25, 0.25, 0.00, -0.25, 0.25, 0.00, 0.00, 0.00, 0.00, -0.25, 0.00, 0.00, 0.00, 0.00, -0.25, 0.00, -0.25, 0.00, 0.00, -0.25, 0.00, 0.00, 0.00, 0.00, -0.25, 0.00, 0.00, -0.25, 0.00, -0.25, 0.00, 0.00, 0.25, 0.00, -0.25, 0.00, 0.00, 0.00, 0.00, 0.00, 0.00, 0.00, 0.00, 0.00, 0.00, 0.00, 0.00, 0.00, -0.25, 0.00, 0.00, -0.25, 0.00, -0.25, -0.25, 0.00, 0.25, 0.00, 0.00, 0.00, 0.00, 0.00, -0.25, 0.00, 0.00, 0.00, 0.00, 0.00, 0.00, 0.00, 0.00, 0.00, 0.00, 0.00, 0.00, -0.25, 0.00, 0.00, 0.00, 0.00, 0.00, -0.25, 0.25, -0.25, 0.00, 0.00, 0.00, 0.00, 0.00, -0.25, -0.25, -0.25, 0.00, 0.00, 0.00, 0.00, 0.00, 0.00, 0.00, -0.25, 0.00, -0.25, 0.00, 0.00, 0.00, 0.00, 0.00, 0.25, 0.00, 0.25, 0.00, 0.00, 0.25, 0.25, -0.25, 0.00, -0.25, -0.25, 0.00, 0.25, 0.00, 0.00, 0.00, 0.00, 0.00, 0.00, 0.00, 0.00, -0.25, 0.00, -0.25, -0.25, 0.00, 0.00, 0.00, 0.00, 0.00, 0.00, -0.25, 0.00, 0.00, 0.00, 0.00, 0.00, -0.25, 0.00, 0.25, 0.00, 0.00, 0.00, 0.00, 0.00, -0.25, 0.00, 0.00, 0.25, 0.00, 0.00, 0.00, 0.25, 0.00, 0.00, 0.00, 0.00, 0.25, 0.00, -0.25, 0.00, 0.00, 0.00, -0.25, -0.25, -0.25, 0.00, 0.00, 0.00, 0.00, 0.00, 0.00, 0.00, 0.25, 0.00, 0.00, 0.00, 0.25, 0.00, -0.25, -0.25, 0.00, 0.00, 0.00, 0.00, 0.00, 0.00, -0.25, 0.00, 0.00, 0.00, -0.25, 0.00, 0.00, 0.00, 0.25, 0.00, 0.00, -0.25, 0.00, -0.25, 0.00, 0.00, 0.00, 0.00, 0.00, -0.25, -0.25, 0.25, 0.00, 0.00, 0.00, 0.00, -0.25, 0.00, 0.00, 0.00, 0.00, -0.25, 0.00, 0.00, 0.00, 0.00, 0.00, 0.25, 0.00, 0.25, -0.25, 0.00, 0.00, 0.00, -0.25, 0.00, 0.00, 0.00, 0.25, -0.25, 0.25, 0.25, -0.25, 0.00, 0.00, 0.25, 0.00, -0.25, 0.00, 0.00, 0.00, 0.25, 0.00, 0.00, 0.00, 0.00, 0.00, -0.25, 0.00, 0.00, 0.00, 0.00, 0.00, 0.25, -0.25, 0.00, 0.00, 0.00, 0.00, 0.00, -0.25, -0.25, 0.25, 0.00, 0.00, 0.00, -0.25, 0.00, 0.00, -0.25, 0.00, -0.25, 0.00, 0.25, 0.00, 0.00, 0.00, 0.00, 0.00, -0.25, 0.00, 0.00, -0.25, 0.00, 0.00, 0.00, 0.00, -0.25, 0.00, 0.00, 0.00, 0.00, 0.00, 0.00, 0.00, 0.00, 0.00, 0.25, -0.25, 0.00, 0.00, 0.25, 0.00, 0.00, 0.00, 0.00, 0.00, 0.00, 0.00, 0.00, -0.25, -0.25, 0.00, 0.00, 0.00, 0.00, 0.00, 0.25, 0.00, 0.00, 0.00, 0.00, 0.00, 0.00, 0.00, 0.00, -0.25, 0.00, 0.00, -0.25, -0.25, 0.00, 0.00, 0.25, 0.00, 0.00, -0.25, 0.00, 0.00, 0.00, 0.00, -0.25, 0.00, 0.00, 0.00, 0.00, 0.25, -0.25, 0.00, 0.00, 0.00, 0.25, 0.00, 0.00, 0.00, 0.00, 0.00, 0.00, 0.00, 0.00, 0.25, -0.25, 0.25, 0.00, 0.00, 0.00, 0.00, 0.00, 0.00, 0.00, 0.00, 0.00, 0.00, 0.00, 0.00, -0.25, 0.00, 0.00, 0.00, 0.00, 0.00, 0.00, -0.25, 0.00, 0.00, 0.25, 0.00, -0.25, 0.00, 0.00, 0.00, -0.25, 0.00, 0.25, 0.00, 0.00, 0.00, 0.00, 0.25, 0.00, -0.25, 0.00, 0.00, 0.00, 0.25, 0.00, 0.00, 0.00, 0.00, 0.00, 0.00, 0.25, 0.00, -0.25, 0.00, 0.00, -0.25, 0.00, 0.00, 0.00, 0.00, 0.00, 0.00, 0.00, 0.00, 0.00, 0.00, 0.00, 0.00, 0.00, 0.00, 0.00, 0.00, 0.00, 0.00, 0.00, 0.00, 0.00, -0.25, 0.00, 0.00, 0.25, 0.25, 0.00, 0.00, 0.00, 0.00, -0.25, 0.00, 0.00, -0.25, -0.25, 0.00, 0.00, 0.00, 0.00, -0.25, 0.00, 0.00, 0.00, 0.00, 0.25, 0.25, -0.25, 0.00, 0.00, 0.25, 0.00, 0.00, -0.25, 0.00, 0.00, 0.00, 0.00, 0.00, 0.00, 0.25, 0.00, 0.00, -0.25, 0.00, 0.00, 0.00, 0.00, -0.25, 0.00, 0.25, 0.00, 0.00, 0.00, 0.00, 0.00, 0.00, 0.00, 0.00, 0.00, -0.25, 0.00, 0.00, 0.00, 0.00, 0.00, 0.00, 0.00, 0.00, 0.00, -0.25, 0.00, 0.00, 0.00, 0.00, 0.00, 0.25, 0.25, 0.00, 0.00, 0.00, 0.25, 0.25, -0.25, 0.00, 0.00, 0.00, 0.00, 0.00, 0.00, -0.25, 0.00, -0.25, 0.25, 0.00, 0.00, -0.25, 0.25, 0.00, 0.00, 0.00, 0.00, 0.00, 0.00, -0.25, 0.00, 0.00, 0.00, 0.00, 0.00, 0.00, -0.25, 0.00, 0.00, 0.00, 0.00, 0.00, 0.00, 0.25, 0.00, 0.00, 0.00, 0.00, 0.00, -0.25, 0.00, 0.00, 0.25, -0.25, 0.00, 0.00, 0.00, 0.00, 0.00, -0.25, -0.25, 0.25, 0.00, 0.00, 0.00, 0.00, -0.25, 0.00, 0.00, 0.00, 0.00, 0.00, 0.00, -0.25, 0.00, 0.25, 0.25, 0.00, 0.00, 0.00, 0.00, -0.25, 0.00, 0.00, 0.00, 0.00, -0.25, 0.25, 0.00, 0.25, 0.00, 0.25, 0.00, 0.25, 0.00, 0.25, 0.00, 0.00, 0.00, 0.25, 0.00, -0.25, 0.00, 0.25, 0.00, -0.25, 0.00, 0.25, 0.00, 0.00, -0.25, 0.00, -0.25, 0.00, 0.00, 0.00, 0.00, 0.00, 0.00, 0.00, 0.00, 0.00, 0.00, 0.00, 0.25, 0.25, 0.00, 0.00, 0.00, 0.00, 0.00, -0.25, 0.00, 0.00, -0.25, -0.25, -0.25, 0.00, 0.00, 0.00, -0.25, 0.00, 0.00, 0.00, 0.00, -0.25, 0.00, -0.25, 0.00, 0.00, -0.25, -0.25, 0.00, 0.25, 0.00, 0.00, 0.00, 0.00, 0.00, -0.25, 0.00, 0.00, 0.00, 0.00, -0.25, -0.25, 0.00, 0.00, 0.00, 0.00, -0.25, 0.00, 0.00, 0.25, 0.00, 0.00, 0.00, 0.00, 0.00, 0.00, 0.25, 0.00, 0.00, 0.00, 0.25, 0.00, -0.25, 0.00, 0.00, 0.00, 0.00, 0.00, 0.00, -0.25, 0.00, -0.25, -0.25, 0.25, -0.25, 0.00, -0.25, 0.00, -0.25, 0.00, 0.00, 0.00, 0.00, 0.00, 0.00, 0.00, -0.25, 0.00, 0.25, 0.25, 0.25, 0.00, 0.00, -0.25, 0.00, 0.00, 0.00, 0.00, 0.00, 0.25, 0.00, 0.00, -0.25, 0.25, 0.00, 0.00, 0.00, 0.25, 0.00, 0.00, -0.25, 0.00, 0.00, -0.25, 0.00, -0.25, 0.00, 0.00, -0.25, 0.00, 0.00, 0.00, -0.25, 0.00, 0.00, 0.00, 0.00, 0.25, 0.00, -0.25, 0.00, 0.00, 0.00, 0.00, -0.25, 0.00, -0.25, 0.25, 0.00, 0.00, 0.00, -0.25, 0.00, 0.00, -0.25, 0.00, 0.00, -0.25, 0.00, 0.00, 0.00, -0.25, 0.25, 0.00, 0.00, -0.25, 0.00, 0.25, 0.00, 0.00, 0.00, -0.25, 0.00, 0.00, 0.00, 0.00, -0.25, 0.00, -0.25, -0.25, 0.25, 0.00, 0.00, 0.00, 0.00, 0.00, 0.00, 0.00, 0.25, -0.25, -0.25, 0.00, 0.00, 0.00, 0.00, 0.00, 0.00, 0.00, 0.00, 0.00, 0.25, -0.25, -0.25, 0.00, 0.00, -0.25, 0.00, 0.00, 0.00, 0.00, 0.00, -0.25, 0.00, 0.00, 0.00, -0.25, 0.00, 0.00, 0.00, 0.00, -0.25, -0.25, 0.00, 0.00, 0.00, 0.00, 0.00, 0.00, 0.00, -0.25, -0.25, 0.00, 0.00, -0.25, 0.00, 0.00, -0.25, 0.00, 0.00, 0.00, 0.00, 0.00, 0.00, 0.00, -0.25, 0.00, 0.00, 0.00, 0.00, 0.00, 0.00, -0.25, 0.00, 0.00, 0.00, 0.00, 0.00, 0.00, 0.00, -0.25, 0.00, 0.00, -0.25, 0.00, 0.00, 0.00, 0.00, 0.00, 0.00, 0.00, 0.00, 0.00, 0.00, 0.00, 0.00, 0.00, 0.25, 0.25, 0.00, 0.00, 0.00, 0.00, 0.00, 0.00, 0.00, -0.25, 0.00, 0.00, -0.25, 0.00, 0.00, 0.00, 0.25, 0.00, 0.00, 0.00, 0.00, 0.00, 0.00, -0.25, 0.00, 0.00, -0.25, 0.00, 0.00, 0.00, 0.00, 0.00, 0.00, 0.00, 0.00, -0.25, 0.00, -0.25, -0.25, -0.25, 0.00, 0.00, -0.25, 0.00, 0.00, 0.00, 0.00, -0.25, 0.00, 0.25, -0.25, 0.00, -0.25, 0.00, 0.00, -0.25, 0.00, -0.25, 0.00, -0.25, 0.00, -0.25, -0.25, 0.00, 0.25, 0.00, 0.00, 0.00, -0.25, 0.00, 0.00, 0.00, 0.00, 0.00, -0.25, -0.25, -0.25, 0.00, 0.00, 0.00, 0.25, 0.00, 0.00, 0.00, 0.00, 0.25, 0.00, 0.00, 0.00, -0.25, -0.25, 0.00, -0.25, 0.00, -0.25, -0.25, 0.00, 0.00, 0.00, 0.00, 0.00, -0.25, -0.25, 0.25, 0.00, 0.00, 0.00, 0.00, 0.00, 0.00, 0.00, 0.00, 0.00, 0.00, 0.00, 0.00, 0.00, 0.00, 0.00, -0.25, 0.00, 0.00, 0.00, -0.25, 0.00, 0.00, 0.00, 0.25, 0.25, 0.00, 0.00, 0.00, 0.00, 0.00, 0.00, 0.00, 0.00, 0.00, 0.25, 0.00, 0.00, 0.00, 0.00, -0.25, 0.00, 0.00, 0.00, 0.25, 0.00, 0.00, 0.00, -0.25, 0.00, 0.00, -0.25, 0.00, 0.00, -0.25, 0.00, 0.00, -0.25, -0.25, -0.25, 0.00, 0.00, 0.00, 0.00, 0.00, 0.00, 0.00, 0.00, 0.00, 0.00, 0.00, 0.25, 0.25, -0.25, 0.00, 0.00, -0.25, -0.25, 0.00, -0.25, 0.00, 0.25, 0.00, -0.25, -0.25, 0.00, 0.25, 0.00, 0.00, 0.00, -0.25, 0.00, 0.00, -0.25, 0.00, 0.00, -0.25, 0.00, 0.00, 0.00, -0.25, 0.00, -0.25, 0.00, 0.00, 0.00, 0.00, -0.25, 0.00, -0.25, 0.00, 0.00, 0.00, 0.00, 0.25, -0.25, -0.25, 0.25, 0.00, 0.00, 0.00, 0.00, 0.00, -0.25, -0.25, 0.00, -0.25, 0.25, 0.00, 0.00, -0.25, -0.25, 0.00, 0.00, 0.00, 0.00, -0.25, 0.00, 0.00, 0.00, 0.00, 0.25, 0.00, 0.00, 0.00, 0.25, 0.00, 0.00, 0.00, 0.00, 0.00, 0.00, -0.25, 0.00, 0.00, 0.00, 0.00, -0.25, 0.00, -0.25, -0.25, -0.25, -0.25, 0.25, 0.00, -0.25, 0.00, 0.00, 0.00, 0.00, 0.25, 0.00, -0.25, 0.00, 0.00, -0.25, 0.25, 0.00, -0.25, 0.00, 0.00, 0.25, 0.00, 0.25, -0.25, 0.25, 0.00, 0.00, 0.00, -0.25, -0.25, 0.00, 0.00, 0.00, 0.00, 0.00, -0.25, -0.25, 0.00, 0.00, 0.00, 0.00, -0.25, 0.00, 0.00, 0.00, 0.00, -0.25, -0.25, 0.00, 0.00, 0.00, 0.00, 0.00, -0.25, -0.25, 0.00, 0.00, 0.00, -0.25, 0.00, -0.25, -0.25, 0.00, 0.00, -0.25, 0.00, 0.00, 0.00, 0.00, -0.25, -0.25, 0.00, 0.25, 0.00, 0.00, 0.00, 0.00, 0.00, 0.00, 0.25, -0.25, 0.00, 0.00, 0.00, -0.25, 0.00, 0.00, 0.00, -0.25, 0.00, 0.00, -0.25, 0.00, 0.00, 0.00, 0.00, 0.00, 0.00, -0.25, 0.25, -0.25, -0.25, 0.00, 0.00, 0.00, 0.00, 0.00, 0.00, 0.00, 0.00, 0.00, 0.00, 0.00, 0.00, 0.00, 0.00, -0.25, 0.25, -0.25, 0.00, 0.00, 0.25, 0.00, -0.25, 0.00, 0.25, 0.00, 0.00, 0.00, 0.25, 0.00, -0.25, 0.00, 0.00, 0.25, 0.00, 0.00, 0.25, 0.00, 0.00, 0.00, 0.00, 0.00, 0.00, 0.25, 0.00, -0.25, 0.00, 0.00, 0.00, 0.00, 0.00, -0.25, 0.00, 0.00, 0.00, 0.00, 0.25, 0.00, 0.00, 0.25, 0.25, -0.25, -0.25, 0.00, 0.25, 0.00, 0.00, 0.00, 0.00, 0.00, -0.25, 0.00, 0.00, 0.25, 0.25, 0.00, 0.00, 0.00, 0.00, 0.25, 0.00, 0.00, -0.25, 0.00, 0.00, 0.00, -0.25, 0.00, 0.00, 0.00, 0.00, -0.25, 0.00, 0.25, 0.00, 0.00, 0.00, 0.00, 0.00, 0.25, 0.00, 0.00, 0.00, 0.00, 0.00, 0.00, 0.25, 0.00, -0.25, 0.00, 0.00, 0.00, 0.00, -0.25, 0.00, 0.00, 0.00, 0.00, 0.25, 0.00, 0.00, 0.00, 0.00, 0.00, 0.00, 0.00, 0.00, -0.25, 0.00, 0.00, 0.00, -0.25, -0.25, 0.00, 0.00, 0.00, 0.00, 0.25, 0.00, -0.25, 0.00, 0.00, -0.25, 0.00, 0.00, 0.00, 0.00, 0.25, -0.25, 0.00, 0.00, 0.00, 0.00, -0.25, -0.25, 0.00, 0.25, 0.00, 0.00, 0.00, 0.25, 0.00, 0.00, 0.00, 0.00, -0.25, 0.00, 0.00, 0.00, -0.25, 0.00, 0.25, 0.00, 0.00, 0.00, 0.00, 0.25, 0.25, -0.25, 0.00, 0.00, 0.00, 0.00, 0.00, 0.25, 0.25, 0.00, 0.25, 0.00, 0.00, 0.00, 0.00, 0.00, 0.25, 0.00, -0.25, 0.00, -0.25, -0.25, 0.00, 0.00, 0.00, 0.25, 0.00, 0.00, 0.00, 0.00, 0.00, 0.00, 0.00, 0.00, 0.00, 0.00, -0.25, 0.00, 0.00, 0.00, 0.25, -0.25, 0.00, 0.25, 0.00, 0.00, 0.25, 0.00, 0.25, 0.00, 0.00, 0.00, 0.00, 0.00, 0.00, 0.00, -0.25, 0.00, 0.00, 0.00, 0.00, 0.00, 0.00, 0.00, 0.00, 0.25, -0.25, 0.25, 0.00, 0.25, 0.25, 0.00, 0.00, 0.00, 0.00, 0.00, 0.00, -0.25, 0.00, 0.00, 0.25, -0.25, 0.00, 0.00, 0.00, 0.00, 0.00, 0.25, 0.00, 0.00, -0.25, 0.00, 0.25, 0.00, 0.00, 0.00, 0.00, 0.00, 0.00, 0.00, -0.25, 0.00, -0.25, -0.25, 0.00, 0.00, 0.25, -0.25, 0.00, 0.00, -0.25, 0.00, 0.00, 0.25, 0.00, -0.25, 0.25, 0.00, -0.25, 0.00, 0.00, 0.00, 0.00, 0.00, 0.00, -0.25, 0.00, 0.00, 0.00, 0.00, 0.00, 0.00, 0.00, 0.00, 0.25, 0.00, -0.25, 0.00, -0.25, 0.00, 0.00, -0.25, -0.25, 0.00, 0.25, 0.00, 0.00, -0.25, 0.00, -0.25, -0.25, 0.00, -0.25, -0.25, 0.25, 0.00, 0.00, 0.25, 0.00, 0.00, 0.00, 0.00, 0.00, 0.00, 0.00, 0.00, 0.00, -0.25, 0.00, 0.00, 0.00, 0.00, 0.25, 0.00, 0.25, -0.25, 0.00, 0.00, 0.00, -0.25, 0.25, 0.00, 0.00, 0.00, 0.00, 0.00, 0.00, -0.25, 0.00, 0.00, 0.00, 0.00, 0.00, 0.00, 0.00, 0.25, 0.00, 0.25, -0.25, 0.00, 0.00, 0.00, 0.00, 0.00, 0.00, -0.25, 0.00, 0.00, 0.00, 0.00, 0.00, 0.00, 0.00, -0.25, 0.00, 0.00, 0.00, 0.25, 0.25, -0.25, 0.00, 0.00, -0.25, 0.00, 0.00, 0.25, 0.00, 0.00, 0.00, 0.00, -0.25, -0.25, -0.25, 0.25, 0.00, 0.00, 0.00, 0.00, 0.00, 0.00, 0.00, 0.25, 0.00, -0.25, 0.00, -0.25, 0.00, 0.25, 0.00, 0.00, 0.00, 0.00, 0.25, 0.00, 0.00, 0.25, 0.00, -0.25, 0.25, 0.25, 0.00, 0.00, 0.00, 0.00, 0.00, 0.00, 0.25, 0.00, -0.25, 0.00, 0.00, -0.25, -0.25, 0.00, -0.25, 0.00, 0.00, 0.00, 0.00, 0.00, -0.25, 0.00, 0.00, 0.00, 0.00, -0.25, 0.00, 0.00, 0.00, 0.25, -0.25, 0.00, -0.25, 0.00, -0.25, 0.00, 0.00, -0.25, 0.00, 0.00, 0.00, 0.00, 0.00, 0.00, 0.00, -0.25, 0.25, 0.00, -0.25, -0.25, -0.25, 0.25, -0.25, 0.00, 0.25, 0.25, 0.00, 0.00, 0.25, 0.00, 0.25, 0.00, 0.00, 0.00, 0.00, 0.00, -0.25, -0.25, 0.00, 0.00, 0.00, 0.00, -0.25, 0.00, 0.25, 0.00, 0.00, 0.00, 0.00, 0.00, 0.00, 0.00, -0.25, -0.25, -0.25, 0.00, 0.00, -0.25, -0.25, 0.00, 0.00, 0.00, -0.25, 0.00, 0.00, 0.00, 0.00, -0.25, -0.25, -0.25, 0.00, -0.25, 0.00, 0.00, 0.00, 0.00, 0.00, 0.00, 0.00, -0.25, -0.25, 0.00, -0.25, 0.00, 0.00, -0.25, -0.25, 0.00, 0.00, 0.00, -0.25, 0.00, 0.00, 0.00, 0.00, 0.00, -0.25, 0.00, 0.00, 0.00, -0.25, 0.25, 0.25, 0.00, 0.00, 0.00, 0.00, 0.00, 0.00, 0.00, 0.00, 0.00, 0.00, 0.00, 0.00, 0.00, 0.00, 0.00, -0.25, 0.25, -0.25, 0.00, -0.25, 0.00, 0.00, 0.00, 0.00, 0.00, 0.00, 0.25, 0.00, -0.25, 0.00, 0.00, 0.00, 0.00, 0.00, 0.25, 0.00, -0.25, 0.00, 0.25, 0.00, 0.00, 0.25, 0.25, -0.25, 0.25, 0.00, 0.00, 0.25, 0.25, 0.00, 0.00, 0.00, 0.00, 0.25, 0.25, 0.00, 0.00, -0.25, 0.00, 0.00, -0.25, 0.00, 0.00, 0.00, 0.00, -0.25, 0.00, -0.25, 0.00, 0.00, 0.00, 0.00, -0.25, 0.00, 0.00, -0.25, 0.00, -0.25, 0.00, 0.00, 0.00, 0.00, 0.00, 0.00, 0.00, 0.00, 0.00, 0.00, 0.00, -0.25, 0.00, 0.00, 0.00, 0.00, -0.25, 0.25, 0.00, 0.00, 0.00, 0.00, 0.00, 0.00, -0.25, 0.00, 0.00, 0.00, 0.00, 0.00, 0.00, 0.00, 0.00, 0.25, 0.00, -0.25, -0.25, 0.00, 0.00, -0.25, 0.00, -0.25, 0.00, 0.25, 0.00, -0.25, 0.00, 0.00, -0.25, 0.00, 0.00, 0.00, -0.25, -0.25, 0.00, 0.25, 0.00, 0.00, 0.00, -0.25, 0.00, 0.00, 0.00, -0.25, 0.00, -0.25, 0.00, 0.00, 0.00, 0.00, 0.00, -0.25, 0.00, 0.00, 0.00, 0.00, 0.00, 0.00, -0.25, 0.00, 0.00, 0.00, 0.00, 0.00, -0.25, 0.00, 0.00, 0.00, -0.25, -0.25, 0.25, 0.00, -0.25, 0.00, 0.00, -0.25, -0.25, 0.00, -0.25, 0.00, 0.00, -0.25, -0.25, 0.00, 0.00, 0.00, 0.00, 0.00, 0.00, 0.00, 0.00, -0.25, 0.00, 0.00, 0.00, 0.00, 0.25, -0.25, 0.00, 0.00, 0.00, 0.25, 0.00, 0.25, -0.25, 0.00, -0.25, 0.00, 0.00, 0.00, 0.25, 0.00, 0.00, 0.00, -0.25, 0.00, -0.25, 0.00, 0.00, 0.00, -0.25, 0.00, 0.00, 0.25, 0.25, 0.25, 0.00, 0.00, 0.25, 0.25, 0.00, 0.25, 0.25, 0.25, 0.00, 0.00, 0.00, 0.00, 0.25, 0.25, 0.00, 0.00, 0.25, 0.00, 0.00, -0.25, 0.00, 0.25, 0.25, 0.00, 0.25, 0.00, 0.00, -0.25, 0.00, 0.00, -0.25, 0.25, 0.00, 0.00, -0.25, 0.00, 0.00, 0.00, -0.25, 0.00, -0.25, 0.00, -0.25, 0.00, 0.00, 0.00, 0.00, 0.00, 0.00, 0.00, -0.25, 0.00, 0.00, 0.00, 0.00, 0.00, 0.00, 0.00, 0.00, 0.00, 0.00, 0.00, 0.00, 0.00, 0.00, 0.00, -0.25, 0.00, 0.00, -0.25, -0.25, 0.00, 0.00, 0.00, 0.00, 0.00, -0.25, 0.00, -0.25, 0.00, -0.25, 0.00, 0.00, 0.00, 0.00, -0.25, 0.00, 0.00, 0.00, 0.00, -0.25, 0.00, 0.00, -0.25, 0.00, 0.00, -0.25, 0.00, 0.00, 0.00, -0.25, 0.00, 0.00, 0.00, 0.00, 0.25, 0.00, 0.00, 0.00, 0.00, 0.00, 0.00, 0.00, 0.00, 0.00, 0.00, -0.25, 0.00, -0.25, 0.00, 0.00, -0.25, 0.00, 0.00, 0.00, 0.00, 0.00, 0.00, 0.00, -0.25, 0.00, 0.00, -0.25, 0.00, 0.00, 0.00, 0.00, 0.00, 0.00, 0.00, 0.00, 0.00, 0.00, -0.25, -0.25, 0.00, 0.00, 0.00, -0.25, -0.25, 0.00, -0.25, 0.00, 0.00, 0.25, 0.00, 0.00, 0.00, 0.25, 0.00, 0.00, 0.00, 0.00, -0.25, 0.00, 0.00, 0.00, 0.00, 0.00, -0.25, 0.25, -0.25, 0.00, 0.25, 0.25, 0.00, 0.00, 0.00, 0.00, 0.00, 0.00, 0.00, 0.00, -0.25, -0.25, 0.00, 0.00, 0.00, 0.00, 0.25, 0.25, 0.00, 0.00, 0.00, 0.25, 0.00, -0.25, 0.00, 0.25, 0.25, 0.00, 0.00, 0.00, 0.00, 0.25, 0.25, 0.00, 0.00, 0.25, 0.00, 0.00, 0.00, 0.25, 0.25, 0.25, -0.25, 0.00, 0.00, 0.00, 0.00, 0.25, -0.25, 0.00, 0.00, 0.00, 0.00, 0.00, 0.00, 0.00, 0.25, 0.25, 0.00, 0.00, -0.25, 0.00, -0.25, 0.00, -0.25, 0.25, 0.25, 0.25, 0.00, 0.25, 0.00, 0.00, 0.00, 0.00, 0.00, 0.00, 0.00, -0.25, 0.00, 0.00, -0.25, 0.00, 0.25, -0.25, 0.00, 0.00, -0.25, 0.00, 0.25, -0.25, -0.25, 0.00, 0.00, 0.00, 0.00, -0.25, 0.00, 0.25, 0.00, 0.00, 0.00, 0.00, 0.00, 0.00, 0.00, 0.00, 0.00, 0.00, -0.25, -0.25, -0.25, -0.25, 0.00, 0.25, 0.00, 0.00, 0.00, 0.00, 0.00, 0.00, 0.00, 0.00, 0.00, 0.00, 0.00, 0.00, 0.00, 0.00, -0.25, 0.25, 0.00, 0.00, 0.00, -0.25, 0.00, 0.00, 0.00, 0.00, 0.00, 0.00, 0.00, 0.25, 0.00, 0.00, -0.25, 0.00, 0.00, 0.00, 0.25, -0.25, 0.00, 0.00, 0.00, -0.25, -0.25, 0.00, -0.25, 0.00, 0.00, -0.25, 0.25, 0.00, 0.00, 0.00, 0.00, 0.00, -0.25, 0.00, 0.00, -0.25, -0.25, -0.25, 0.00, 0.25, 0.00, 0.00, 0.00, 0.00, 0.00, 0.00, 0.00, -0.25, 0.00, 0.00, 0.00, -0.25, -0.25, 0.00, 0.00, -0.25, 0.00, -0.25, 0.00, 0.00, 0.00, 0.25, 0.00, 0.00, 0.00, 0.00, -0.25, 0.00, 0.00, -0.25, 0.00, 0.00, -0.25, 0.00, 0.00, 0.00, 0.00, 0.00, 0.00, -0.25, 0.00, -0.25, 0.00, 0.00, 0.25, 0.00, -0.25, 0.00, 0.00, 0.00, 0.00, 0.00, -0.25, 0.00, 0.25, 0.00, 0.00, -0.25, 0.00, 0.00, 0.00, 0.00, 0.00, 0.25, 0.00, 0.00, 0.00, 0.00, 0.00, 0.00, 0.00, -0.25, 0.00, 0.00, -0.25, 0.00, 0.00, -0.25, -0.25, 0.00, 0.00, 0.00, 0.00, -0.25, -0.25, -0.25, 0.00, 0.00, -0.25, -0.25, 0.00, 0.00, 0.00, -0.25, 0.00, 0.00, 0.00, 0.00, 0.00, -0.25, 0.00, 0.00, 0.00, -0.25, 0.00, 0.00, 0.00, 0.00, 0.00, 0.00, 0.00, 0.00, 0.00, 0.00, 0.00, -0.25, 0.00, -0.25, -0.25, 0.00, 0.00, 0.00, 0.00, 0.00, 0.00, 0.00, 0.00, 0.00, -0.25, 0.00, 0.00, 0.00, 0.00, 0.00, 0.00, -0.25, 0.00, -0.25, -0.25, -0.25, 0.00, 0.00, -0.25, 0.00, 0.00, 0.00, -0.25, 0.25, 0.25, 0.00, 0.25, 0.00, 0.00, 0.00, 0.00, 0.00, -0.25, 0.00, 0.25, 0.00, 0.00, 0.00, 0.00, 0.00, 0.00, 0.00, 0.00, 0.00, -0.25, 0.25, 0.00, 0.00, 0.00, 0.00, 0.00, 0.00, 0.00, -0.25, -0.25, 0.00, -0.25, 0.00, 0.00, 0.00, 0.00, -0.25, 0.00, -0.25, 0.00, 0.00, 0.00, 0.00, 0.00, -0.25, -0.25, 0.00, 0.00, 0.25, 0.00, -0.25, 0.00, 0.00, 0.00, 0.00, 0.00, 0.00, 0.00, 0.00, 0.00, 0.00, 0.00, 0.00, 0.25, 0.00, 0.00, 0.00, -0.25, 0.00, 0.00, 0.00, 0.00, 0.00, 0.25, 0.00, 0.00, -0.25, 0.00, -0.25, 0.00, -0.25, -0.25, 0.00, 0.00, -0.25, 0.00, 0.00, 0.00, 0.00, 0.00, -0.25, 0.00, -0.25, 0.00, -0.25, 0.00, -0.25, -0.25, 0.00, 0.00, 0.00, -0.25, 0.00, 0.00, 0.00, 0.00, 0.00, 0.00, 0.00, 0.00, 0.00, 0.00, -0.25, 0.25, 0.00, 0.25, 0.00, 0.00, 0.25, 0.00, 0.25, 0.00, 0.00, 0.00, 0.00, 0.00, 0.00, 0.00, 0.00, 0.00, 0.00, 0.00, 0.00, 0.00, 0.25, 0.25, 0.00, 0.00, 0.00, 0.00, 0.00, -0.25, 0.00, 0.25, 0.00, 0.25, 0.00, 0.25, 0.00, 0.00, 0.00, -0.25, -0.25, 0.00, 0.00, 0.00, -0.25, 0.25, 0.00, 0.00, 0.00, 0.00, 0.00, 0.00, 0.00, -0.25, 0.25, 0.25, -0.25, 0.00, 0.25, 0.00, -0.25, 0.00, 0.00, 0.00, -0.25, 0.00, -0.25, 0.25, 0.00, 0.00, -0.25, 0.00, 0.00, 0.25, 0.00, -0.25, 0.00, 0.00, 0.00, 0.00, 0.25, 0.00, 0.25, 0.00, 0.25, 0.25, 0.00, 0.00, -0.25, 0.00, 0.00, 0.00, 0.25, -0.25, 0.00, -0.25, 0.25, 0.00, 0.00, 0.00, -0.25, 0.00, 0.00, -0.25, 0.00, 0.25, -0.25, 0.00, 0.00, 0.00, 0.00, 0.25, 0.00, -0.25, 0.25, 0.00, 0.00, 0.00, 0.00, 0.00, 0.00, 0.00, 0.00, 0.00, 0.00, 0.00, 0.00, 0.00, 0.00, 0.00, 0.00, 0.00, -0.25, 0.25, 0.00, 0.00, 0.00, 0.00, 0.00, 0.00, 0.00, 0.25, 0.00, 0.00, 0.00, 0.00, 0.00, 0.25, 0.00, 0.00, 0.25, 0.00, 0.00, 0.25, 0.25, 0.00, 0.00, 0.00, 0.00, 0.00, 0.00, 0.25, 0.00, 0.25, 0.00, -0.25, 0.00, 0.00, 0.00, 0.00, 0.00, 0.00, 0.25, 0.00, 0.00, 0.00, 0.00, 0.00, 0.25, 0.00, 0.00, 0.00, 0.00, -0.25, 0.00, 0.00, 0.00, -0.25, 0.00, 0.00, 0.00, 0.00, 0.00, -0.25, 0.00, 0.00, -0.25, 0.00, 0.25, 0.00, 0.25, 0.25, 0.00, -0.25, 0.00, 0.00, -0.25, 0.00, -0.25, 0.00, 0.00, 0.00, -0.25, 0.00, 0.00, 0.25, -0.25, -0.25, 0.00, -0.25, 0.00, 0.00, 0.00, 0.00, 0.00, 0.00, 0.00, 0.00, 0.00, 0.00, -0.25, 0.00, 0.00, 0.00, 0.00, 0.00, 0.00, 0.00, -0.25, -0.25, 0.00, 0.00, 0.00, 0.00, 0.25, 0.00, 0.00, 0.00, 0.00, 0.25, 0.25, 0.00, 0.00, 0.00, 0.00, 0.00, 0.00, 0.25, 0.00, 0.00, 0.00, 0.00, 0.00, -0.25, 0.25, 0.25, 0.00, 0.00, 0.25, -0.25, 0.00, 0.00, 0.00, 0.00, 0.00, 0.00, 0.00, 0.00, -0.25, 0.00, 0.00, -0.25, 0.00, 0.00, 0.00, 0.00, 0.00, 0.00, 0.00, 0.25, -0.25, 0.00, 0.00, -0.25, -0.25, 0.00, 0.00, -0.25, -0.25, 0.00, 0.25, -0.25, 0.25, -0.25, 0.00, 0.00, 0.00, 0.00, 0.00, 0.00, 0.00, 0.00, 0.00, -0.25, 0.00, 0.00, 0.00, -0.25, -0.25, -0.25, 0.00, 0.00, 0.00, 0.00, -0.25, 0.00, 0.00, 0.00, 0.00, -0.25, 0.00, 0.00, -0.25, -0.25, 0.00, 0.00, 0.00, 0.00, -0.25, 0.00, -0.25, 0.00, 0.00, 0.00, 0.00, 0.00, 0.00, 0.00, 0.00, 0.00, 0.00, 0.00, 0.00, 0.00, -0.25, -0.25, 0.00, 0.00, -0.25, 0.00, 0.00, 0.00, 0.00, -0.25, 0.00, 0.00, -0.25, 0.00, 0.00, 0.00, -0.25, 0.00, 0.00, 0.00, 0.00, 0.00, 0.00, 0.00, 0.00, 0.00, -0.25, 0.00, 0.00, 0.00, 0.00, 0.00, 0.25, 0.00, -0.25, 0.00, 0.00, 0.25, 0.00, 0.25, 0.00, 0.00, 0.00, 0.00, 0.25, -0.25, 0.00, 0.00, -0.25, 0.00, 0.00, 0.00, 0.00, 0.00, 0.00, 0.00, -0.25, -0.25, 0.00, -0.25, 0.00, 0.00, 0.00, 0.00, 0.00, 0.00, 0.00, 0.00, 0.00, -0.25, -0.25, 0.00, 0.00, 0.00, 0.25, 0.00, 0.00, 0.00, 0.25, -0.25, 0.00, 0.00, 0.00, 0.00, 0.00, 0.00, 0.00, -0.25, 0.00, 0.00, 0.00, 0.00, 0.00, 0.00, -0.25, 0.00, -0.25, -0.25, 0.00, 0.00, -0.25, -0.25, -0.25, 0.00, 0.00, 0.00, 0.00, 0.00, -0.25, 0.00, 0.00, -0.25, 0.00, 0.00, 0.00, -0.25, 0.00, 0.00, 0.00, -0.25, 0.00, 0.00, -0.25, 0.00, -0.25, -0.25, 0.00, 0.00, 0.00, 0.00, 0.00, 0.00, -0.25, 0.00, 0.00, -0.25, 0.25, 0.00, 0.00, 0.00, 0.00, 0.00, 0.00, 0.00, 0.00, 0.00, -0.25, 0.00, 0.00, 0.00, -0.25, 0.00, 0.00, 0.00, 0.00, 0.00, 0.00, 0.25, 0.00, 0.25, 0.00, 0.00, -0.25, 0.00, 0.00, 0.25, 0.00, 0.00, -0.25, 0.00, 0.00, 0.00, 0.00, -0.25, 0.25, 0.00, 0.00, 0.00, -0.25, 0.25, 0.00, -0.25, 0.00, 0.00, 0.00, 0.00, 0.00, 0.00, 0.50, 0.25, 0.00, 0.25, 0.50, 0.00, -0.25, 0.25, 0.25, 0.50, 0.00, 0.00, 0.25, 0.00, 0.25, 0.00, 0.25, 0.00, 0.25, 0.00, 0.00, 0.00, 0.00, 0.50, 0.25, 0.00, 0.00, 0.00, 0.00, 0.00, 0.00, 0.00, 0.25, 0.00, -0.25, -0.25, 0.00, 0.00, 0.00, -0.25, -0.25, 0.00, 0.25, 0.00, 0.00, 0.25, 0.00, 0.00, 0.00, 0.00, 0.00, 0.00, 0.00, 0.00, 0.00, 0.00, -0.25, 0.00, 0.00, 0.00, 0.25, 0.00, 0.25, 0.00, 0.00, 0.00, 0.25, 0.00, -0.25, 0.00, 0.00, -0.25, -0.25, 0.25, 0.00, 0.00, 0.00, -0.25, -0.25, 0.00, -0.25, 0.00, 0.00, 0.00, 0.00, -0.25, 0.25, 0.00, 0.00, 0.00, 0.00, 0.00, -0.25, -0.25, 0.00, 0.00, 0.00, 0.00, 0.00, 0.00, 0.00, -0.25, -0.25, 0.00, -0.25, 0.00, 0.00, 0.25, 0.00, 0.00, 0.00, 0.00, 0.25, 0.00, 0.00, 0.00, 0.00, 0.00, 0.00, 0.00, -0.25, 0.00, 0.00, 0.00, 0.00, 0.00, 0.00, 0.00, -0.25, 0.00, 0.00, -0.25, 0.00, 0.00, 0.00, 0.00, -0.25, 0.00, 0.00, -0.25, 0.00, 0.00, 0.00, 0.00, 0.00, 0.00, -0.25, 0.00, 0.00, -0.25, 0.00, 0.00, 0.00, 0.00, 0.00, 0.00, 0.00, 0.00, 0.00, 0.00, 0.00, 0.00, 0.25, -0.25, 0.00, 0.00, 0.00, 0.00, 0.00, 0.00, 0.25, 0.00, -0.25, 0.00, 0.00, 0.00, 0.00, -0.25, 0.00, 0.00, 0.00, 0.00, 0.00, 0.00, 0.00, 0.00, 0.00, 0.00, -0.25, 0.25, 0.00, 0.00, -0.25, 0.25, 0.00, 0.00, 0.00, 0.00, 0.00, 0.25, 0.00, 0.00, -0.25, 0.00, -0.25, 0.00, 0.00, 0.00, 0.00, 0.00, -0.25, 0.00, 0.00, 0.00, 0.00, 0.00, 0.25, 0.00, 0.00, 0.00, 0.00, 0.00, 0.00, 0.00, 0.00, -0.25, 0.00, 0.00, -0.25, 0.00, 0.00, 0.00, -0.25, 0.00, 0.00, 0.25, 0.25, 0.00, 0.00, 0.00, 0.00, 0.00, 0.00, 0.00, 0.00, 0.00, -0.25, -0.25, 0.25, 0.00, 0.00, 0.00, 0.00, 0.25, 0.00, 0.00, 0.00, 0.00, -0.25, 0.00, -0.25, 0.00, 0.00, 0.00, 0.00, -0.25, 0.00, 0.00, 0.00, 0.00, -0.25, 0.25, 0.00, 0.00, 0.00, 0.00, -0.25, 0.00, -0.25, 0.00, 0.00, 0.00, 0.00, 0.00, 0.00, -0.25, 0.00, 0.00, 0.00, 0.00, 0.00, -0.25, 0.00, 0.00, 0.00, 0.00, 0.00, -0.25, 0.00, 0.25, -0.25, 0.00, -0.25, 0.00, 0.00, 0.00, -0.25, -0.25, -0.25, 0.00, 0.00, 0.00, -0.25, 0.00, 0.00, 0.00, -0.25, 0.00, 0.00, 0.00, 0.00, 0.00, 0.00, 0.00, -0.25, 0.00, -0.25, 0.00, 0.00, 0.00, -0.25, 0.00, 0.00, -0.25, 0.00, -0.25, -0.25, 0.00, 0.00, 0.25, 0.25, 0.00, 0.00, 0.00, -0.25, 0.25, 0.00, 0.00, 0.00, 0.00, 0.00, -0.25, -0.25, 0.00, -0.25, 0.00, 0.00, 0.00, 0.00, 0.00, -0.25, 0.00, 0.00, 0.00, 0.00, -0.25, 0.00, 0.00, 0.00, -0.25, -0.25, 0.00, 0.00, 0.00, 0.00, 0.00, 0.00, 0.00, 0.00, 0.00, 0.00, 0.00, 0.00, 0.00, 0.00, 0.00, 0.00, 0.00, 0.00, 0.00, 0.00, 0.25, 0.00, 0.00, 0.00, 0.00, -0.25, -0.25, -0.25, 0.00, 0.00, 0.25, 0.00, 0.25, 0.00, -0.25, 0.00, -0.25, -0.25, 0.00, -0.25, 0.00, 0.25, 0.00, 0.00, 0.00, 0.00, 0.00, 0.00, -0.25, 0.00, 0.00, 0.00, 0.25, -0.25, 0.00, 0.00, -0.25, 0.00, -0.25, 0.25, 0.00, 0.00, 0.00, 0.00, -0.25, 0.00, 0.00, -0.25, 0.00, 0.00, -0.25, -0.25, 0.00, 0.00, 0.00, 0.00, -0.25, 0.00, -0.25, 0.00, 0.00, 0.00, 0.00, 0.00, -0.25, 0.00, 0.00, 0.00, 0.00, 0.00, 0.00, -0.25, -0.25, -0.25, 0.00, 0.00, 0.00, 0.25, 0.00, 0.00, 0.25, 0.00, -0.25, 0.00, 0.00, 0.00, 0.00, 0.25, 0.00, 0.25, -0.25, 0.00, 0.00, 0.00, 0.00, 0.00, -0.25, 0.00, 0.00, 0.00, 0.00, 0.00, 0.00, 0.00, 0.00, 0.00, 0.00, 0.00, 0.00, 0.00, 0.25, 0.00, -0.25, 0.00, -0.25, 0.00, 0.00, 0.00, 0.00, 0.00, 0.00, 0.00, 0.00, 0.25, 0.00, 0.25, -0.25, 0.00, 0.00, 0.00, 0.00, 0.00, 0.00, -0.25, 0.25, 0.00, -0.25, 0.00, 0.00, 0.00, 0.00, 0.00, 0.25, 0.00, -0.25, -0.25, 0.00, 0.00, 0.00, 0.00, 0.00, 0.00, 0.00, -0.25, 0.00, 0.00, 0.00, 0.00, 0.00, -0.25, 0.00, 0.00, 0.00, 0.00, 0.00, 0.00, 0.00, 0.00, 0.00, 0.25, 0.25, 0.00, 0.00, 0.25, 0.00, 0.00, 0.00, -0.25, 0.25, 0.00, 0.00, 0.00, -0.25, 0.00, 0.00, 0.00, 0.00, 0.00, 0.00, 0.00, 0.25, 0.00, 0.00, 0.25, 0.25, -0.25, 0.00, 0.25, -0.25, 0.00, 0.00, 0.00, 0.00, 0.00, 0.00, 0.00, 0.25, 0.00, 0.25, 0.00, 0.00, 0.00, 0.00, 0.00, -0.25, 0.25, 0.00, 0.00, 0.25, 0.00, 0.00, -0.25, 0.00, -0.25, 0.00, 0.00, 0.00, 0.00, 0.00, 0.00, 0.00, -0.25, -0.25, 0.00, 0.00, 0.00, 0.00, 0.00, -0.25, 0.00, 0.00, 0.00, 0.00, 0.25, 0.00, 0.00, 0.00, 0.00, -0.25, -0.25, 0.00, 0.00, 0.00, 0.00, 0.00, -0.25, 0.00, 0.00, 0.00, 0.00, 0.00, 0.00, 0.00, -0.25, 0.00, 0.00, 0.00, 0.00, -0.25, 0.00, -0.25, 0.00, 0.00, 0.00, 0.25, 0.00, 0.00, 0.00, -0.25, -0.25, 0.00, 0.00, 0.00, 0.25, 0.00, -0.25, 0.00, -0.25, 0.25, 0.00, 0.00, 0.25, 0.00, 0.00, 0.00, 0.00, 0.25, -0.25, -0.25, 0.25, 0.00, 0.00, -0.25, -0.25, -0.25, 0.00, -0.25, 0.00, 0.00, -0.25, 0.00, 0.00, -0.25, 0.00, 0.00, 0.00, 0.00, 0.00, 0.25, 0.00, 0.00, 0.00, 0.00, 0.25, 0.00, -0.25, 0.00, 0.00, 0.00, 0.00, -0.25, 0.00, 0.00, 0.00, 0.00, 0.00, 0.00, 0.00, -0.25, 0.00, 0.00, 0.00, -0.25, 0.25, -0.25, -0.25, 0.00, 0.00, 0.00, 0.00, 0.00, 0.00, 0.00, 0.00, 0.00, -0.25, 0.00, 0.00, 0.00, 0.00, 0.00, 0.00, 0.00, 0.00, 0.00, 0.00, -0.25, 0.00, -0.25, 0.00, 0.00, 0.00, 0.00, -0.25, 0.00, 0.00, 0.00, 0.00, 0.00, 0.00, 0.00, 0.00, 0.00, 0.00, 0.00, 0.00, 0.00, -0.25, 0.00, 0.00, -0.25, 0.00, 0.00, 0.00, 0.00, 0.00, 0.00, 0.00, 0.00, 0.00, -0.25, -0.25, 0.00, -0.25, 0.00, -0.25, -0.25, 0.00, -0.25, 0.00, 0.25, 0.00, 0.00, 0.00, -0.25, 0.00, 0.00, 0.00, 0.00, 0.25, 0.00, -0.25, 0.00, 0.00, -0.25, 0.25, 0.00, 0.00, 0.00, 0.00, -0.25, 0.00, 0.00, 0.00, -0.25, 0.00, 0.00, -0.25, 0.00, -0.25, 0.00, 0.00, 0.00, 0.00, 0.00, -0.25, 0.00, -0.25, 0.00, -0.25, 0.00, 0.00, 0.00, -0.25, 0.00, 0.00, 0.00, 0.00, 0.00, 0.00, -0.25, -0.25, 0.00, 0.00, 0.00, -0.25, 0.00, 0.00, -0.25, 0.00, -0.25, 0.00, 0.00, 0.00, 0.00, 0.00, 0.00, -0.25, 0.00, 0.00, -0.25, 0.00, 0.00, 0.00, 0.00, 0.00, 0.00, -0.25, 0.00, 0.00, 0.00, 0.00, 0.00, 0.00, -0.25, 0.00, 0.00, -0.25, -0.25, 0.00, 0.00, 0.25, 0.00, 0.00, 0.00, 0.00, 0.00, 0.00, -0.25, -0.25, 0.00, 0.00, 0.00, -0.25, 0.25, 0.00, 0.00, 0.00, 0.00, 0.00, 0.00, -0.25, -0.25, 0.00, 0.25, 0.25, -0.25, 0.00, 0.00, 0.00, 0.00, 0.00, 0.00, -0.25, -0.25, 0.00, 0.00, 0.25, 0.00, -0.25, -0.25, 0.00, 0.00, 0.00, -0.25, 0.00, 0.00, 0.00, 0.00, 0.00, 0.00, 0.00, 0.00, 0.00, 0.00, 0.00, 0.25, -0.25, 0.00, 0.00, -0.25, 0.00, 0.00, 0.00, -0.25, 0.25, 0.00, 0.00, 0.00, 0.00, 0.00, 0.00, 0.25, -0.25, 0.00, 0.00, 0.00, 0.00, 0.00, 0.00, 0.25, -0.25, 0.00, 0.00, 0.00, 0.25, 0.00, 0.00, 0.00, 0.25, 0.00, 0.00, 0.00, 0.00, 0.00, 0.00, 0.00, 0.25, -0.25, 0.25, 0.00, 0.00, 0.00, -0.25, -0.25, 0.00, 0.00, 0.25, -0.25, 0.00, 0.00, 0.00, 0.00, 0.00, 0.00, 0.00, 0.00, 0.00, 0.00, 0.00, 0.00, 0.00, -0.25, -0.25, 0.00, -0.25, 0.25, 0.00, 0.00, -0.25, -0.25, -0.25, 0.00, 0.00, 0.00, 0.00, 0.25, 0.00, -0.25, 0.00, 0.25, -0.25, 0.25, -0.25, 0.00, 0.00, 0.00, 0.00, 0.00, 0.00, -0.25, 0.25, 0.00, 0.00, 0.00, 0.00, 0.00, 0.00, -0.25, 0.00, 0.25, 0.25, 0.00, 0.00, 0.00, 0.00, 0.00, -0.25, 0.00, 0.00, 0.00, -0.25, 0.25, 0.00, 0.00, 0.00, 0.25, -0.25, 0.00, 0.00, -0.25, 0.00, 0.25, 0.00, 0.00, 0.00, 0.00, 0.00, -0.25, -0.25, 0.00, 0.00, 0.00, 0.00, 0.00, 0.25, 0.00, 0.25, 0.25, 0.00, 0.25, 0.00, 0.00, 0.00, 0.25, 0.00, 0.00, 0.00, -0.25, 0.00, -0.25, -0.25, 0.00, 0.00, 0.00, 0.00, 0.00, 0.25, 0.00, 0.00, 0.00, 0.00, 0.00, 0.00, 0.25, 0.00, -0.25, 0.00, 0.00, 0.00, 0.00, 0.00, 0.00, 0.00, 0.00, 0.00, 0.00, 0.00, 0.25, 0.00, 0.00, -0.25, -0.25, 0.00, 0.00, 0.00, 0.00, -0.50, 0.25, 0.00, -0.25, 0.00, -0.25, -0.25, 0.00, 0.00, 0.00, 0.00, 0.00, 0.00, -0.25, 0.00, 0.00, 0.00, 0.00, 0.00, -0.25, -0.25, 0.00, 0.00, 0.00, -0.25, 0.00, 0.00, 0.25, 0.00, 0.00, 0.00, 0.00, -0.25, 0.25, 0.00, 0.00, 0.25, 0.00, -0.25, 0.00, -0.25, -0.25, 0.25, -0.25, 0.00, 0.00, 0.00, 0.00, 0.25, 0.00, 0.00, 0.00, 0.00, 0.00, -0.25, 0.00, 0.00, 0.00, 0.00, 0.00, 0.00, 0.00, -0.25, 0.00, -0.25, -0.25, 0.00, 0.00, -0.25, 0.00, 0.00, 0.25, 0.00, 0.00, 0.00, 0.00, 0.25, -0.25, 0.00, 0.00, 0.00, 0.00, -0.25, 0.25, 0.00, 0.00, 0.00, 0.25, 0.00, 0.00, 0.00, 0.00, 0.25, 0.00, -0.25, 0.00, 0.00, 0.00, -0.25, -0.25, -0.25, -0.25, 0.00, 0.00, 0.00, 0.00, 0.00, 0.00, 0.25, 0.25, 0.00, 0.00, 0.00, 0.25, 0.00, 0.00, 0.25, 0.00, 0.00, 0.00, -0.25, 0.00, -0.25, -0.25, 0.00, 0.25, 0.00, 0.00, 0.00, 0.00, -0.25, -0.25, 0.00, -0.25, 0.00, 0.00, 0.25, -0.25, 0.25, 0.25, 0.00, 0.00, 0.00, 0.00, 0.00, 0.00, 0.00, 0.00, 0.00, 0.00, 0.00, 0.00, -0.25, 0.00, 0.00, 0.25, 0.00, 0.00, 0.00, 0.00, -0.25, 0.00, 0.25, 0.00, -0.25, -0.25, -0.25, -0.25, 0.00, -0.25, 0.00, 0.00, 0.00, 0.00, 0.00, -0.25, 0.00, 0.00, 0.00, 0.00, 0.00, -0.25, 0.00, 0.00, 0.00, 0.00, -0.25, 0.00, 0.00, 0.00, 0.25, 0.00, -0.25, 0.25, 0.00, 0.25, 0.00, -0.25, 0.00, 0.00, 0.00, 0.00, 0.25, 0.00, 0.00, 0.25, -0.25, 0.25, 0.00, 0.00, -0.25, -0.25, 0.00, -0.25, 0.00, -0.25, 0.00, 0.00, 0.00, 0.00, 0.00, -0.25, 0.00, -0.25, -0.25, 0.00, 0.00, 0.00, 0.00, 0.00, 0.00, 0.00, 0.00, 0.00, 0.00, 0.00, -0.25, -0.25, -0.25, 0.00, 0.00, 0.00, 0.00, 0.00, 0.00, 0.25, 0.00, 0.00, 0.00, -0.25, 0.00, 0.00, 0.00, 0.00, 0.00, 0.00, 0.00, 0.00, 0.00, 0.00, 0.00, 0.00, 0.00, 0.00, 0.00, 0.00, 0.00, 0.00, 0.00, 0.00, 0.00, 0.00, 0.00, 0.25, 0.00, 0.25, 0.00, 0.00, 0.00, 0.00, -0.25, 0.00, -0.25, 0.00, 0.00, 0.00, -0.25, 0.00, 0.25, 0.00, 0.00, -0.25, -0.25, 0.00, 0.00, 0.00, 0.00, -0.25, 0.00, 0.00, -0.25, -0.25, -0.25, 0.00, 0.00, 0.00, 0.00, 0.00, -0.25, -0.25, 0.00, 0.00, 0.25, 0.00, 0.00, 0.25, 0.00, 0.00, 0.00, 0.00, 0.00, 0.25, 0.00, 0.00, -0.25, 0.00, 0.00, 0.00, 0.00, 0.00, 0.00, 0.00, 0.00, 0.00, -0.25, 0.00, 0.25, -0.25, 0.00, 0.25, 0.00, -0.25, 0.00, -0.25, 0.00, 0.00, -0.25, 0.25, 0.00, -0.25, 0.25, 0.00, 0.00, 0.00, 0.00, 0.00, 0.00, -0.25, -0.25, 0.00, 0.00, 0.00, -0.25, -0.25, 0.00, 0.00, 0.00, -0.25, 0.00, 0.00, 0.00, 0.00, 0.00, 0.00, -0.25, 0.00, -0.25, 0.25, 0.00, 0.00, 0.00, 0.00, 0.00, 0.00, 0.00, 0.00, 0.00, 0.00, 0.00, -0.25, 0.00, 0.00, 0.25, 0.00, 0.25, 0.00, 0.00, 0.00, 0.00, 0.00, 0.00, -0.25, 0.00, 0.00, 0.00, 0.00, 0.00, 0.00, 0.00, 0.00, 0.00, 0.00, 0.00, -0.25, 0.00, 0.00, 0.00, 0.00, 0.25, 0.00, 0.25, 0.00, -0.25, 0.00, -0.25, 0.00, 0.00, 0.00, 0.00, 0.00, 0.00, 0.00, 0.00, -0.25, 0.00, 0.00, 0.00, 0.00, 0.00, 0.00, 0.25, 0.00, 0.25, 0.00, 0.00, 0.00, 0.00, 0.00, -0.25, -0.25, 0.00, 0.00, 0.00, 0.00, -0.25, 0.00, 0.00, 0.00, 0.00, 0.00, -0.25, 0.00, 0.00, 0.00, 0.00, 0.00, -0.25, 0.00, -0.25, -0.25, 0.00, 0.00, 0.25, -0.25, 0.00, -0.25, 0.00, 0.25, 0.00, 0.00, 0.00, -0.25, 0.00, -0.25, 0.00, 0.00, -0.25, 0.00, 0.00, 0.00, 0.00, 0.00, 0.00, 0.00, -0.25, 0.00, 0.00, 0.00, -0.25, 0.00, 0.00, 0.00, 0.00, -0.25, 0.00, 0.00, -0.25, 0.00, 0.00, 0.00, 0.00, 0.00, 0.00, 0.00, 0.00, -0.25, 0.25, -0.25, 0.00, 0.00, 0.00, 0.00, 0.00, 0.00, 0.00, 0.00, 0.25, 0.00, 0.00, 0.00, 0.00, 0.00, 0.00, 0.00, 0.00, 0.00, -0.25, 0.00, 0.00, 0.00, 0.00, -0.25, 0.25, 0.00, 0.00, -0.25, -0.25, -0.25, 0.25, 0.00, 0.00, 0.00, 0.00, 0.25, 0.25, 0.00, 0.00, -0.25, -0.25, 0.00, 0.00, -0.25, 0.00, 0.00, 0.00, -0.25, -0.25, 0.25, -0.25, 0.00, 0.00, 0.00, 0.00, 0.00, 0.00, 0.00, -0.25, 0.00, 0.25, -0.25, 0.00, 0.00, 0.00, 0.00, 0.00, 0.00, 0.00, 0.25, -0.25, 0.00, 0.00, 0.00, 0.25, 0.00, 0.00, -0.25, 0.00, 0.00, -0.25, 0.00, 0.00, 0.00, -0.25, -0.25, 0.00, 0.00, 0.00, 0.25, 0.00, 0.00, 0.00, 0.00, 0.00, 0.00, 0.00, -0.25, 0.00, 0.00, -0.25, 0.00, 0.00, 0.25, 0.25, -0.25, 0.00, 0.00, 0.00, 0.00, 0.00, 0.00, 0.25, -0.25, 0.00, 0.00, 0.00, -0.25, 0.25, 0.00, -0.25, 0.00, 0.00, 0.25, 0.00, 0.00, 0.00, 0.00, 0.00, 0.00, 0.00, 0.25, 0.25, -0.25, 0.00, 0.00, 0.25, -0.25, 0.00, 0.00, 0.00, 0.00, 0.25, 0.25, 0.00, 0.00, -0.25, 0.00, 0.00, 0.00, 0.00, 0.00, 0.00, 0.00, 0.00, 0.00, 0.25, -0.25, 0.25, -0.25, 0.00, 0.00, 0.25, 0.00, 0.00, 0.00, 0.25, 0.25, 0.00, 0.00, -0.25, -0.25, 0.00, 0.00, 0.00, 0.00, 0.00, 0.00, -0.25, 0.00, 0.00, -0.25, 0.00, -0.25, 0.00, -0.25, 0.00, -0.25, 0.00, 0.00, 0.00, -0.25, 0.00, 0.00, 0.00, 0.00, 0.00, 0.00, 0.25, 0.00, -0.25, -0.25, 0.00, -0.25, 0.00, -0.25, -0.25, 0.00, 0.00, -0.25, -0.25, 0.00, 0.00, 0.00, -0.25, 0.00, 0.00, -0.25, 0.00, 0.00, 0.00, 0.00, 0.00, 0.25, 0.00, 0.00, 0.00, 0.00, 0.00, -0.25, 0.00, 0.00, 0.00, 0.00, 0.00, 0.00, 0.00, 0.00, 0.00, 0.00, 0.00, 0.00, 0.00, 0.00, 0.00, 0.00, 0.00, 0.00, 0.00, 0.00, 0.00, 0.00, -0.25, 0.25, 0.00, 0.00, 0.00, 0.00, 0.00, -0.25, -0.25, 0.00, 0.00, 0.25, 0.00, 0.00, 0.00, -0.25, 0.00, 0.00, 0.00, 0.00, 0.00, -0.25, -0.25, 0.00, -0.25, 0.00, 0.00, -0.25, 0.00, 0.00, -0.25, -0.25, 0.00, 0.00, 0.00, 0.00, 0.25, 0.00, 0.00, 0.00, 0.00, 0.00, 0.00, -0.25, -0.25, -0.25, 0.00, 0.00, 0.00, 0.00, 0.00, 0.00, 0.00, -0.25, 0.00, 0.00, -0.25, 0.00, 0.25, -0.25, -0.25, 0.00, 0.25, -0.25, 0.00, 0.00, 0.00, -0.25, -0.25, 0.00, -0.25, 0.00, 0.00, 0.00, 0.25, 0.00, 0.00, 0.00, 0.00, 0.00, -0.25, 0.00, -0.25, 0.00, -0.25, 0.00, -0.25, -0.25, 0.00, -0.25, 0.00, 0.00, 0.00, 0.00, 0.00, -0.25, 0.00, 0.25, 0.25, 0.00, 0.00, 0.00, 0.00, 0.25, -0.25, -0.25, -0.25, 0.00, -0.25, 0.00, 0.00, 0.00, -0.25, 0.00, 0.00, 0.00, -0.25, -0.25, 0.00, 0.00, 0.00, 0.00, 0.00, 0.00, 0.00, -0.25, 0.00, 0.00, 0.00, -0.25, 0.00, 0.00, -0.25, -0.25, 0.00, 0.25, 0.25, 0.00, 0.00, 0.00, 0.25, 0.00, 0.00, 0.00, 0.50, 0.00, -0.25, 0.00, 0.00, 0.00, 0.00, 0.00, 0.25, -0.25, 0.00, 0.00, 0.00, 0.00, 0.25, -0.25, 0.00, 0.00, 0.00, 0.25, 0.00, 0.00, -0.25, 0.25, -0.25, 0.00, 0.00, 0.00, -0.25, 0.00, -0.25, 0.00, 0.00, -0.25, -0.25, 0.25, 0.00, 0.00, 0.00, 0.00, 0.00, 0.00, 0.25, 0.00, 0.00, 0.00, 0.25, -0.25, 0.00, 0.00, 0.00, -0.25, 0.00, -0.25, 0.25, 0.00, 0.00, 0.00, -0.25, 0.00, 0.00, 0.00, 0.00, 0.25, 0.00, 0.00, 0.00, 0.00, 0.00, 0.00, -0.25, 0.00, 0.00, 0.00, 0.00, 0.00, 0.00, 0.00, 0.00, 0.00, 0.00, 0.00, 0.00, 0.00, -0.25, 0.00, 0.00, 0.00, 0.00, 0.00, 0.00, -0.25, 0.00, -0.25, -0.25, -0.25, 0.00, 0.00, 0.00, 0.00, 0.00, 0.00, 0.00, 0.00, -0.25, 0.00, 0.25, 0.00, 0.00, 0.00, 0.00, -0.25, 0.00, 0.00, 0.00, 0.00, 0.00, 0.00, 0.00, 0.00, 0.00, 0.00, 0.00, 0.00, 0.25, 0.00, 0.00, 0.00, 0.00, -0.25, -0.25, 0.00, 0.00, 0.25, -0.25, 0.00, -0.25, 0.25, 0.00, 0.00, 0.00, -0.25, 0.00, 0.00, 0.00, -0.25, 0.00, 0.00, 0.00, 0.00, -0.25, 0.00, 0.00, 0.00, 0.00, 0.00, 0.25, 0.00, 0.00, 0.00, 0.25, 0.00, -0.25, 0.00, 0.25, 0.00, 0.00, 0.00, 0.00, 0.00, 0.25, 0.00, 0.00, 0.00, 0.25, 0.00, -0.25, 0.00, 0.00, 0.00, 0.00, 0.00, -0.25, 0.00, -0.25, 0.00, 0.00, 0.00, 0.25, 0.00, 0.00, 0.00, 0.00, 0.00, 0.00, 0.00, 0.00, 0.00, -0.25, 0.00, 0.00, 0.00, 0.00, 0.00, -0.25, 0.00, 0.25, -0.25, 0.00, 0.00, 0.00, 0.00, 0.00, 0.00, 0.00, 0.25, 0.00, 0.00, 0.00, 0.00, 0.25, 0.00, 0.00, 0.00, 0.00, -0.25, -0.25, 0.00, 0.00, 0.00, 0.00, -0.25, 0.00, -0.25, 0.00, 0.00, 0.00, -0.25, 0.25, -0.25, 0.25, 0.00, -0.25, 0.00, 0.25, 0.00, -0.25, 0.00, 0.00, 0.00, 0.00, -0.25, -0.25, 0.25, 0.00, 0.00, -0.25, 0.25, -0.25, 0.00, 0.00, 0.00, -0.25, 0.00, -0.25, 0.00, 0.25, 0.00, -0.25, 0.00, 0.00, 0.00, 0.00, 0.25, 0.00, 0.00, 0.00, -0.25, 0.00, 0.00, -0.25, 0.00, 0.25, 0.00, 0.00, 0.00, 0.25, 0.00, 0.00, 0.00, 0.00, 0.00, 0.00, 0.00, -0.25, 0.25, 0.00, 0.00, 0.00, -0.25, 0.00, 0.00, 0.00, 0.00, 0.00, 0.00, 0.00, -0.25, -0.25, 0.00, 0.00, 0.00, 0.00, 0.25, 0.00, 0.00, -0.25, 0.00, -0.25, 0.00, 0.00, -0.25, 0.00, 0.00, 0.00, 0.00, -0.25, 0.00, 0.00, 0.25, 0.00, -0.25, 0.00, 0.00, 0.00, -0.25, 0.00, 0.00, 0.00, 0.00, 0.00, 0.00, 0.00, 0.00, 0.00, -0.25, -0.25, 0.00, 0.00, -0.25, -0.25, 0.00, -0.25, 0.00, 0.00, 0.00, -0.25, -0.25, -0.25, 0.00, 0.00, 0.00, -0.25, -0.25, 0.00, 0.00, -0.25, 0.00, -0.25, 0.00, 0.00, -0.25, -0.25, 0.00, 0.00, 0.00, 0.00, -0.25, 0.00, 0.00, 0.00, 0.00, 0.25, -0.25, 0.00, 0.00, 0.00, 0.00, -0.25, 0.00, 0.00, 0.00, 0.00, 0.00, -0.25, 0.00, 0.00, 0.00, -0.25, 0.00, 0.00, 0.25, 0.00, 0.00, -0.25, 0.00, 0.00, 0.25, 0.00, 0.00, -0.25, 0.00, 0.00, 0.00, -0.25, 0.00, 0.00, -0.25, 0.00, -0.25, 0.00, 0.25, 0.00, 0.00, 0.00, 0.00, 0.00, 0.00, 0.00, 0.00, 0.00, 0.00, 0.00, -0.25, -0.25, -0.25, -0.25, -0.25, 0.00, 0.00, 0.00, 0.00, 0.00, -0.25, 0.00, 0.25, 0.00, 0.25, 0.00, 0.00, -0.25, 0.00, -0.25, 0.00, 0.00, 0.00, 0.00, 0.00, -0.25, 0.25, 0.00, -0.25, 0.00, 0.00, 0.00, 0.00, -0.25, -0.25, 0.00, 0.00, 0.00, -0.25, 0.25, 0.00, 0.00, 0.00, 0.00, 0.00, 0.25, 0.00, 0.00, 0.00, -0.25, 0.00, -0.25, 0.00, 0.00, 0.00, 0.00, -0.25, 0.00, -0.25, -0.25, 0.00, -0.25, 0.00, 0.00, 0.00, 0.00, 0.00, 0.00, 0.00, 0.00, 0.00, 0.25, 0.25, 0.00, 0.00, -0.25, -0.25, 0.00, 0.00, 0.00, 0.00, 0.00, 0.00, 0.00, 0.00, 0.00, 0.00, 0.00, -0.25, 0.00, 0.00, 0.25, 0.00, 0.00, 0.25, 0.00, 0.00, -0.25, 0.00, -0.25, 0.00, 0.00, -0.25, 0.00, 0.25, 0.00, 0.00, -0.25, -0.25, 0.00, 0.00, 0.00, 0.25, -0.25, -0.25, -0.25, 0.00, 0.00, 0.00, 0.00, 0.00, 0.00, 0.00, -0.25, -0.25, -0.25, 0.00, 0.00, 0.00, -0.25, 0.00, 0.00, 0.00, 0.00, -0.25, 0.00, 0.00, 0.00, 0.00, 0.00, 0.25, 0.00, 0.00, 0.00, 0.00, -0.25, 0.25, 0.25, 0.00, 0.00, -0.25, -0.25, 0.00, 0.00, 0.00, 0.00, 0.00, 0.00, 0.00, 0.25, 0.00, 0.00, 0.00, -0.25, 0.00, 0.00, 0.00, 0.00, 0.00, -0.25, 0.00, 0.00, 0.00, -0.25, 0.00, 0.00, -0.25, -0.25, 0.00, 0.25, 0.00, 0.00, 0.00, 0.25, 0.00, 0.00, -0.25, -0.25, 0.25, 0.00, 0.00, 0.00, 0.25, 0.00, 0.25, 0.00, 0.00, 0.00, 0.00, -0.25, 0.00, 0.00, 0.00, 0.00, 0.00, 0.00, 0.00, -0.25, -0.25, 0.00, 0.00, 0.00, 0.00, 0.00, 0.25, 0.00, 0.00, 0.00, 0.00, -0.25, 0.00, 0.00, 0.00, 0.00, 0.00, 0.00, -0.25, -0.25, 0.00, 0.00, 0.00, -0.25, 0.00, 0.00, 0.25, -0.25, 0.00, -0.25, 0.00, 0.25, -0.25, 0.00, 0.00, -0.25, 0.00, 0.00, 0.00, 0.00, 0.00, 0.00, -0.25, -0.25, 0.00, 0.00, 0.00, -0.25, 0.00, 0.00, 0.25, 0.00, 0.00, 0.00, 0.00, 0.00, -0.25, 0.00, 0.00, 0.00, 0.00, 0.00, 0.00, -0.25, 0.00, 0.00, 0.00, 0.00, 0.00, -0.25, -0.25, -0.25, 0.00, 0.25, 0.00, 0.25, -0.25, 0.00, 0.00, 0.00, 0.00, 0.00, 0.00, -0.25, -0.25, 0.00, -0.25, 0.00, -0.25, 0.00, 0.00, 0.00, 0.25, 0.00, 0.25, 0.25, 0.00, 0.00, -0.25, 0.00, 0.00, -0.25, 0.00, 0.00, -0.25, 0.00, 0.00, 0.00, 0.00, 0.00, 0.00, 0.00, 0.00, 0.00, 0.00, -0.25, -0.25, -0.25, 0.25, 0.00, 0.00, 0.00, -0.25, 0.00, 0.00, -0.25, 0.00, 0.00, 0.00, 0.00, 0.00, -0.25, 0.00, 0.00, -0.25, -0.25, 0.00, 0.00, 0.00, -0.25, 0.00, 0.25, 0.25, 0.25, 0.00, 0.00, 0.25, 0.00, -0.25, -0.25, 0.00, 0.00, 0.00, 0.25, 0.00, 0.25, 0.00, 0.00, 0.00, 0.00, 0.00, -0.25, 0.25, 0.00, 0.25, 0.00, 0.25, 0.25, 0.00, 0.00, 0.00, 0.00, 0.00, 0.25, -0.25, -0.25, 0.00, 0.00, 0.00, 0.25, -0.25, 0.00, 0.00, 0.00, 0.00, 0.00, 0.25, 0.25, 0.00, 0.00, 0.00, 0.25, 0.00, -0.25, 0.00, 0.25, 0.00, 0.00, 0.00, 0.25, 0.00, 0.00, 0.00, 0.00, 0.25, 0.25, 0.00, 0.00, 0.00, 0.00, 0.25, 0.00, 0.00, 0.00, 0.00, 0.00, 0.00, 0.00, 0.25, 0.00, 0.00, -0.25, 0.25, -0.25, 0.00, 0.00, 0.00, -0.25, -0.25, 0.00, 0.00, 0.25, 0.00, 0.00, 0.25, 0.00, 0.00, 0.00, 0.00, 0.25, -0.25, 0.00, 0.25, 0.00, 0.00, 0.00, 0.00, -0.25, 0.00, 0.00, 0.00, 0.00, 0.00, 0.00, 0.00, 0.00, 0.00, 0.00, 0.00, 0.00, 0.00, 0.00, 0.00, 0.00, 0.00, -0.25, 0.00, 0.00, 0.00, 0.00, 0.00, 0.00, -0.25, 0.00, 0.00, 0.00, 0.00, 0.00, 0.00, 0.00, 0.00, -0.25, 0.00, 0.00, 0.00, 0.00, 0.00, 0.00, 0.00, 0.00, 0.25, 0.00, 0.00, 0.00, 0.00, 0.00, -0.25, 0.00, 0.00, 0.00, 0.00, 0.00, 0.00, 0.00, 0.00, 0.00, 0.00, -0.25, 0.25, 0.00, 0.00, 0.00, 0.00, 0.00, 0.00, 0.00, 0.25, -0.25, 0.00, 0.00, 0.00, 0.25, 0.00, 0.00, -0.25, 0.00, 0.00, 0.00, 0.00, 0.00, -0.25, -0.25, 0.00, 0.25, -0.25, 0.00, 0.25, 0.00, 0.00, 0.00, 0.00, 0.00, 0.00, -0.25, -0.25, 0.00, 0.00, 0.25, 0.00, 0.00, -0.25, 0.00, 0.00, 0.25, -0.25, 0.00, -0.25, 0.00, 0.00, 0.00, 0.25, 0.00, 0.25, 0.00, 0.25, 0.00, 0.25, 0.00, 0.00, 0.00, 0.00, 0.00, 0.25, 0.00, 0.00, 0.00, 0.00, 0.00, 0.00, -0.25, -0.25, -0.25, 0.00, 0.00, 0.00, 0.00, 0.00, 0.00, -0.25, 0.00, 0.25, 0.00, 0.00, 0.00, 0.25, 0.00, 0.25, 0.00, 0.00, 0.00, 0.00, 0.00, 0.00, 0.25, 0.00, -0.25, 0.00, 0.00, 0.00, 0.25, 0.25, 0.00, 0.00, 0.00, 0.00, 0.00, 0.00, 0.25, 0.00, -0.25, 0.00, 0.00, 0.00, -0.25, 0.00, 0.25, -0.25, -0.25, 0.00, 0.00, 0.00, 0.00, 0.00, 0.00, 0.00, 0.00, 0.00, 0.00, 0.00, 0.00, 0.00, 0.00, 0.00, 0.00, 0.00, 0.00, 0.00, -0.25, 0.00, 0.00, 0.00, 0.00, 0.00, 0.00, 0.00, 0.00, 0.00, 0.00, 0.00, 0.00, 0.00, 0.00, 0.00, 0.00, 0.00, 0.00, 0.00, 0.00, 0.00, 0.00, 0.00, 0.00, -0.25, 0.00, 0.00, 0.00, 0.00, 0.00, -0.25, 0.00, 0.00, 0.00, -0.25, 0.00, 0.25, 0.00, 0.00, 0.25, -0.25, 0.00, 0.00, 0.00, 0.00, -0.25, 0.25, 0.00, -0.25, 0.00, 0.00, 0.00, 0.00, 0.00, 0.00, 0.00, 0.00, 0.25, 0.00, 0.25, 0.00, -0.25, 0.25, 0.00, 0.00, 0.00, -0.25, -0.25, 0.00, 0.00, 0.00, 0.25, 0.00, 0.00, 0.00, 0.00, -0.25, 0.25, 0.00, 0.00, -0.25, 0.00, 0.00, -0.25, 0.00, 0.00, 0.25, 0.00, -0.25, 0.00, 0.00, -0.25, 0.00, -0.25, 0.00, 0.00, 0.00, 0.00, 0.25, 0.00, -0.25, 0.00, 0.00, 0.00, 0.00, 0.00, 0.00, -0.25, 0.00, 0.00, -0.25, 0.00, 0.00, 0.00, 0.00, 0.00, 0.00, 0.00, 0.25, 0.00, 0.00, 0.00, 0.00, 0.00, 0.25, 0.00, -0.25, 0.00, -0.25, -0.25, 0.00, 0.00, 0.00, 0.00, 0.00, -0.25, 0.00, 0.00, 0.00, 0.00, 0.00, 0.00, 0.00, 0.00, -0.25, 0.00, -0.25, 0.00, -0.25, 0.00, 0.00, 0.00, 0.00, 0.00, 0.00, 0.00, 0.25, 0.00, 0.00, -0.25, 0.00, 0.25, 0.00, 0.00, 0.25, 0.00, -0.25, 0.00, 0.00, 0.00, 0.00, 0.00, 0.00, 0.00, 0.00, 0.00, 0.00, 0.00, 0.00, 0.00, -0.25, 0.00, 0.25, 0.00, 0.00, -0.25, 0.25, 0.25, 0.00, -0.25, 0.00, 0.25, 0.00, -0.25, 0.00, 0.00, -0.25, 0.00, 0.00, 0.00, 0.00, 0.00, 0.00, 0.00, 0.00, 0.00, 0.00, 0.00, 0.00, 0.00, 0.25, 0.00, -0.25, 0.00, 0.00, 0.00, 0.00, -0.25, 0.25, 0.00, 0.00, 0.25, 0.00, 0.25, 0.00, -0.25, 0.00, 0.25, 0.00, 0.00, 0.25, 0.00, -0.25, 0.00, 0.00, 0.00, 0.25, 0.25, -0.25, -0.25, 0.25, 0.00, 0.00, -0.25, 0.00, 0.00, 0.00, 0.00, -0.25, 0.00, 0.00, 0.00, 0.25, 0.00, 0.00, 0.00, 0.00, -0.25, 0.00, 0.00, 0.00, 0.00, -0.25, 0.00, 0.00, 0.00, 0.00, -0.25, -0.25, 0.00, 0.00, 0.25, 0.00, -0.25, 0.25, 0.00, 0.00, -0.25, -0.25, 0.00, 0.00, 0.00, 0.25, 0.00, 0.00, 0.00, 0.00, 0.00, 0.00, -0.25, 0.25, 0.00, 0.00, 0.00, 0.00, -0.25, -0.25, -0.25, 0.00, -0.25, 0.25, 0.00, 0.00, 0.00, -0.25, 0.00, 0.00, 0.00, 0.00, 0.00, 0.00, 0.00, -0.25, 0.00, -0.25, 0.00, 0.00, 0.00, 0.00, 0.00, 0.00, 0.00, 0.00, 0.25, 0.00, -0.25, 0.00, 0.00, -0.25, 0.00, 0.00, 0.00, 0.00, 0.00, 0.00, 0.00, 0.00, -0.25, 0.00, 0.25, 0.00, 0.00, 0.00, -0.25, -0.25, 0.00, -0.25, -0.25, -0.25, 0.00, 0.00, 0.00, 0.00, 0.00, 0.00, -0.25, 0.00, 0.00, 0.00, 0.00, 0.00, 0.00, 0.00, -0.25, 0.00, 0.00, 0.00, 0.00, 0.00, 0.00, 0.00, 0.00, 0.00, -0.25, 0.00, 0.00, 0.00, 0.00, 0.00, 0.00, -0.25, -0.25, 0.00, 0.00, 0.00, 0.00, 0.00, 0.00, 0.00, 0.00, -0.25, 0.00, 0.00, -0.25, -0.25, 0.00, -0.25, -0.25, 0.00, 0.00, 0.00, 0.00, -0.25, -0.25, 0.00, 0.00, 0.00, 0.00, 0.00, 0.00, 0.00, -0.25, 0.00, 0.00, 0.00, -0.25, 0.00, 0.00, 0.00, -0.25, 0.00, 0.00, 0.00, 0.00, 0.00, -0.25, 0.00, 0.00, 0.00, 0.25, 0.00, 0.00, -0.25, 0.00, -0.25, 0.00, 0.00, 0.00, 0.00, 0.00, -0.25, 0.00, 0.00, 0.25, 0.00, 0.00, 0.25, -0.25, 0.00, 0.00, 0.00, 0.25, 0.00, 0.00, 0.25, 0.00, 0.00, 0.25, 0.00, 0.00, 0.00, 0.00, 0.00, 0.25, 0.00, 0.00, 0.25, 0.00, 0.00, 0.00, 0.00, 0.00, 0.00, 0.00, 0.00, 0.25, 0.25, 0.00, 0.25, 0.25, 0.00, -0.25, 0.00, -0.25, 0.00, 0.00, 0.00, 0.00, 0.00, -0.25, 0.00, 0.00, -0.25, 0.25, 0.00, -0.25, 0.00, -0.25, 0.00, 0.00, 0.00, 0.00, 0.00, 0.00, 0.00, 0.25, 0.00, 0.25, 0.00, 0.00, -0.25, 0.00, 0.00, -0.25, 0.00, 0.00, 0.00, 0.00, 0.25, 0.25, 0.00, 0.25, -0.25, 0.00, 0.25, 0.25, 0.00, 0.00, 0.00, 0.25, 0.25, 0.25, 0.00, 0.00, -0.25, -0.25, 0.00, 0.00, 0.00, 0.00, 0.00, 0.00, 0.00, 0.00, -0.25, 0.00, 0.00, -0.25, 0.00, 0.00, -0.25, -0.25, -0.25, 0.00, -0.25, 0.00, 0.25, 0.00, 0.00, 0.00, 0.00, 0.25, 0.00, -0.25, 0.00, -0.25, 0.00, 0.00, 0.00, 0.25, 0.00, 0.00, -0.25, 0.00, -0.25, 0.00, 0.00, 0.00, 0.00, -0.25, 0.00, 0.00, 0.00, 0.00, 0.25, 0.00, 0.00, 0.00, 0.00, -0.25, -0.25, 0.00, 0.00, 0.00, 0.00, 0.00, 0.00, 0.00, 0.00, 0.00, 0.00, 0.00, 0.00, 0.00, 0.00, 0.00, 0.25, -0.25, -0.25, 0.00, 0.00, 0.00, 0.00, 0.00, 0.00, 0.00, 0.00, 0.00, 0.00, -0.25, 0.00, 0.00, 0.00, 0.00, 0.00, 0.00, -0.25, 0.25, -0.25, 0.00, 0.00, 0.00, 0.00, 0.00, 0.25, -0.25, 0.00, 0.00, 0.00, -0.25, 0.00, 0.00, 0.25, 0.00, 0.00, 0.00, 0.00, 0.00, -0.25, 0.00, -0.25, -0.25, 0.00, 0.25, 0.00, 0.00, -0.25, 0.00, 0.00, 0.00, -0.25, 0.25, 0.00, 0.00, 0.00, 0.00, 0.00, -0.25, 0.00, 0.00, -0.25, 0.00, 0.00, -0.25, 0.00, 0.00, 0.00, 0.25, -0.25, 0.00, 0.25, -0.25, 0.00, -0.25, 0.00, 0.00, -0.25, 0.00, 0.00, -0.25, -0.25, 0.25, 0.00, -0.25, 0.25, 0.25, -0.25, 0.00, 0.00, 0.25, 0.00, -0.25, 0.00, 0.00, 0.00, 0.00, 0.00, 0.00, 0.25, 0.00, 0.00, -0.25, 0.00, 0.00, 0.00, 0.00, 0.00, 0.25, 0.00, 0.00, 0.00, -0.25, 0.00, 0.25, -0.25, 0.00, 0.25, 0.00, 0.00, 0.00, 0.00, 0.00, -0.25, 0.00, 0.00, 0.25, 0.00, -0.25, 0.00, 0.00, 0.00, 0.25, 0.00, 0.00, -0.25, 0.00, 0.00, 0.00, 0.00, 0.00, 0.00, 0.00, 0.00, 0.00, 0.00, 0.00, 0.00, -0.25, 0.25, 0.00, -0.25, 0.00, 0.00, 0.00, 0.00, 0.00, -0.25, 0.00, 0.00, -0.25, 0.00, -0.25, 0.00, 0.00, -0.25, 0.00, 0.00, 0.00, 0.25, 0.00, 0.00, 0.00, -0.25, -0.25, 0.00, 0.00, 0.00, 0.00, -0.25, -0.25, 0.00, 0.00, 0.00, 0.00, 0.00, 0.00, 0.25, 0.00, 0.00, 0.00, 0.00, 0.00, -0.25, 0.00, 0.00, 0.00, 0.25, 0.25, 0.00, 0.00, 0.25, 0.00, 0.25, 0.00, -0.25, 0.25, -0.25, 0.00, 0.00, 0.00, -0.25, 0.00, 0.25, -0.25, 0.00, 0.00, 0.00, 0.00, 0.00, 0.00, -0.25, 0.00, 0.00, 0.00, 0.00, 0.00, 0.00, 0.00, 0.00, 0.00, 0.00, 0.00, 0.00, -0.25, 0.00, 0.00, 0.00, -0.25, 0.00, 0.00, 0.00, 0.00, 0.00, 0.00, 0.00, 0.00, 0.00, 0.00, 0.00, -0.25, 0.00, -0.25, -0.25, -0.25, -0.25, 0.00, 0.00, 0.00, 0.00, 0.00, 0.00, -0.25, 0.00, 0.00, 0.00, -0.25, 0.00, 0.00, 0.00, 0.25, 0.00, 0.00, 0.00, 0.00, -0.25, 0.25, 0.00, 0.00, 0.00, 0.00, 0.00, 0.00, 0.00, -0.25, 0.00, -0.25, 0.00, 0.00, 0.00, -0.25, 0.00, 0.00, 0.00, 0.00, -0.25, 0.00, -0.25, 0.00, 0.00, 0.00, 0.00, 0.00, 0.00, 0.00, 0.00, 0.00, -0.25, -0.25, 0.00, 0.25, -0.25, 0.25, 0.00, -0.25, 0.00, 0.00, 0.00, 0.00, 0.00, 0.00, -0.25, -0.25, 0.25, 0.00, 0.25, -0.25, 0.00, -0.25, 0.00, 0.00, 0.00, 0.00, 0.00, 0.25, 0.25, 0.00, -0.25, -0.25, 0.00, 0.25, -0.25, 0.25, 0.00, 0.00, -0.25, 0.00, 0.00, 0.00, -0.25, -0.25, -0.25, 0.00, 0.00, 0.00, 0.00, 0.25, 0.00, -0.25, 0.25, -0.25, 0.00, 0.25, 0.00, -0.25, 0.00, 0.00, 0.00, -0.25, -0.25, 0.00, 0.00, -0.25, 0.00, -0.25, 0.00, 0.00, 0.00, 0.00, 0.00, 0.00, 0.00, -0.25, 0.00, 0.00, 0.00, 0.00, -0.25, 0.25, 0.00, 0.00, 0.00, -0.25, 0.25, 0.00, 0.00, -0.25, 0.00, 0.00, 0.00, 0.00, -0.25, -0.25, 0.00, 0.00, 0.00, 0.00, 0.00, 0.00, -0.25, 0.00, 0.00, 0.00, 0.00, 0.00, 0.00, 0.00, -0.25, -0.25, 0.00, 0.00, 0.25, -0.25, 0.00, 0.00, 0.00, 0.00, 0.00, -0.25, 0.00, 0.25, 0.00, 0.00, 0.00, 0.00, 0.00, -0.25, 0.25, 0.00, -0.25, 0.25, 0.00, 0.00, 0.00, 0.00, 0.25, -0.25, 0.00, 0.00, 0.00, 0.00, 0.00, 0.00, 0.00, 0.00, 0.00, 0.00, 0.00, 0.25, 0.00, 0.00, 0.00, 0.25, 0.00, 0.00, -0.25, 0.00, 0.00, 0.00, 0.00, 0.00, 0.00, 0.00, 0.00, 0.00, 0.00, 0.00, 0.00, -0.25, 0.25, 0.00, 0.00, 0.00, 0.25, 0.00, 0.00, 0.00, 0.00, 0.00, 0.00, 0.00, 0.00, -0.25, 0.00, 0.00, 0.00, 0.00, -0.25, -0.25, 0.25, 0.25, 0.00, 0.00, 0.00, 0.25, -0.25, 0.00, 0.00, 0.00, -0.25, 0.00, 0.25, 0.00, 0.00, 0.00, 0.00, -0.25, 0.00, 0.00, 0.00, 0.00, 0.25, -0.25, 0.00, 0.00, 0.00, 0.00, -0.25, 0.00, -0.25, -0.25, 0.00, 0.00, 0.00, -0.25, 0.00, 0.00, 0.00, 0.25, 0.00, 0.00, 0.00, 0.00, 0.00, 0.00, 0.00, 0.00, 0.00, 0.00, 0.00, 0.00, 0.00, -0.25, 0.00, 0.25, -0.25, -0.25, 0.00, 0.00, 0.00, 0.00, -0.25, -0.25, 0.00, 0.00, 0.00, 0.00, 0.00, -0.25, 0.00, 0.00, -0.25, 0.00, -0.25, -0.25, 0.00, -0.25, -0.25, -0.25, 0.00, 0.00, 0.00, -0.25, 0.00, 0.00, 0.00, 0.00, 0.00, -0.25, 0.25, 0.00, -0.25, -0.25, -0.25, -0.25, 0.25, 0.25, 0.00, -0.25, 0.00, 0.00, 0.00, 0.00, -0.25, -0.25, -0.25, 0.00, 0.00, 0.00, 0.00, 0.00, 0.00, -0.25, 0.00, 0.00, -0.25, 0.25, -0.25, 0.00, -0.25, 0.00, 0.00, 0.00, 0.00, 0.00, 0.00, 0.00, -0.25, 0.00, 0.00, 0.00, 0.00, 0.25, 0.00, -0.25, 0.25, 0.00, 0.25, 0.00, 0.00, 0.25, -0.25, 0.00, 0.00, 0.00, 0.25, 0.00, 0.00, -0.25, 0.00, 0.00, 0.00, -0.25, 0.00, 0.00, 0.00, 0.00, 0.00, 0.00, 0.00, 0.00, 0.00, 0.00, 0.00, 0.00, -0.25, 0.00, 0.00, -0.25, -0.25, 0.00, 0.00, 0.00, 0.00, -0.25, -0.25, 0.00, 0.00, 0.00, 0.00, -0.25, 0.00, 0.00, 0.00, 0.00, 0.00, 0.00, 0.00, 0.00, 0.25, 0.00, 0.00, 0.00, 0.00, 0.00, 0.00, -0.25, -0.25, 0.00, 0.00, 0.00, 0.00, 0.00, 0.00, 0.00, 0.00, 0.00, 0.00, 0.00, -0.25, -0.25, 0.00, 0.00, -0.25, 0.00, 0.00, 0.00, 0.00, 0.00, 0.00, 0.00, 0.00, 0.00, 0.00, 0.00, 0.00, 0.00, 0.00, 0.25, 0.00, 0.00, 0.00, 0.00, 0.00, 0.00, -0.25, 0.00, 0.00, 0.00, 0.00, 0.00, 0.00, 0.00, 0.00, 0.00, -0.25, 0.25, 0.00, 0.00, 0.00, 0.00, 0.00, 0.00, 0.00, 0.00, 0.00, -0.25, 0.25, 0.00, -0.25, -0.25, 0.00, -0.25, 0.25, -0.25, 0.00, -0.25, 0.00, 0.00, 0.00, -0.25, 0.00, 0.00, -0.25, 0.00, 0.00, 0.00, 0.00, 0.00, 0.25, 0.25, -0.25, 0.00, 0.00, 0.00, -0.25, 0.00, -0.25, 0.25, 0.25, -0.25, 0.00, 0.00, 0.00, 0.00, 0.25, 0.25, 0.00, 0.00, 0.00, 0.00, -0.25, 0.00, 0.00, 0.00, 0.25, 0.00, 0.25, 0.00, 0.00, 0.00, 0.00, 0.00, 0.00, 0.00, 0.00, 0.00, 0.00, 0.00, 0.00, 0.00, 0.25, -0.25, -0.25, 0.00, 0.25, 0.00, 0.00, 0.00, 0.00, 0.00, -0.25, 0.25, 0.00, 0.00, 0.00, 0.00, 0.00, 0.00, 0.00, 0.00, 0.00, 0.00, 0.00, 0.00, 0.00, 0.00, 0.00, 0.00, 0.00, 0.00, 0.00, 0.00, 0.00, 0.00, -0.25, 0.00, 0.00, 0.00, 0.00, 0.00, 0.00, 0.00, -0.25, 0.00, 0.00, 0.00, -0.25, 0.00, 0.00, 0.00, 0.00, 0.00, -0.25, 0.00, 0.00, 0.00, 0.25, 0.00, 0.00, 0.00, -0.25, 0.00, 0.00, 0.25, -0.25, 0.00, 0.00, 0.00, 0.00, 0.00, 0.00, 0.25, -0.25, 0.25, 0.00, 0.00, 0.00, 0.00, -0.25, -0.25, 0.00, 0.00, -0.25, 0.00, 0.00, 0.00, -0.25, 0.00, 0.00, 0.00, 0.00, 0.00, 0.00, -0.25, -0.25, 0.00, 0.00, 0.25, 0.00, 0.00, 0.25, 0.00, 0.00, 0.00, 0.00, 0.00, -0.25, 0.00, 0.00, -0.25, 0.00, 0.00, 0.00, -0.25, 0.00, 0.00, 0.25, 0.00, 0.00, 0.00, 0.00, 0.00, 0.00, 0.25, 0.00, 0.00, -0.25, 0.00, 0.00, 0.00, -0.25, -0.25, 0.25, 0.00, 0.00, 0.00, 0.00, 0.00, 0.25, -0.25, 0.00, 0.00, 0.00, 0.00, 0.00, 0.00, 0.00, 0.25, 0.00, -0.25, 0.00, -0.25, 0.25, -0.25, 0.25, 0.00, 0.00, -0.25, -0.25, 0.00, 0.00, 0.00, -0.25, -0.25, -0.25, -0.25, 0.25, 0.00, 0.00, -0.25, 0.00, -0.25, -0.25, 0.00, 0.00, 0.00, 0.00, 0.00, -0.25, 0.00, -0.25, 0.00, 0.00, 0.00, 0.00, -0.25, 0.00, 0.00, 0.00, -0.25, -0.25, 0.00, 0.25, 0.00, -0.25, 0.00, 0.00, 0.00, 0.00, 0.00, -0.25, -0.25, -0.25, -0.25, -0.25, 0.25, 0.00, 0.00, 0.00, -0.25, 0.00, 0.00, 0.00, 0.00, 0.00, 0.00, 0.00, -0.25, 0.00, 0.00, 0.00, 0.00, -0.25, 0.00, 0.00, 0.00, 0.00, 0.25, 0.00, 0.00, 0.00, 0.00, 0.25, -0.25, 0.00, 0.00, 0.00, 0.00, -0.25, 0.00, 0.00, 0.25, 0.00, 0.00, 0.25, 0.00, -0.25, 0.00, 0.00, -0.25, 0.00, 0.00, 0.00, 0.00, 0.00, 0.00, 0.00, 0.00, 0.00, 0.00, 0.00, 0.00, 0.00, 0.00, 0.00, 0.00, 0.00, 0.00, -0.25, 0.00, 0.00, 0.00, 0.00, 0.00, 0.00, 0.00, 0.00, 0.00, -0.25, 0.00, 0.25, 0.00, 0.00, 0.00, 0.00, 0.25, 0.00, -0.25, -0.25, 0.00, -0.25, 0.00, 0.00, -0.25, -0.25, 0.00, 0.00, 0.00, -0.25, 0.00, 0.00, -0.25, 0.00, 0.00, 0.00, 0.00, 0.00, -0.25, 0.00, 0.00, -0.25, -0.25, -0.25, 0.00, 0.00, 0.00, 0.00, 0.00, -0.25, 0.00, 0.00, -0.25, -0.25, 0.00, 0.00, 0.00, 0.00, -0.25, 0.00, 0.00, 0.00, 0.25, 0.00, -0.25, 0.00, 0.00, 0.00, -0.25, 0.00, -0.25, 0.00, 0.00, 0.00, 0.00, 0.00, 0.00, 0.00, -0.25, 0.00, -0.25, 0.00, 0.25, 0.00, 0.00, 0.00, -0.25, 0.00, 0.25, 0.00, 0.00, 0.00, 0.00, 0.00, 0.00, -0.25, 0.00, 0.00, 0.00, -0.25, 0.00, 0.00, 0.00, 0.00, 0.25, 0.00, 0.25, 0.00, 0.25, -0.25, -0.25, 0.00, 0.00, 0.00, 0.00, 0.00, 0.00, 0.00, 0.00, 0.00, 0.00, -0.25, 0.00, 0.00, 0.00, 0.00, -0.25, -0.25, 0.00, 0.00, -0.25, 0.00, 0.00, 0.00, -0.25, 0.00, -0.25, 0.00, 0.25, 0.00, 0.25, 0.00, 0.00, 0.00, 0.00, -0.25, 0.00, 0.00, 0.00, -0.25, 0.00, 0.00, 0.00, 0.25, -0.25, 0.25, 0.00, 0.00, -0.25, 0.00, 0.00, 0.00, 0.00, 0.00, 0.00, 0.00, 0.00, 0.25, 0.00, 0.00, 0.00, 0.00, 0.00, 0.00, 0.00, 0.25, -0.25, -0.25, 0.00, 0.00, -0.25, 0.00, 0.00, 0.00, 0.00, 0.25, 0.00, 0.00, 0.00, 0.00, 0.00, 0.00, 0.00, 0.00, 0.00, 0.00, 0.00, 0.00, 0.00, -0.25, 0.00, 0.00, 0.00, 0.00, 0.00, 0.00, 0.00, 0.00, 0.00, 0.00, 0.00, -0.25, 0.00, 0.00, 0.25, 0.00, 0.00, 0.00, 0.00, 0.00, 0.00, 0.00, 0.00, 0.00, 0.00, 0.00, 0.00, 0.00, 0.00, 0.00, 0.00, 0.00, 0.00, 0.00, 0.00, 0.25, 0.00, 0.00, 0.00, -0.25, -0.25, 0.00, 0.00, 0.00, -0.25, 0.00, -0.25, 0.00, 0.00, 0.25, -0.25, 0.00, 0.00, 0.00, 0.00, -0.25, 0.00, 0.00, 0.00, 0.00, -0.25, 0.00, 0.00, 0.00, 0.00, 0.00, 0.00, 0.00, 0.00, 0.00, 0.00, 0.00, 0.00, -0.25, -0.25, -0.25, 0.00, 0.00, -0.25, 0.25, 0.00, 0.00, -0.25, 0.25, 0.25, -0.25, 0.00, -0.25, 0.00, 0.25, 0.00, 0.00, 0.25, 0.00, 0.00, 0.00, 0.25, 0.00, 0.00, 0.00, 0.00, 0.00, 0.25, 0.25, 0.00, 0.00, -0.25, 0.00, 0.00, -0.25, 0.00, 0.00, 0.25, 0.00, 0.00, 0.00, 0.00, -0.25, -0.25, 0.00, 0.00, 0.25, 0.00, 0.00, 0.00, -0.25, 0.25, 0.25, 0.25, 0.00, 0.25, -0.25, -0.25, 0.00, 0.25, 0.00, 0.25, 0.00, -0.25, 0.00, 0.00, -0.25, 0.00, 0.00, 0.00, -0.25, 0.00, -0.25, 0.00, -0.25, 0.00, 0.25, 0.25, 0.00, 0.00, 0.00, 0.00, 0.00, 0.00, 0.00, 0.00, 0.00, 0.25, 0.00, 0.25, 0.00, 0.25, 0.00, 0.25, -0.25, 0.00, 0.00, 0.00, 0.00, 0.00, 0.25, 0.00, -0.25, 0.00, 0.00, 0.25, 0.00, 0.00, 0.00, 0.00, 0.00, 0.00, 0.00, 0.00, -0.25, 0.00, 0.25, 0.00, 0.00, 0.00, 0.25, 0.00, 0.00, -0.25, 0.00, 0.00, 0.00, 0.00, -0.25, 0.00, 0.00, -0.25, 0.00, 0.00, -0.25, 0.00, 0.00, 0.00, -0.25, 0.00, 0.00, 0.00, 0.00, 0.00, 0.00, 0.00, 0.00, 0.00, 0.00, 0.00, 0.25, 0.00, 0.00, 0.00, 0.00, 0.00, 0.25, 0.00, 0.00, 0.00, 0.00, 0.00, 0.00, 0.00, 0.25, 0.00, 0.00, 0.25, 0.00, -0.25, 0.00, -0.25, 0.00, 0.00, 0.00, 0.00, 0.00, 0.00, 0.00, 0.25, 0.00, 0.00, 0.00, 0.25, -0.25, -0.25, 0.00, -0.25, 0.00, 0.25, 0.00, -0.25, 0.25, 0.00, 0.00, 0.00, 0.00, 0.00, 0.00, 0.00, 0.00, -0.25, -0.25, 0.00, 0.00, 0.00, 0.00, 0.00, 0.00, 0.00, 0.00, -0.25, 0.00, 0.00, 0.00, 0.00, 0.00, 0.25, 0.25, 0.00, 0.00, 0.25, 0.00, 0.00, 0.25, 0.25, 0.00, -0.25, 0.00, 0.00, 0.00, 0.25, 0.00, 0.00, 0.00, -0.25, 0.25, 0.00, 0.00, 0.00, 0.00, 0.25, 0.00, 0.00, 0.00, 0.00, 0.00, 0.00, 0.00, 0.00, 0.00, 0.00, 0.00, 0.25, 0.00, 0.00, 0.00, 0.00, 0.00, 0.00, 0.00, 0.00, 0.00, 0.25, 0.00, 0.00, 0.00, 0.00, -0.25, 0.00, 0.00, 0.00, 0.00, -0.25, 0.25, -0.25, 0.00, 0.25, 0.00, 0.25, 0.00, -0.25, 0.00, 0.00, 0.00, -0.25, 0.25, 0.00, 0.00, 0.00, 0.00, 0.00, 0.00, 0.00, 0.00, 0.00, 0.00, 0.00, 0.00, 0.00, 0.00, 0.00, 0.00, 0.00, 0.00, -0.25, 0.00, 0.25, 0.00, 0.25, 0.00, 0.00, 0.00, 0.00, 0.25, 0.00, 0.25, 0.00, -0.25, 0.00, 0.25, 0.00, 0.00, 0.00, 0.00, 0.00, 0.00, 0.00, 0.00, 0.00, 0.00, 0.00, 0.00, 0.25, 0.00, 0.00, 0.00, 0.00, 0.00, 0.00, 0.00, 0.25, 0.00, -0.25, -0.25, 0.00, 0.25, 0.00, 0.00, 0.00, 0.00, 0.00, 0.00, 0.00, 0.00, 0.00, 0.25, -0.25, 0.00, 0.00, 0.00, -0.25, 0.25, 0.00, 0.00, 0.00, -0.25, 0.00, 0.00, 0.00, 0.00, 0.00, 0.00, 0.25, -0.25, 0.00, 0.00, -0.25, 0.25, 0.00, 0.00, 0.25, 0.25, 0.00, 0.00, 0.00, 0.00, 0.00, 0.00, 0.00, -0.25, -0.25, 0.00, 0.00, 0.00, -0.25, -0.25, 0.00, 0.00, 0.00, 0.00, 0.00, 0.00, 0.00, 0.00, -0.25, 0.00, 0.00, 0.00, 0.00, 0.00, 0.00, 0.25, 0.00, 0.25, 0.00, 0.00, 0.00, 0.00, 0.00, 0.25, 0.00, -0.25, -0.25, 0.00, 0.00, -0.25, 0.00, 0.00, 0.00, 0.25, 0.00, 0.00, 0.00, 0.00, 0.00, 0.00, 0.00, 0.00, 0.00, 0.00, 0.00, 0.25, 0.00, 0.25, 0.00, -0.25, 0.00, 0.00, 0.00, -0.25, 0.00, 0.00, 0.00, 0.00, 0.00, 0.00, 0.00, 0.00, 0.00, 0.00, 0.25, 0.00, 0.00, 0.00, 0.00, 0.00, 0.25, 0.25, 0.00, 0.00, 0.00, 0.00, 0.25, 0.00, 0.00, 0.00, 0.25, 0.00, 0.00, 0.00, 0.00, 0.00, 0.00, 0.00, 0.00, 0.25, -0.25, -0.25, 0.00, 0.00, 0.00, 0.25, 0.00, -0.25, -0.25, 0.00, 0.00, 0.00, 0.00, 0.00, 0.00, 0.00, 0.00, -0.25, 0.00, 0.00, 0.00, -0.25, 0.00, 0.25, 0.00, 0.00, 0.00, 0.00, 0.00, 0.00, 0.00, -0.25, 0.00, 0.00, 0.00, 0.00, 0.00, 0.00, 0.25, 0.00, 0.00, 0.25, 0.00, 0.00, -0.25, -0.25, 0.00, 0.25, 0.25, 0.00, 0.00, 0.25, -0.25, 0.00, 0.00, 0.00, 0.00, 0.00, 0.00, 0.00, 0.00, 0.00, 0.00, 0.25, 0.25, -0.25, 0.25, 0.00, 0.00, 0.00, 0.25, -0.25, 0.00, 0.00, 0.25, 0.00, 0.00, -0.25, 0.00, 0.25, 0.25, 0.00, 0.00, 0.00, 0.00, 0.00, 0.00, 0.00, 0.00, 0.00, 0.25, 0.00, 0.00, 0.00, 0.00, 0.00, 0.00, 0.00, 0.00, 0.25, 0.00, 0.00, 0.00, 0.00, 0.25, 0.00, 0.00, 0.00, 0.00, 0.00, 0.00, 0.00, 0.25, 0.00, 0.00, 0.00, -0.25, 0.00, 0.00, 0.00, 0.00, 0.25, -0.25, 0.00, 0.00, -0.25, 0.00, 0.00, 0.00, 0.00, 0.00, 0.00, 0.00, 0.00, 0.00, 0.00, 0.00, 0.00, 0.00, 0.25, 0.00, 0.00, 0.00, 0.00, 0.00, 0.00, 0.00, 0.00, 0.00, -0.25, 0.00, 0.00, 0.00, 0.00, 0.00, 0.00, 0.00, 0.00, 0.25, 0.00, 0.00, -0.25, 0.00, 0.00, 0.00, -0.25, 0.00, 0.00, 0.00, 0.00, 0.25, -0.25, 0.25, 0.00, 0.00, 0.25, 0.00, -0.25, 0.00, 0.00, 0.00, 0.00, 0.00, 0.00, 0.00, 0.00, 0.00, 0.25, 0.00, 0.00, 0.00, -0.25, 0.00, 0.00, -0.25, 0.00, 0.00, 0.00, 0.00, 0.00, 0.00, -0.25, 0.00, 0.00, -0.25, 0.00, 0.25, -0.25, 0.00, 0.00, -0.25, 0.00, -0.25, 0.00, 0.00, -0.25, 0.00, 0.00, 0.00, -0.25, 0.00, 0.00, 0.00, -0.25, 0.00, 0.00, -0.25, 0.00, 0.00, 0.00, 0.00, -0.25, 0.00, -0.25, 0.00, 0.00, 0.00, 0.00, 0.25, 0.00, 0.00, 0.00, 0.00, 0.00, -0.25, 0.00, 0.00, 0.00, 0.25, 0.25, 0.00, 0.00, 0.00, 0.00, 0.00, 0.00, 0.00, 0.00, -0.25, 0.00, 0.00, -0.25, -0.25, 0.00, 0.00, 0.00, 0.00, 0.00, 0.00, 0.25, 0.00, -0.25, 0.00, 0.00, -0.25, 0.00, 0.00, 0.00, 0.00, 0.00, 0.00, 0.00, 0.00, 0.00, -0.25, 0.00, 0.00, -0.25, 0.25, 0.00, 0.00, 0.00, 0.00, 0.00, -0.25, 0.00, 0.00, 0.00, -0.25, 0.00, 0.00, 0.00, 0.00, 0.00, 0.00, 0.00, 0.00, 0.00, 0.00, 0.00, 0.00, 0.00, 0.00, 0.00, 0.00, 0.00, -0.25, 0.00, 0.00, 0.00, 0.25, -0.25, -0.25, 0.00, 0.00, -0.25, 0.00, -0.25, 0.00, 0.00, 0.00, 0.25, 0.00, 0.00, 0.00, -0.25, 0.00, 0.25, 0.25, 0.25, 0.00, -0.25, -0.25, 0.00, -0.25, 0.00, 0.00, 0.25, 0.25, 0.00, 0.00, 0.25, 0.00, -0.25, 0.00, 0.00, 0.00, 0.00, 0.00, 0.00, -0.25, 0.00, 0.00, 0.25, 0.00, 0.00, 0.25, 0.00, 0.00, 0.00, 0.00, 0.00, 0.00, 0.00, -0.25, 0.00, 0.00, 0.00, 0.00, 0.00, 0.25, 0.00, 0.00, 0.00, -0.25, 0.00, -0.25, 0.00, -0.25, 0.00, 0.00, 0.00, 0.00, 0.00, 0.00, 0.00, 0.00, 0.00, -0.25, -0.25, 0.00, 0.00, 0.25, 0.00, 0.00, -0.25, 0.00, 0.00, 0.00, -0.25, 0.00, 0.00, 0.25, 0.00, 0.00, 0.00, 0.00, -0.25, -0.25, 0.00, 0.00, 0.00, 0.00, 0.00, 0.00, 0.00, 0.00, 0.00, 0.00, 0.00, 0.25, 0.00, 0.00, 0.00, 0.25, 0.00, 0.00, -0.25, 0.00, 0.00, 0.25, 0.00, -0.25, 0.25, 0.00, -0.25, 0.00, 0.00, 0.00, 0.00, -0.25, 0.00, -0.25, 0.00, 0.00, 0.00, 0.00, 0.00, 0.00, -0.25, 0.25, 0.00, 0.00, 0.00, -0.25, 0.25, 0.00, 0.00, 0.00, -0.25, 0.00, 0.00, 0.00, 0.00, 0.00, 0.00, 0.00, 0.00, 0.00, 0.00, 0.25, 0.00, -0.25, 0.00, 0.00, 0.00, 0.25, 0.00, 0.00, 0.00, 0.00, 0.00, 0.00, 0.00, 0.00, 0.00, 0.00, 0.00, 0.00, 0.00, -0.25, 0.00, 0.00, 0.00, 0.00, -0.25, -0.25, 0.00, 0.25, 0.00, 0.00, 0.00, 0.00, 0.00, 0.00, 0.00, 0.00, 0.25, 0.00, 0.00, 0.00, 0.00, 0.00, 0.00, -0.25, 0.00, 0.00, 0.00, 0.00, -0.25, 0.00, 0.00, 0.00, 0.00, 0.00, 0.00, 0.00, 0.00, 0.25, 0.00, 0.00, 0.00, 0.25, 0.00, 0.00, 0.00, 0.00, 0.00, -0.25, 0.00, 0.00, -0.25, 0.00, 0.00, 0.00, 0.00, 0.00, 0.00, 0.00, 0.25, 0.00, 0.00, 0.00, -0.25, 0.00, 0.00, 0.25, 0.00, 0.00, 0.00, 0.25, 0.00, 0.00, -0.25, 0.00, 0.00, 0.00, 0.00, 0.00, 0.00, 0.00, 0.00, -0.25, 0.00, -0.25, 0.00, 0.00, 0.00, 0.00, -0.25, 0.00, 0.25, 0.00, 0.00, 0.00, 0.00, 0.00, -0.25, 0.00, 0.00, 0.00, 0.25, 0.00, -0.25, 0.00, 0.00, 0.00, 0.25, 0.00, 0.00, 0.00, -0.25, 0.00, 0.00, -0.25, 0.00, -0.25, 0.00, 0.00, 0.00, 0.00, 0.00, 0.00, 0.00, 0.25, 0.00, 0.00, 0.00, 0.00, 0.00, 0.00, 0.00, -0.25, 0.25, 0.00, 0.00, 0.00, 0.00, 0.00, 0.25, -0.25, -0.25, 0.00, 0.00, -0.25, 0.25, 0.00, 0.00, 0.00, 0.00, 0.25, 0.25, 0.00, 0.00, 0.25, 0.00, 0.00, 0.00, 0.00, -0.25, 0.25, 0.00, 0.00, 0.00, 0.00, 0.25, 0.25, 0.00, 0.00, 0.00, -0.25, 0.00, 0.00, 0.00, 0.00, 0.00, 0.00, -0.25, 0.00, 0.25, 0.25, 0.00, 0.00, 0.00, 0.00, 0.00, 0.00, 0.25, -0.25, 0.25, 0.25, 0.00, 0.00, 0.00, 0.00, -0.25, 0.00, 0.00, 0.25, -0.25, 0.00, -0.25, 0.25, 0.00, 0.00, 0.00, 0.00, 0.00, 0.00, 0.00, 0.00, 0.00, 0.00, 0.00, 0.00, 0.00, 0.00, 0.00, 0.00, -0.25, 0.00, 0.00, 0.00, -0.25, 0.25, 0.00, 0.00, 0.00, -0.25, 0.00, 0.25, 0.00, 0.25, 0.00, 0.00, 0.00, 0.00, 0.00, 0.00, -0.25, -0.25, 0.25, 0.25, 0.25, 0.00, 0.00, -0.25, 0.25, 0.00, 0.25, 0.00, 0.00, 0.00, 0.00, 0.00, 0.00, 0.00, -0.25, 0.00, 0.00, 0.00, 0.00, 0.00, 0.00, 0.00, -0.25, 0.00, 0.00, 0.00, 0.00, -0.25, 0.00, 0.00, 0.25, 0.00, -0.25, 0.25, 0.00, 0.00, 0.00, 0.00, 0.00, 0.00, 0.00, 0.00, 0.00, 0.00, -0.25, 0.00, -0.25, 0.00, 0.00, 0.00, 0.00, 0.00, 0.00, 0.25, 0.00, 0.00, 0.00, 0.00, 0.00, 0.00, 0.00, 0.00, 0.25, 0.00, 0.00, -0.25, 0.00, 0.00, 0.00, 0.00, 0.00, -0.25, 0.00, -0.25, 0.00, 0.00, -0.25, 0.00, 0.00, 0.00, 0.25, 0.00, 0.00, 0.00, 0.00, -0.25, 0.00, 0.25, 0.00, 0.00, 0.00, 0.00, 0.00, -0.25, 0.00, 0.00, 0.00, 0.00, 0.00, 0.00, -0.25, 0.00, 0.00, 0.00, 0.00, 0.00, -0.25, 0.00, 0.00, 0.00, 0.00, 0.00, 0.00, -0.25, 0.00, -0.25, 0.00, 0.00, -0.25, -0.25, 0.25, -0.25, 0.00, 0.00, 0.00, 0.00, 0.00, -0.25, 0.25, 0.00, 0.00, -0.25, 0.00, 0.00, 0.00, 0.00, 0.00, -0.25, 0.00, 0.00, -0.25, 0.25, -0.25, -0.25, 0.00, -0.25, 0.00, -0.25, -0.25, 0.00, 0.00, 0.00, -0.25, -0.25, -0.25, 0.00, 0.00, 0.00, 0.00, -0.25, -0.25, 0.00, 0.00, 0.00, 0.25, 0.00, 0.00, -0.25, 0.25, -0.25, 0.00, 0.00, -0.25, -0.25, 0.00, 0.00, 0.00, 0.00, 0.00, 0.25, 0.00, 0.00, 0.00, -0.25, -0.25, -0.25, 0.00, 0.00, 0.00, 0.00, 0.00, 0.00, 0.00, 0.00, 0.00, 0.00, 0.00, 0.00, 0.00, -0.25, 0.00, -0.25, 0.00, 0.00, 0.00, 0.00, 0.00, 0.00, -0.25, 0.25, 0.25, 0.25, 0.25, 0.00, 0.00, 0.00, 0.25, -0.25, 0.00, -0.25, -0.25, 0.00, -0.25, 0.00, 0.00, 0.25, 0.00, 0.00, 0.00, 0.00, -0.25, -0.25, 0.00, 0.00, -0.25, -0.25, 0.25, 0.00, 0.00, 0.00, -0.25, 0.00, 0.00, -0.25, 0.00, -0.25, -0.25, -0.25, 0.00, 0.00, 0.00, 0.00, 0.00, 0.00, 0.00, -0.25, 0.00, -0.25, 0.00, -0.25, 0.00, 0.00, -0.25, -0.25, -0.25, -0.25, 0.25, 0.00, 0.00, 0.00, 0.00, 0.25, 0.00, 0.00, -0.25, 0.00, 0.25, 0.00, 0.00, -0.25, -0.25, 0.00, 0.00, -0.25, 0.00, 0.00, -0.25, 0.00, 0.00, 0.00, 0.25, 0.00, -0.25, -0.25, 0.00, 0.00, 0.00, 0.00, 0.00, 0.00, 0.00, -0.25, 0.00, -0.25, 0.00, 0.00, 0.00, 0.00, 0.00, 0.00, 0.25, 0.25, 0.00, 0.00, 0.00, 0.00, 0.25, -0.25, 0.00, 0.00, 0.00, -0.25, 0.00, 0.00, 0.00, 0.00, 0.00, 0.00, 0.00, 0.25, 0.00, 0.00, 0.25, 0.00, 0.00, 0.00, 0.00, -0.25, 0.00, 0.00, 0.00, 0.00, 0.25, 0.25, 0.00, 0.25, -0.25, 0.00, 0.00, 0.00, -0.25, 0.00, 0.00, 0.00, 0.00, -0.25, -0.25, 0.25, -0.25, 0.00, -0.25, 0.00, 0.00, 0.25, 0.00, 0.00, 0.25, 0.00, -0.25, -0.25, 0.00, 0.00, 0.00, 0.00, 0.25, 0.25, 0.00, -0.25, 0.25, 0.25, 0.00, -0.25, 0.00, 0.00, 0.00, 0.00, 0.00, 0.00, 0.00, 0.25, 0.00, 0.00, 0.00, 0.00, 0.00, 0.00, 0.00, 0.25, 0.00, 0.00, -0.25, 0.00, -0.25, -0.25, 0.00, -0.25, 0.00, 0.00, -0.25, 0.25, 0.00, 0.00, -0.25, -0.25, 0.00, 0.00, 0.00, -0.25, 0.00, 0.25, 0.00, 0.25, -0.25, -0.25, 0.00, 0.25, -0.25, 0.00, -0.25, 0.00, 0.00, 0.00, 0.00, 0.00, -0.25, 0.00, 0.00, 0.00, 0.00, 0.00, 0.00, 0.00, -0.25, -0.25, 0.00, 0.00, 0.00, 0.00, 0.00, 0.00, 0.00, 0.00, -0.25, 0.00, -0.25, -0.25, 0.00, 0.00, 0.00, 0.00, 0.00, 0.00, 0.00, 0.00, 0.00, 0.00, 0.00, 0.00, 0.00, 0.00, 0.00, 0.00, 0.00, 0.00, 0.00, 0.00, 0.00, 0.00, 0.00, 0.00, -0.25, 0.00, 0.00, -0.25, -0.25, 0.00, 0.00, 0.00, 0.25, 0.00, 0.00, 0.00, 0.00, 0.25, 0.00, 0.00, 0.00, 0.00, 0.00, -0.25, -0.25, 0.00, 0.00, 0.00, 0.25, -0.25, 0.25, 0.25, -0.25, -0.25, -0.25, 0.00, 0.00, 0.00, -0.25, 0.00, 0.00, 0.00, 0.00, 0.00, 0.00, 0.00, 0.00, 0.00, 0.00, 0.00, -0.25, 0.00, 0.00, 0.00, -0.25, 0.00, -0.25, 0.00, 0.00, 0.00, 0.00, 0.00, 0.00, 0.00, 0.00, 0.00, 0.00, 0.00, 0.00, 0.00, 0.00, 0.00, 0.00, 0.00, 0.00, 0.00, 0.00, -0.25, -0.25, 0.00, 0.00, 0.00, 0.00, 0.00, -0.25, -0.25, 0.00, 0.00, -0.25, 0.00, -0.25, 0.00, 0.00, 0.00, 0.25, 0.00, 0.00, 0.00, -0.25, 0.00, 0.00, 0.00, 0.00, 0.25, 0.00, 0.00, 0.00, 0.00, 0.00, 0.00, 0.25, 0.00, 0.00, 0.00, 0.00, 0.00, 0.00, 0.00, 0.25, 0.00, 0.00, 0.00, -0.25, -0.25, -0.25, 0.25, 0.25, 0.00, 0.25, 0.00, 0.00, 0.00, -0.25, 0.00, 0.00, -0.25, 0.25, 0.00, 0.00, 0.00, 0.00, -0.25, 0.25, 0.25, 0.00, 0.00, 0.00, 0.00, 0.00, -0.25, 0.00, 0.00, 0.00, 0.00, 0.00, 0.00, 0.25, 0.00, -0.25, -0.25, 0.00, 0.25, 0.00, 0.00, 0.00, 0.00, 0.00, -0.25, 0.00, -0.25, 0.25, 0.25, 0.00, 0.00, 0.00, 0.00, 0.25, 0.00, -0.25, 0.00, 0.00, -0.25, 0.25, 0.00, 0.00, 0.00, -0.25, 0.25, 0.25, 0.00, 0.00, 0.00, -0.25, 0.00, 0.00, 0.00, -0.25, 0.00, 0.00, 0.00, 0.00, -0.25, 0.25, 0.00, -0.25, -0.25, 0.00, 0.25, 0.00, 0.00, 0.00, 0.00, 0.25, 0.00, 0.00, 0.25, 0.00, 0.00, 0.00, 0.00, 0.25, -0.25, 0.00, -0.25, 0.00, 0.25, -0.25, -0.25, 0.00, 0.00, 0.00, -0.25, 0.00, 0.00, -0.25, 0.00, 0.00, 0.00, -0.25, -0.25, 0.00, 0.00, -0.25, 0.00, 0.25, 0.25, 0.00, 0.25, 0.00, 0.00, 0.00, 0.00, 0.00, 0.00, 0.25, 0.00, 0.00, 0.00, 0.00, 0.00, 0.00, 0.25, 0.00, -0.25, 0.25, -0.25, 0.00, 0.00, 0.00, 0.00, 0.00, 0.25, 0.00, -0.25, -0.25, 0.00, 0.00, 0.00, -0.25, 0.25, 0.00, 0.25, -0.25, 0.00, 0.00, 0.00, 0.25, 0.00, 0.00, -0.25, 0.00, 0.00, 0.00, 0.00, 0.00, 0.00, 0.00, 0.00, 0.00, 0.00, 0.00, -0.25, -0.25, 0.25, 0.00, 0.00, -0.25, -0.25, 0.00, 0.00, 0.25, 0.00, -0.25, 0.00, 0.00, 0.00, 0.25, 0.00, 0.00, 0.00, 0.00, 0.00, -0.25, -0.25, 0.00, 0.00, 0.25, 0.00, 0.00, 0.00, 0.00, 0.00, -0.25, 0.00, 0.25, 0.00, 0.00, 0.00, 0.00, -0.25, 0.00, 0.00, 0.00, 0.25, 0.25, 0.00, 0.00, 0.00, 0.00, 0.00, 0.00, 0.00, 0.00, 0.00, 0.00, -0.25, 0.00, 0.25, 0.00, -0.25, 0.00, 0.00, 0.00, 0.00, 0.00, 0.00, 0.25, 0.25, 0.00, -0.25, -0.25, -0.25, 0.00, -0.25, 0.00, 0.00, 0.00, 0.00, 0.00, -0.25, -0.25, 0.00, 0.00, 0.00, 0.00, 0.00, 0.25, 0.00, 0.00, 0.00, 0.00, -0.25, 0.00, 0.00, 0.00, 0.25, 0.25, -0.25, -0.25, 0.00, 0.00, -0.25, -0.25, -0.25, 0.00, 0.00, 0.00, -0.25, 0.00, 0.25, -0.25, 0.25, 0.00, 0.00, 0.00, 0.00, 0.00, 0.00, -0.25, 0.25, 0.25, 0.00, 0.00, 0.00, 0.00, 0.00, -0.25, 0.00, 0.00, 0.00, 0.00, 0.00, 0.00, 0.00, -0.25, 0.00, 0.00, 0.00, -0.25, 0.25, 0.25, 0.00, 0.25, 0.00, 0.00, 0.00, 0.00, 0.00, 0.00, -0.25, 0.00, 0.25, 0.00, 0.00, 0.00, 0.00, 0.00, 0.25, -0.25, 0.00, 0.00, 0.00, -0.25, 0.00, -0.25, 0.00, 0.25, 0.00, 0.00, 0.00, -0.25, 0.00, 0.00, 0.25, 0.00, 0.00, 0.00, 0.00, 0.25, 0.00, 0.00, 0.00, 0.00, 0.00, 0.00, -0.25, 0.00, 0.00, 0.00, 0.00, 0.00, 0.00, -0.25, 0.00, 0.00, 0.25, 0.00, 0.00, 0.00, 0.00, 0.00, 0.00, 0.00, 0.00, 0.25, 0.00, 0.00, 0.25, 0.25, -0.25, 0.00, 0.00, 0.00, 0.25, 0.00, 0.00, 0.00, 0.00, 0.25, 0.00, 0.00, 0.00, -0.25, 0.25, -0.25, 0.00, 0.00, 0.00, 0.00, 0.00, 0.00, -0.25, 0.00, 0.00, 0.00, -0.25, 0.00, 0.00, 0.25, 0.00, 0.00, 0.00, 0.00, 0.00, 0.00, 0.00, 0.00, 0.00, 0.00, 0.00, 0.25, 0.25, 0.00, 0.00, 0.00, 0.00, 0.00, 0.00, 0.00, 0.25, 0.00, 0.00, 0.25, 0.00, 0.00, -0.25, 0.25, 0.00, 0.00, 0.00, 0.00, 0.00, -0.25, 0.00, -0.25, 0.00, 0.00, 0.00, 0.00, 0.00, 0.00, 0.00, 0.00, -0.25, 0.00, 0.00, 0.00, 0.00, -0.25, 0.00, -0.25, 0.00, 0.00, 0.25, 0.00, 0.00, 0.00, 0.00, 0.00, 0.00, -0.25, 0.00, 0.00, 0.00, 0.00, 0.25, 0.00, 0.00, 0.00, -0.25, 0.00, 0.00, -0.25, 0.00, 0.00, 0.25, 0.00, 0.00, 0.25, 0.00, -0.25, 0.00, 0.00, 0.25, 0.00, 0.00, 0.00, 0.00, 0.25, 0.25, -0.25, 0.00, 0.00, 0.00, 0.25, 0.00, -0.25, 0.00, 0.00, 0.00, 0.00, 0.00, 0.00, 0.00, 0.00, 0.00, 0.00, 0.00, 0.00, 0.00, -0.25, 0.00, 0.00, 0.00, 0.25, 0.25, 0.00, 0.00, 0.00, -0.25, 0.00, 0.00, 0.00, 0.00, 0.00, 0.00, 0.00, 0.00, 0.00, -0.25, 0.25, 0.00, 0.00, 0.00, 0.00, 0.00, 0.00, 0.00, 0.25, 0.00, 0.00, 0.00, 0.00, 0.00, 0.00, 0.00, 0.00, 0.25, 0.25, 0.00, -0.25, 0.00, 0.00, 0.00, 0.00, -0.25, 0.00, 0.00, -0.25, 0.00, 0.00, 0.00, 0.25, 0.00, 0.00, 0.00, -0.25, -0.25, 0.25, 0.00, 0.00, 0.00, -0.25, 0.00, 0.00, 0.25, 0.00, 0.00, 0.00, 0.00, 0.00, -0.25, 0.00, 0.00, 0.00, -0.25, -0.25, 0.00, 0.00, -0.25, 0.00, 0.25, 0.00, 0.00, 0.00, 0.00, 0.00, 0.00, 0.00, 0.00, 0.25, 0.00, 0.00, 0.25, -0.25, 0.00, 0.25, 0.00, 0.00, 0.00, 0.00, 0.00, 0.00, 0.00, 0.25, 0.00, -0.25, 0.00, 0.00, 0.00, 0.25, 0.00, 0.00, 0.25, 0.00, -0.25, 0.00, 0.00, -0.25, 0.00, 0.00, 0.00, 0.00, 0.00, -0.25, 0.00, -0.25, 0.25, 0.00, 0.00, 0.00, 0.25, 0.00, 0.00, 0.25, 0.00, 0.25, 0.00, -0.25, 0.00, 0.00, -0.25, 0.00, 0.25, 0.00, 0.00, 0.25, 0.00, -0.25, 0.25, -0.25, 0.00, 0.00, 0.25, 0.00, 0.00, 0.00, 0.00, 0.00, 0.00, 0.00, 0.00, 0.00, 0.00, 0.00, -0.25, 0.00, 0.00, 0.25, 0.00, 0.00, 0.00, 0.00, 0.00, 0.00, 0.25, 0.00, -0.25, 0.00, 0.00, 0.00, 0.00, 0.00, 0.00, 0.25, 0.25, 0.00, 0.00, -0.25, -0.25, 0.00, 0.00, 0.00, 0.00, 0.00, 0.25, -0.25, 0.00, 0.00, 0.00, 0.00, -0.25, 0.00, 0.00, 0.00, 0.00, 0.00, 0.00, -0.25, 0.00, 0.00, 0.00, 0.00, 0.00, 0.00, 0.25, 0.00, 0.00, -0.25, 0.00, 0.00, 0.00, 0.00, 0.00, 0.00, 0.00, 0.00, -0.25, 0.00, 0.00, 0.00, -0.25, -0.25, 0.00, 0.00, 0.00, 0.00, 0.00, -0.25, 0.00, 0.00, 0.00, 0.00, 0.00, 0.00, 0.00, 0.00, 0.00, -0.25, 0.00, -0.25, -0.25, 0.00, -0.25, 0.00, 0.00, 0.00, 0.00, 0.00, 0.00, 0.00, 0.00, 0.00, 0.00, 0.00, 0.00, 0.00, 0.00, 0.00, 0.00, 0.00, 0.00, 0.25, 0.00, 0.25, 0.00, 0.25, 0.25, 0.00, 0.00, 0.25, -0.25, 0.00, -0.25, 0.25, -0.25, 0.00, -0.25, 0.00, -0.25, -0.25, -0.25, 0.00, 0.00, 0.00, 0.00, 0.00, 0.00, 0.00, 0.00, 0.00, 0.00, 0.00, 0.00, 0.00, 0.00, -0.25, 0.00, 0.00, 0.00, -0.25, 0.00, -0.25, -0.25, 0.00, 0.00, 0.00, 0.00, 0.00, -0.25, 0.00, -0.25, -0.25, -0.25, 0.00, -0.25, 0.00, 0.00, 0.00, 0.00, 0.00, 0.00, 0.00, 0.00, 0.00, 0.00, 0.00, -0.25, 0.00, -0.25, 0.00, 0.00, 0.00, 0.00, 0.00, 0.00, 0.00, -0.25, 0.00, -0.25, 0.00, 0.00, -0.25, 0.00, 0.00, 0.00, 0.00, -0.25, 0.00, 0.00, 0.00, 0.00, 0.00, 0.00, 0.00, 0.25, 0.00, -0.25, -0.25, 0.00, 0.00, 0.00, 0.00, 0.00, 0.00, 0.00, -0.25, 0.00, 0.00, -0.25, 0.00, 0.00, 0.00, 0.00, 0.25, 0.00, -0.25, -0.25, 0.00, 0.00, 0.00, 0.00, -0.25, 0.00, 0.00, 0.00, 0.25, 0.25, 0.00, 0.00, -0.25, 0.00, 0.00, 0.00, 0.25, 0.00, 0.00, 0.00, -0.25, -0.25, 0.00, 0.00, 0.25, 0.00, 0.25, 0.00, 0.00, -0.25, 0.00, 0.00, 0.00, 0.00, 0.00, 0.00, 0.00, 0.00, 0.00, 0.00, 0.00, -0.25, 0.00, 0.00, 0.00, 0.00, 0.25, -0.25, 0.00, 0.25, -0.25, 0.00, 0.00, 0.00, 0.25, 0.00, -0.25, 0.00, -0.25, 0.00, 0.25, 0.00, -0.25, 0.00, 0.00, -0.25, -0.25, 0.00, 0.00, 0.25, 0.00, -0.25, -0.25, -0.25, 0.00, 0.00, 0.00, 0.50, 0.00, 0.00, 0.00, 0.25, 0.00, 0.00, 0.00, 0.25, 0.25, 0.00, -0.25, 0.50, -0.25, 0.25, 0.00, 0.00, 0.00, 0.25, -0.25, 0.00, -0.25, 0.00, 0.00, 0.00, 0.00, -0.25, 0.00, 0.00, 0.00, 0.00, 0.25, 0.00, 0.00, -0.25, -0.25, 0.00, 0.00, -0.25, 0.00, 0.25, 0.00, -0.25, -0.25, 0.00, -0.25, 0.00, 0.00, 0.00, 0.25, 0.25, 0.00, -0.25, 0.00, 0.25, 0.25, 0.25, 0.00, 0.00, 0.00, 0.00, 0.00, 0.25, 0.00, -0.25, -0.25, 0.00, 0.00, 0.00, 0.25, 0.00, 0.00, 0.00, -0.25, 0.00, 0.00, -0.25, 0.00, 0.25, -0.25, 0.00, 0.00, 0.25, 0.00, 0.00, 0.00, 0.00, -0.25, 0.00, 0.00, 0.00, 0.00, -0.25, 0.00, 0.00, 0.25, -0.25, 0.00, -0.25, 0.00, 0.00, 0.00, 0.00, 0.25, -0.25, 0.00, 0.00, -0.25, 0.00, 0.00, -0.25, -0.25, 0.00, 0.00, 0.00, 0.00, 0.25, 0.00, 0.00, -0.25, 0.00, -0.25, 0.00, -0.25, 0.25, 0.00, 0.00, 0.00, 0.00, -0.25, 0.00, 0.25, 0.00, 0.25, -0.25, 0.00, -0.25, -0.25, 0.00, -0.25, 0.00, 0.00, 0.00, 0.00, 0.00, 0.00, -0.25, 0.00, -0.25, 0.00, 0.00, -0.25, 0.00, 0.00, 0.00, 0.00, 0.00, 0.00, -0.25, 0.00, -0.25, 0.00, 0.00, 0.00, 0.00, 0.00, 0.00, 0.00, 0.00, 0.00, 0.00, -0.25, 0.00, 0.00, -0.25, 0.25, 0.00, 0.00, 0.00, 0.00, 0.00, 0.00, 0.00, -0.25, -0.25, 0.00, 0.00, 0.00, 0.00, 0.00, 0.00, 0.00, -0.25, -0.25, 0.00, 0.00, 0.00, 0.00, 0.00, 0.00, -0.25, 0.00, 0.00, 0.00, 0.00, 0.25, 0.00, 0.00, 0.00, 0.00, 0.00, 0.25, 0.25, 0.00, 0.00, 0.00, 0.00, 0.00, 0.00, 0.00, 0.25, 0.00, 0.00, 0.00, 0.00, 0.00, 0.00, 0.00, 0.00, 0.00, 0.25, -0.25, 0.00, 0.00, 0.00, 0.00, -0.25, 0.00, 0.00, -0.25, 0.00, 0.00, 0.00, -0.25, 0.00, 0.00, -0.25, 0.00, -0.25, 0.00, 0.00, 0.00, 0.00, 0.25, 0.00, 0.00, -0.25, 0.00, 0.00, 0.00, 0.00, 0.25, 0.00, 0.00, 0.00, 0.00, 0.00, 0.00, -0.25, 0.00, 0.00, -0.25, 0.00, -0.25, -0.25, 0.00, 0.00, 0.00, 0.00, -0.25, 0.00, 0.00, -0.25, 0.00, -0.25, 0.00, 0.00, 0.00, -0.25, 0.00, 0.00, 0.00, 0.00, 0.00, -0.25, 0.00, -0.25, 0.00, 0.00, 0.00, 0.00, -0.25, 0.00, 0.25, 0.00, 0.00, -0.25, 0.00, -0.25, 0.00, 0.00, 0.00, -0.25, 0.00, 0.25, 0.00, 0.25, 0.00, 0.00, 0.00, 0.00, 0.00, -0.25, 0.00, 0.00, 0.00, 0.00, 0.00, -0.25, 0.25, 0.00, 0.00, 0.00, 0.25, 0.00, 0.00, 0.25, 0.00, -0.25, 0.00, 0.00, -0.25, 0.00, -0.25, 0.00, 0.00, -0.25, 0.00, 0.00, 0.00, 0.00, -0.25, 0.00, 0.25, 0.00, 0.00, 0.00, 0.00, 0.00, 0.00, -0.25, -0.25, 0.00, 0.00, 0.00, 0.00, 0.00, 0.00, 0.00, -0.25, -0.25, 0.00, 0.00, 0.00, 0.00, -0.25, -0.25, 0.00, 0.00, 0.00, 0.25, -0.25, -0.25, 0.00, 0.00, -0.25, 0.25, 0.00, 0.00, 0.00, 0.00, 0.00, 0.00, -0.25, -0.25, 0.00, -0.25, 0.00, 0.00, 0.00, 0.00, 0.00, 0.25, 0.00, 0.00, 0.00, 0.00, 0.00, 0.00, 0.00, -0.25, -0.25, 0.00, 0.00, 0.25, 0.00, -0.25, -0.25, 0.00, -0.25, -0.25, 0.00, 0.00, -0.25, 0.00, 0.00, 0.00, 0.00, 0.00, 0.00, 0.00, 0.00, 0.00, 0.00, 0.00, -0.25, 0.00, 0.00, -0.25, -0.25, 0.00, -0.25, 0.00, 0.25, 0.00, 0.00, 0.00, 0.00, 0.25, 0.00, 0.00, 0.00, 0.25, -0.25, -0.25, 0.00, 0.00, 0.00, 0.00, 0.00, 0.00, 0.00, 0.00, 0.25, 0.00, -0.25, 0.00, 0.00, 0.00, 0.00, 0.00, 0.00, 0.00, -0.25, 0.00, 0.00, 0.00, 0.00, 0.00, 0.00, 0.00, -0.25, 0.00, 0.00, -0.25, -0.25, 0.00, 0.00, 0.00, 0.00, 0.00, -0.25, 0.00, -0.25, 0.00, 0.00, 0.00, 0.25, 0.00, 0.00, 0.00, 0.25, 0.00, 0.00, 0.25, 0.00, 0.00, 0.00, 0.00, 0.00, -0.25, 0.00, -0.25, 0.00, 0.00, -0.25, 0.00, 0.00, 0.00, 0.00, -0.25, -0.25, 0.00, 0.00, -0.25, 0.00, -0.25, 0.00, 0.00, 0.00, 0.00, 0.00, 0.00, 0.00, 0.00, -0.25, 0.00, 0.00, 0.00, 0.00, 0.00, 0.00, 0.00, -0.25, 0.00, 0.00, 0.25, 0.00, 0.00, 0.00, 0.00, 0.00, -0.25, 0.25, -0.25, -0.25, 0.00, 0.00, 0.00, 0.00, 0.00, 0.00, 0.00, 0.00, 0.00, 0.00, -0.25, 0.00, 0.25, 0.00, 0.00, 0.00, 0.00, 0.00, 0.00, -0.25, 0.00, 0.00, 0.00, 0.25, -0.25, 0.00, 0.00, 0.00, 0.00, 0.00, 0.00, 0.00, 0.25, 0.00, -0.25, 0.00, 0.00, -0.25, 0.00, 0.00, 0.00, 0.00, 0.00, 0.00, 0.00, 0.00, 0.00, 0.00, -0.25, 0.00, 0.00, 0.00, 0.00, 0.00, 0.00, -0.25, 0.00, 0.00, -0.25, 0.00, -0.25, 0.00, 0.00, 0.00, 0.00, 0.00, 0.00, 0.00, 0.00, -0.25, 0.00, 0.00, 0.00, 0.00, 0.00, -0.25, 0.00, 0.00, 0.00, 0.00, 0.00, 0.00, -0.25, 0.00, 0.00, 0.00, 0.25, 0.25, 0.00, -0.25, 0.25, 0.00, 0.00, 0.00, 0.00, 0.00, 0.00, 0.00, 0.00, 0.00, 0.00, 0.00, 0.00, 0.00, 0.00, 0.00, 0.00, 0.00, -0.25, -0.25, 0.00, 0.00, 0.00, 0.00, 0.00, 0.00, 0.25, 0.00, 0.00, 0.00, 0.25, 0.00, 0.00, -0.25, 0.00, 0.00, 0.00, -0.25, -0.25, 0.00, -0.25, 0.00, 0.25, 0.00, 0.00, -0.25, 0.00, 0.00, 0.00, 0.00, -0.25, -0.25, 0.00, 0.00, -0.25, 0.00, -0.25, 0.25, 0.25, 0.00, 0.00, 0.25, 0.25, 0.00, 0.00, 0.00, 0.25, 0.00, -0.25, 0.00, 0.00, 0.00, 0.25, 0.25, 0.00, 0.00, 0.25, 0.00, 0.00, 0.00, -0.25, 0.25, 0.25, -0.25, -0.25, 0.00, -0.25, 0.00, 0.00, 0.25, 0.00, 0.00, 0.00, 0.00, 0.25, -0.25, -0.25, -0.25, 0.25, 0.00, 0.00, 0.00, 0.00, 0.00, 0.00, 0.25, 0.00, -0.25, 0.00, 0.00, 0.00, 0.00, 0.00, 0.25, 0.25, 0.00, 0.00, 0.00, 0.00, 0.00, 0.00, 0.00, -0.25, 0.00, 0.00, 0.00, 0.00, 0.00, -0.25, 0.00, 0.25, 0.00, 0.00, 0.00, 0.00, 0.00, 0.00, -0.25, 0.00, 0.25, 0.00, -0.25, 0.00, 0.25, 0.00, 0.00, -0.25, -0.25, 0.00, 0.00, 0.25, 0.00, 0.00, 0.00, 0.00, 0.00, 0.00, 0.00, 0.00, -0.25, 0.00, -0.25, 0.00, -0.25, 0.00, 0.00, 0.00, 0.00, -0.25, 0.00, 0.00, -0.25, 0.00, 0.00, 0.00, 0.00, -0.25, -0.25, 0.00, 0.00, 0.00, 0.00, 0.00, 0.00, 0.00, -0.25, -0.25, -0.25, 0.00, -0.25, 0.00, 0.00, 0.00, 0.00, 0.00, 0.00, -0.25, 0.00, 0.00, -0.25, 0.00, 0.00, 0.00, 0.00, 0.00, -0.25, -0.25, 0.00, -0.25, 0.00, 0.00, 0.00, 0.00, 0.00, -0.25, 0.00, 0.00, 0.00, -0.25, 0.00, -0.25, 0.00, 0.00, 0.00, 0.00, -0.25, -0.25, -0.25, 0.00, 0.25, 0.00, 0.00, 0.00, 0.00, 0.00, 0.00, 0.00, 0.00, -0.25, -0.25, -0.25, 0.00, 0.00, 0.00, -0.25, -0.25, 0.00, 0.00, 0.00, -0.25, 0.00, -0.25, -0.25, -0.25, -0.25, 0.00, 0.00, 0.00, 0.00, 0.00, 0.00, -0.25, 0.00, 0.00, 0.00, 0.00, 0.00, 0.00, 0.00, 0.00, -0.25, 0.00, 0.00, 0.25, 0.00, 0.00, 0.00, 0.00, 0.25, 0.00, 0.00, 0.00, -0.25, 0.00, 0.00, 0.00, -0.25, 0.00, 0.00, 0.25, 0.00, 0.00, 0.00, 0.25, 0.00, 0.00, -0.25, -0.25, 0.00, 0.00, -0.25, 0.00, 0.00, 0.00, 0.00, 0.00, -0.25, 0.00, 0.00, 0.00, 0.25, 0.00, 0.00, 0.00, -0.25, -0.25, 0.00, 0.00, 0.00, 0.00, 0.25, -0.25, 0.00, 0.00, 0.00, -0.25, -0.25, 0.00, 0.00, -0.25, 0.00, -0.25, 0.00, 0.00, 0.00, 0.00, 0.00, 0.00, -0.25, 0.00, 0.00, 0.00, 0.25, 0.00, 0.00, 0.00, 0.00, 0.25, 0.00, 0.00, 0.00, -0.25, 0.00, 0.00, -0.25, 0.00, 0.25, 0.00, -0.25, 0.00, 0.00, 0.00, 0.00, 0.00, 0.00, 0.00, 0.00, -0.25, 0.00, 0.00, 0.00, 0.00, 0.00, 0.00, 0.00, 0.00, 0.00, 0.25, 0.00, -0.25, 0.00, 0.00, 0.00, -0.25, 0.00, 0.00, 0.25, 0.00, 0.00, -0.25, 0.00, 0.00, 0.00, 0.00, 0.00, -0.25, 0.00, -0.25, 0.25, 0.00, 0.00, 0.00, 0.00, 0.00, 0.00, 0.00, 0.00, 0.00, 0.00, 0.00, 0.25, 0.00, 0.00, 0.00, 0.25, -0.25, 0.00, 0.00, 0.25, -0.25, 0.00, 0.00, 0.00, 0.00, 0.00, 0.00, 0.00, 0.00, -0.25, 0.00, 0.00, 0.00, 0.00, 0.00, 0.00, 0.00, 0.00, 0.00, -0.25, 0.25, 0.00, 0.00, 0.00, 0.25, 0.00, 0.00, 0.00, 0.00, 0.00, 0.00, -0.25, 0.00, 0.00, -0.25, -0.25, 0.00, 0.25, 0.00, 0.00, -0.25, 0.00, 0.00, 0.00, -0.25, -0.25, 0.25, -0.25, 0.00, 0.00, -0.25, 0.00, 0.25, 0.25, 0.00, -0.25, 0.00, 0.00, 0.00, 0.25, -0.25, 0.00, 0.00, 0.00, 0.00, 0.00, -0.25, 0.00, 0.25, 0.00, -0.25, 0.00, 0.00, 0.25, 0.00, 0.00, 0.00, 0.00, 0.25, 0.00, 0.00, 0.00, 0.00, 0.00, -0.25, 0.00, 0.00, 0.00, -0.25, 0.00, -0.25, 0.25, 0.00, 0.00, -0.25, 0.00, 0.00, 0.00, 0.00, -0.25, -0.25, 0.00, -0.25, -0.25, 0.00, 0.00, 0.25, 0.00, 0.00, 0.00, -0.25, 0.00, -0.25, 0.00, 0.25, 0.00, 0.25, 0.00, 0.00, 0.25, 0.00, -0.25, 0.25, 0.00, 0.25, 0.00, 0.25, -0.25, 0.25, 0.00, 0.00, 0.25, -0.25, 0.00, 0.00, 0.00, 0.00, 0.00, 0.00, 0.25, 0.00, 0.00, 0.00, 0.00, 0.00, -0.25, 0.25, 0.00, 0.25, 0.00, 0.25, 0.00, 0.00, 0.00, 0.00, 0.00, 0.00, -0.25, 0.00, 0.00, 0.00, 0.00, 0.00, 0.00, 0.00, -0.25, 0.00, 0.00, 0.00, 0.00, -0.25, 0.00, 0.00, 0.00, 0.00, 0.00, 0.00, 0.00, 0.25, 0.00, 0.00, 0.00, 0.00, 0.00, 0.00, 0.00, -0.25, 0.00, 0.00, 0.00, 0.00, 0.00, 0.00, 0.00, 0.00, -0.25, 0.00, 0.00, 0.00, 0.00, 0.00, 0.00, 0.00, 0.00, 0.25, -0.25, 0.00, 0.00, 0.00, -0.25, 0.00, 0.00, 0.00, 0.00, 0.00, 0.25, 0.00, 0.00, 0.00, 0.00, 0.00, 0.25, -0.25, 0.25, 0.00, 0.00, 0.00, 0.00, 0.00, 0.00, 0.00, 0.00, 0.00, 0.00, 0.00, -0.25, 0.25, 0.00, 0.25, 0.00, 0.00, 0.00, 0.00, 0.00, 0.25, 0.00, 0.00, 0.00, 0.00, 0.00, 0.00, 0.00, 0.00, 0.00, 0.00, -0.25, -0.25, 0.25, 0.00, -0.25, -0.25, -0.25, -0.25, 0.00, 0.00, -0.25, 0.00, 0.25, 0.00, -0.25, 0.00, 0.25, 0.00, 0.00, 0.00, 0.00, 0.00, 0.00, 0.00, 0.00, 0.00, 0.00, 0.00, 0.00, 0.00, 0.00, 0.00, 0.00, -0.25, 0.00, 0.00, -0.25, 0.00, 0.00, 0.25, 0.00, 0.00, 0.00, 0.00, 0.25, 0.00, -0.25, 0.00, 0.00, 0.00, 0.00, 0.00, 0.00, -0.25, 0.00, 0.00, -0.25, 0.00, 0.00, 0.00, 0.00, 0.00, 0.00, 0.25, 0.00, -0.25, 0.00, 0.00, -0.25, -0.25, 0.00, 0.00, 0.00, 0.00, -0.25, -0.25, 0.25, 0.00, 0.00, 0.00, 0.00, 0.00, 0.00, -0.25, 0.25, 0.00, 0.00, -0.25, 0.00, 0.25, 0.00, 0.00, 0.00, -0.25, 0.00, 0.00, -0.25, -0.25, -0.25, 0.00, 0.00, 0.00, 0.00, 0.00, 0.00, 0.00, 0.00, 0.00, 0.00, 0.00, -0.25, 0.00, 0.00, -0.25, 0.00, 0.00, 0.00, 0.00, 0.00, 0.00, 0.00, 0.25, -0.25, 0.00, 0.00, 0.00, 0.00, 0.00, -0.25, 0.00, 0.00, 0.00, 0.00, 0.25, 0.00, -0.25, 0.00, 0.00, 0.00, 0.00, 0.25, 0.00, 0.00, 0.25, 0.00, -0.25, -0.25, 0.00, 0.00, -0.25, 0.25, 0.25, 0.00, 0.00, 0.00, 0.00, 0.00, 0.00, 0.00, 0.25, 0.00, 0.00, 0.00, 0.00, 0.00, 0.00, 0.00, -0.25, 0.00, 0.00, 0.00, 0.00, 0.00, 0.00, 0.00, 0.00, 0.00, 0.00, 0.00, 0.00, 0.00, 0.00, 0.00, -0.25, 0.00, 0.00, -0.25, 0.00, 0.00, 0.00, -0.25, -0.25, 0.25, -0.25, 0.00, 0.00, 0.00, -0.25, 0.00, -0.25, 0.25, 0.25, 0.00, 0.00, 0.25, 0.00, 0.00, 0.00, 0.25, 0.00, 0.00, 0.25, 0.00, 0.00, 0.00, 0.00, 0.00, 0.00, 0.00, 0.00, 0.00, 0.00, 0.00, 0.25, 0.00, 0.00, 0.25, 0.00, 0.00, 0.00, -0.25, -0.25, 0.00, 0.00, 0.00, 0.00, 0.00, -0.25, -0.25, 0.00, -0.25, 0.00, -0.25, 0.00, 0.00, 0.00, 0.00, 0.00, 0.00, 0.00, 0.00, 0.00, 0.00, 0.25, -0.25, 0.00, 0.00, -0.25, -0.25, 0.00, 0.00, 0.00, -0.25, 0.00, 0.25, 0.00, 0.00, 0.00, -0.25, 0.00, 0.00, 0.00, 0.00, 0.00, 0.00, 0.00, 0.00, 0.25, 0.00, 0.00, -0.25, 0.00, 0.00, 0.00, 0.00, 0.00, 0.00, 0.25, 0.00, 0.00, 0.00, 0.00, 0.25, 0.00, 0.00, 0.00, 0.00, 0.00, -0.25, 0.00, 0.00, 0.00, 0.00, 0.00, 0.00, 0.00, 0.00, 0.00, 0.00, 0.00, 0.00, 0.00, 0.00, 0.00, 0.25, 0.00, -0.25, 0.00, -0.25, 0.00, 0.00, 0.00, 0.00, 0.00, 0.00, 0.00, 0.00, 0.00, 0.00, 0.00, -0.25, 0.00, 0.25, 0.00, -0.25, -0.25, 0.25, 0.00, -0.25, -0.25, 0.00, 0.00, 0.00, 0.00, 0.00, 0.00, 0.00, 0.00, 0.00, -0.25, 0.00, 0.00, 0.00, 0.00, -0.25, 0.00, 0.00, 0.00, 0.00, 0.00, -0.25, -0.25, 0.00, 0.00, 0.25, 0.00, 0.00, 0.00, 0.00, 0.25, 0.00, 0.00, 0.25, -0.25, -0.25, 0.00, -0.25, 0.25, 0.00, 0.00, -0.25, 0.00, -0.25, -0.25, 0.00, 0.00, 0.00, -0.25, 0.00, 0.00, 0.00, 0.00, 0.00, 0.25, 0.00, 0.00, 0.00, 0.00, 0.25, 0.00, 0.00, 0.00, 0.00, 0.00, 0.00, 0.00, -0.25, 0.00, 0.00, 0.00, 0.00, 0.00, 0.00, -0.25, 0.00, 0.25, 0.00, -0.25, -0.25, 0.00, 0.00, 0.00, 0.00, 0.00, 0.00, 0.00, 0.00, 0.00, 0.00, 0.00, 0.00, -0.25, -0.25, 0.25, -0.25, 0.00, 0.00, 0.00, 0.00, 0.00, 0.00, 0.00, 0.00, -0.25, 0.25, 0.00, 0.00, 0.25, -0.25, 0.00, 0.00, -0.25, -0.25, 0.00, 0.00, 0.00, 0.00, 0.00, -0.25, 0.25, 0.25, -0.25, -0.25, -0.25, 0.00, 0.00, -0.25, -0.25, 0.00, 0.00, -0.25, 0.00, 0.00, 0.00, 0.00, -0.25, 0.00, 0.00, 0.00, -0.25, -0.25, 0.00, 0.00, 0.00, 0.00, 0.00, -0.25, 0.25, 0.00, 0.25, 0.00, 0.00, 0.25, 0.25, 0.00, 0.00, 0.00, 0.00, 0.00, 0.00, -0.25, 0.00, 0.00, 0.00, 0.00, 0.25, 0.00, -0.25, -0.25, 0.00, 0.00, 0.00, 0.00, 0.00, 0.00, 0.00, 0.00, 0.00, 0.00, 0.00, -0.25, 0.00, 0.00, 0.00, 0.00, 0.00, -0.25, 0.00, 0.25, 0.25, 0.00, 0.00, 0.00, 0.00, 0.00, 0.00, -0.25, 0.00, 0.00, 0.00, -0.25, 0.00, 0.00, -0.25, 0.00, 0.25, 0.00, 0.00, 0.00, 0.00, 0.00, 0.00, 0.00, 0.00, 0.00, 0.00, 0.00, 0.00, -0.25, 0.00, 0.00, -0.25, 0.00, 0.00, 0.25, 0.00, 0.00, 0.00, 0.25, -0.25, -0.25, 0.00, 0.00, 0.00, 0.00, 0.00, 0.00, 0.00, 0.00, 0.00, 0.00, 0.00, 0.00, -0.25, 0.00, 0.00, 0.25, -0.25, 0.25, 0.00, 0.00, 0.00, 0.00, 0.00, 0.00, 0.00, 0.00, 0.00, 0.00, 0.00, 0.00, -0.25, -0.25, 0.00, 0.00, 0.00, 0.25, 0.00, 0.00, 0.00, -0.25, 0.25, 0.00, 0.00, 0.25, 0.00, 0.00, 0.00, 0.00, 0.00, 0.00, 0.00, 0.00, 0.00, 0.00, 0.00, -0.25, 0.00, 0.00, 0.00, 0.00, 0.25, 0.00, 0.00, 0.00, -0.25, 0.00, 0.00, 0.00, 0.00, -0.25, 0.00, 0.25, 0.00, 0.00, 0.00, -0.25, 0.25, 0.00, 0.00, 0.00, 0.00, 0.00, 0.25, 0.00, 0.00, 0.00, -0.25, 0.00, 0.25, 0.00, 0.00, 0.00, 0.00, 0.00, 0.00, 0.00, 0.25, 0.00, 0.00, -0.25, 0.00, 0.00, 0.00, 0.00, 0.00, -0.25, 0.00, 0.00, 0.00, 0.00, -0.25, 0.00, 0.00, 0.00, 0.00, 0.00, 0.00, -0.25, 0.00, 0.00, -0.25, 0.00, 0.00, 0.00, 0.00, -0.25, -0.25, 0.00, 0.00, -0.25, 0.25, 0.00, 0.00, 0.00, 0.00, 0.25, 0.00, 0.00, 0.25, 0.00, 0.25, 0.25, 0.00, 0.00, 0.00, 0.00, -0.25, -0.25, 0.00, 0.00, 0.00, 0.00, -0.25, 0.25, 0.00, 0.00, 0.00, -0.25, 0.00, 0.00, 0.00, 0.00, 0.00, 0.00, 0.00, 0.00, 0.00, 0.00, 0.00, 0.00, 0.00, 0.00, 0.00, 0.25, 0.00, 0.00, 0.25, 0.00, 0.00, 0.00, 0.00, 0.00, 0.25, 0.00, 0.00, 0.00, 0.00, -0.25, 0.00, 0.00, -0.25, 0.00, 0.00, 0.00, 0.00, 0.00, 0.00, 0.25, 0.00, 0.25, 0.00, 0.00, 0.00, 0.00, 0.00, 0.00, -0.25, 0.25, 0.00, 0.00, 0.00, 0.25, 0.00, 0.00, 0.25, -0.25, 0.25, 0.25, 0.00, 0.00, 0.00, 0.00, 0.00, 0.00, 0.25, 0.25, 0.00, 0.00, 0.00, 0.00, 0.00, 0.00, 0.00, -0.25, 0.00, -0.25, -0.25, 0.25, 0.00, 0.00, -0.25, 0.00, 0.00, 0.00, 0.00, 0.00, 0.00, 0.00, 0.00, 0.00, 0.00, 0.00, 0.00, 0.00, 0.25, 0.00, 0.25, 0.00, 0.00, 0.00, 0.25, 0.00, 0.00, 0.25, 0.00, 0.00, 0.00, 0.00, 0.00, 0.00, 0.00, 0.00, 0.25, 0.00, 0.00, 0.25, 0.25, -0.25, 0.00, 0.00, 0.00, 0.00, 0.25, -0.25, 0.00, -0.25, 0.00, 0.00, 0.00, 0.00, 0.00, -0.25, 0.00, 0.00, 0.00, 0.25, 0.00, 0.00, 0.00, 0.00, 0.00, 0.25, 0.00, -0.25, 0.00, -0.25, -0.25, 0.25, 0.00, 0.00, -0.25, 0.00, 0.25, 0.25, 0.00, 0.00, 0.00, -0.25, 0.00, 0.00, 0.00, 0.00, 0.00, -0.25, 0.00, 0.00, -0.25, 0.00, 0.00, 0.25, -0.25, 0.00, 0.00, 0.00, -0.25, -0.25, 0.00, 0.00, 0.25, -0.25, 0.00, 0.00, -0.25, 0.25, 0.00, 0.00, 0.00, -0.25, 0.25, 0.00, -0.25, -0.25, 0.00, 0.00, 0.00, 0.00, 0.25, 0.00, -0.25, 0.00, 0.25, 0.00, 0.00, 0.00, 0.00, 0.00, 0.00, 0.00, 0.25, 0.00, 0.00, -0.25, 0.00, 0.00, 0.00, 0.25, 0.00, -0.25, 0.00, 0.00, 0.25, -0.25, -0.25, -0.25, 0.00, 0.00, 0.00, -0.25, 0.00, 0.00, 0.00, 0.25, 0.25, -0.25, 0.00, 0.00, 0.00, -0.25, 0.00, 0.00, 0.00, 0.00, 0.00, 0.00, 0.00, 0.25, -0.25, 0.25, 0.00, 0.00, 0.00, 0.00, 0.00, 0.00, 0.00, 0.00, 0.00, 0.00, 0.00, 0.00, 0.00, 0.00, 0.00, 0.00, -0.25, 0.00, 0.00, 0.00, 0.00, 0.00, 0.00, 0.00, 0.00, 0.25, 0.00, 0.00, 0.00, 0.00, 0.00, 0.00, 0.00, 0.00, -0.25, 0.00, 0.00, 0.25, 0.00, 0.00, 0.00, -0.25, 0.00, 0.00, 0.00, 0.00, 0.00, -0.25, 0.00, 0.00, 0.00, 0.00, 0.00, 0.00, 0.00, -0.25, 0.00, 0.00, 0.00, 0.25, 0.00, -0.25, 0.25, 0.00, 0.25, 0.25, 0.00, -0.25, 0.00, -0.25, 0.00, 0.00, 0.25, 0.00, 0.00, -0.25, 0.00, 0.00, 0.00, 0.00, 0.00, 0.00, 0.00, 0.25, 0.25, 0.00, -0.25, 0.00, 0.00, 0.00, 0.00, 0.00, 0.00, -0.25, -0.25, 0.00, 0.00, -0.25, 0.00, -0.25, 0.00, -0.25, 0.00, -0.25, 0.00, -0.25, 0.00, 0.00, 0.00, 0.00, 0.00, -0.25, 0.00, 0.00, 0.00, 0.00, 0.00, 0.00, 0.00, -0.25, 0.00, 0.00, -0.25, 0.00, 0.00, 0.00, 0.00, 0.00, -0.25, 0.00, 0.00, 0.00, 0.00, 0.00, -0.25, -0.25, 0.00, 0.00, 0.00, 0.00, -0.25, -0.25, 0.00, 0.00, 0.25, 0.00, 0.00, 0.00, 0.00, 0.00, 0.00, 0.00, 0.00, 0.00, 0.00, 0.00, -0.25, 0.00, 0.00, 0.00, 0.00, 0.00, 0.00, 0.00, 0.25, 0.25, 0.00, 0.00, 0.00, 0.25, -0.25, -0.25, 0.00, 0.25, 0.25, 0.25, 0.25, 0.25, 0.00, 0.00, 0.25, 0.00, 0.00, 0.00, 0.00, 0.00, 0.00, 0.00, 0.00, -0.25, 0.00, -0.25, -0.25, 0.00, 0.00, 0.00, 0.00, 0.00, -0.25, 0.00, 0.25, 0.00, 0.00, -0.25, 0.00, 0.25, 0.00, 0.00, 0.00, 0.00, -0.25, 0.00, 0.00, -0.25, 0.00, 0.25, 0.00, 0.00, 0.00, 0.00, 0.00, 0.25, 0.00, 0.00, 0.00, -0.25, 0.00, 0.00, 0.00, 0.00, 0.25, 0.00, 0.00, -0.25, 0.00, 0.00, -0.25, -0.25, 0.00, 0.00, 0.25, 0.00, 0.00, 0.00, 0.00, 0.25, 0.00, 0.00, 0.00, 0.00, 0.00, 0.00, 0.00, 0.00, 0.00, -0.25, 0.25, 0.00, -0.25, 0.00, -0.25, 0.25, 0.00, 0.00, -0.25, 0.25, 0.00, 0.00, 0.00, 0.00, 0.25, 0.00, 0.00, 0.00, 0.00, 0.00, 0.00, 0.25, 0.00, 0.00, 0.00, 0.00, 0.00, -0.25, 0.25, -0.25, -0.25, 0.00, 0.00, 0.00, 0.00, 0.00, 0.25, 0.00, 0.00, 0.00, 0.00, 0.25, 0.00, -0.25, 0.25, 0.00, 0.25, 0.00, 0.00, 0.00, -0.25, 0.00, 0.00, 0.00, 0.00, 0.25, 0.00, 0.00, -0.25, 0.00, 0.25, 0.00, 0.00, 0.00, -0.25, 0.00, 0.00, 0.00, 0.00, -0.25, 0.00, 0.00, 0.00, 0.00, 0.00, -0.25, 0.00, 0.00, 0.00, 0.00, 0.00, 0.00, -0.25, 0.00, 0.00, 0.00, 0.00, 0.00, 0.00, 0.00, 0.00, 0.00, 0.25, 0.00, 0.00, 0.00, 0.00, -0.25, 0.00, 0.00, 0.00, 0.00, 0.00, 0.00, 0.00, 0.00, 0.00, 0.00, 0.00, 0.00, -0.25, 0.00, 0.00, -0.25, 0.00, 0.00, 0.00, 0.00, 0.00, 0.00, 0.00, 0.25, 0.00, -0.25, 0.00, 0.25, 0.00, 0.00, -0.25, 0.00, 0.00, 0.00, 0.00, -0.25, 0.00, -0.25, -0.25, -0.25, 0.00, 0.00, 0.00, 0.00, 0.00, 0.00, 0.00, 0.00, 0.00, 0.00, 0.00, -0.25, 0.00, 0.00, 0.00, 0.00, 0.00, 0.00, 0.00, 0.00, 0.00, 0.00, 0.00, 0.00, -0.25, -0.25, 0.00, 0.00, -0.25, 0.00, 0.00, 0.00, 0.00, 0.00, 0.00, 0.00, 0.00, -0.25, 0.00, 0.00, -0.25, 0.00, -0.25, 0.25, 0.00, 0.00, -0.25, 0.00, -0.25, 0.00, 0.00, 0.00, 0.00, 0.00, 0.00, 0.00, 0.00, 0.00, 0.00, 0.00, -0.25, 0.25, 0.25, 0.25, -0.25, 0.00, -0.25, 0.00, 0.00, 0.00, 0.25, 0.00, 0.00, 0.00, 0.00, 0.00, 0.00, 0.00, 0.00, 0.00, 0.00, 0.00, 0.00, 0.00, 0.00, 0.00, 0.00, 0.00, 0.00, -0.25, -0.25, 0.00, -0.25, 0.00, -0.25, -0.25, 0.00, 0.00, -0.25, 0.00, 0.00, 0.00, 0.00, 0.00, 0.00, 0.00, 0.00, 0.00, 0.00, 0.00, 0.00, 0.00, 0.00, 0.00, 0.00, 0.00, 0.00, 0.00, -0.25, 0.00, -0.25, 0.00, 0.25, 0.00, 0.25, 0.25, -0.25, 0.00, 0.00, 0.25, -0.25, 0.25, 0.00, -0.25, 0.25, 0.00, 0.00, 0.00, 0.00, 0.25, 0.00, 0.00, 0.00, 0.00, 0.00, 0.00, 0.00, 0.00, 0.00, 0.00, 0.00, 0.00, -0.25, 0.00, 0.00, -0.25, 0.00, 0.00, -0.25, 0.25, 0.00, 0.00, 0.00, 0.00, 0.25, 0.00, -0.25, 0.00, -0.25, 0.00, 0.00, 0.00, 0.00, 0.00, 0.00, 0.00, 0.00, 0.25, 0.25, 0.00, 0.00, 0.00, 0.00, 0.00, 0.00, 0.00, 0.00, 0.00, 0.00, 0.00, 0.00, 0.00, -0.25, -0.25, 0.25, -0.25, 0.25, 0.00, -0.25, 0.00, 0.00, 0.00, 0.25, 0.00, 0.00, 0.00, 0.00, 0.00, 0.00, 0.00, 0.25, 0.00, 0.00, 0.00, 0.00, 0.00, 0.00, 0.00, 0.00, 0.00, 0.00, 0.00, 0.00, 0.00, 0.00, 0.00, 0.00, 0.00, 0.00, 0.00, 0.25, 0.00, 0.25, 0.00, 0.00, 0.25, 0.00, 0.00, 0.00, 0.00, 0.00, 0.00, 0.25, 0.00, 0.00, 0.00, 0.00, -0.25, 0.00, 0.00, 0.25, 0.00, 0.00, 0.00, -0.25, 0.00, 0.00, -0.25, 0.25, -0.25, -0.25, 0.00, 0.00, 0.00, 0.00, 0.00, 0.00, 0.00, 0.00, -0.25, 0.00, 0.00, 0.00, 0.25, -0.25, 0.00, 0.00, 0.00, -0.25, 0.25, 0.00, -0.25, 0.00, 0.00, 0.00, 0.00, 0.00, 0.00, 0.00, 0.00, 0.00, 0.00, 0.00, 0.00, -0.25, 0.00, -0.25, 0.00, 0.00, 0.00, 0.25, 0.00, 0.25, 0.00, 0.00, 0.25, 0.00, -0.25, 0.00, 0.25, -0.25, 0.00, 0.00, 0.25, 0.25, 0.00, 0.00, 0.00, 0.00, 0.00, 0.00, 0.25, 0.00, 0.00, -0.25, 0.00, 0.00, 0.00, 0.00, 0.00, 0.25, 0.25, 0.00, -0.25, 0.25, -0.25, 0.25, 0.00, 0.00, 0.00, 0.00, 0.00, 0.00, -0.25, 0.00, 0.00, -0.25, 0.00, 0.00, 0.00, 0.25, 0.00, -0.25, 0.00, -0.25, -0.25, 0.00, 0.00, 0.00, 0.00, 0.00, -0.25, 0.00, 0.00, 0.00, -0.25, 0.00, -0.25, -0.25, 0.00, -0.25, 0.00, 0.00, -0.25, 0.00, 0.00, 0.00, 0.00, 0.00, 0.00, 0.00, 0.00, 0.00, -0.25, 0.00, 0.00, 0.00, 0.00, 0.25, 0.00, 0.00, 0.00, -0.25, -0.25, 0.00, 0.00, -0.25, 0.00, 0.00, -0.25, -0.25, 0.00, 0.00, 0.00, 0.00, 0.00, -0.25, 0.00, 0.00, -0.25, 0.00, -0.25, 0.25, 0.00, 0.25, 0.00, 0.00, 0.00, 0.00, 0.00, 0.00, 0.00, 0.00, 0.00, 0.00, -0.25, 0.00, 0.00, -0.25, -0.25, 0.00, 0.00, 0.25, 0.00, 0.00, 0.00, 0.25, -0.25, -0.25, 0.00, -0.25, 0.00, -0.25, -0.25, 0.00, 0.00, 0.00, 0.00, 0.00, 0.00, 0.25, 0.00, 0.00, -0.25, 0.00, 0.00, -0.25, -0.25, 0.00, 0.00, 0.00, -0.25, 0.00, 0.00, 0.00, 0.00, -0.25, 0.00, 0.00, 0.00, 0.25, 0.50, 0.00, 0.00, 0.00, 0.00, 0.00, 0.00, 0.25, 0.00, 0.00, -0.25, 0.00, 0.00, 0.00, 0.00, 0.25, 0.00, 0.00, -0.25, 0.25, 0.00, 0.00, 0.00, 0.00, 0.25, -0.25, 0.00, 0.00, -0.25, 0.00, 0.00, 0.00, 0.25, 0.00, 0.00, 0.00, 0.00, 0.00, 0.25, 0.25, 0.00, 0.00, 0.00, 0.00, 0.00, 0.00, 0.00, 0.00, 0.00, 0.00, -0.25, 0.00, 0.00, 0.00, 0.00, 0.00, 0.00, 0.00, -0.25, 0.00, 0.00, -0.25, 0.00, -0.25, 0.25, 0.00, 0.00, 0.00, -0.25, -0.25, 0.00, -0.25, 0.00, 0.00, 0.00, 0.00, 0.00, 0.00, 0.00, -0.25, 0.00, 0.00, -0.25, -0.25, 0.25, 0.00, 0.00, 0.00, 0.00, -0.25, 0.00, 0.00, 0.00, 0.00, 0.25, 0.00, 0.00, 0.00, 0.00, 0.00, 0.00, 0.00, 0.00, 0.00, 0.00, 0.00, 0.00, 0.00, -0.25, 0.00, 0.00, 0.00, 0.00, 0.00, 0.00, -0.25, 0.00, 0.00, 0.00, -0.25, 0.00, -0.25, 0.00, 0.00, -0.25, 0.00, -0.25, 0.25, 0.00, 0.25, 0.25, 0.00, 0.00, 0.00, 0.00, 0.00, 0.00, 0.00, 0.00, -0.25, -0.25, 0.25, 0.00, 0.00, 0.00, -0.25, 0.00, -0.25, 0.00, -0.25, 0.00, 0.00, 0.00, 0.00, 0.00, -0.25, -0.25, 0.00, 0.00, 0.25, 0.25, 0.00, 0.00, 0.00, 0.25, 0.25, 0.00, 0.00, 0.25, 0.00, -0.25, -0.25, 0.00, 0.00, 0.00, 0.00, 0.00, 0.00, 0.00, 0.00, 0.00, 0.00, 0.00, 0.00, 0.00, 0.00, 0.00, 0.00, 0.00, 0.00, -0.25, 0.00, 0.00, -0.25, 0.00, 0.00, 0.25, 0.00, 0.00, 0.00, 0.00, 0.00, -0.25, 0.00, 0.25, 0.00, 0.00, 0.00, 0.25, 0.00, 0.25, 0.00, 0.00, 0.25, 0.00, -0.25, 0.00, 0.00, 0.00, 0.25, 0.25, 0.00, 0.00, -0.25, 0.00, 0.00, 0.25, 0.00, 0.00, -0.25, -0.25, 0.00, 0.00, 0.00, 0.00, 0.25, 0.00, 0.00, -0.25, 0.00, 0.25, 0.00, 0.00, 0.00, 0.00, 0.25, 0.00, 0.00, 0.00, -0.25, 0.00, 0.00, 0.00, 0.00, -0.25, 0.00, 0.00, -0.25, 0.00, 0.00, 0.25, 0.00, 0.00, 0.00, 0.00, 0.00, 0.25, 0.00, 0.00, 0.00, 0.00, 0.00, 0.00, 0.00, 0.00, 0.00, 0.00, 0.00, 0.00, 0.00, 0.25, 0.00, 0.00, -0.25, -0.25, 0.00, 0.00, 0.00, 0.25, 0.00, 0.25, 0.00, 0.25, 0.00, 0.00, 0.00, 0.00, 0.00, 0.00, 0.00, 0.00, 0.25, 0.00, -0.25, 0.00, 0.00, -0.25, 0.25, 0.00, 0.00, 0.00, 0.00, 0.00, -0.25, -0.25, 0.00, -0.25, -0.25, 0.00, 0.00, 0.00, 0.00, 0.00, 0.00, 0.00, 0.00, 0.00, 0.00, 0.00, -0.25, 0.00, 0.25, 0.00, 0.25, 0.00, 0.00, 0.25, 0.00, 0.00, 0.00, 0.00, 0.00, 0.25, -0.25, 0.00, 0.00, 0.00, 0.25, 0.00, 0.00, 0.00, 0.00, 0.00, 0.00, 0.25, 0.00, 0.00, 0.00, -0.25, 0.00, -0.25, 0.00, 0.00, 0.00, 0.00, 0.00, 0.00, 0.00, 0.25, 0.00, 0.00, 0.00, 0.00, 0.25, 0.00, -0.25, -0.25, 0.25, 0.00, 0.00, 0.00, 0.00, -0.25, 0.00, 0.00, 0.00, 0.00, -0.25, -0.25, 0.00, -0.25, 0.00, -0.25, 0.00, 0.00, -0.25, 0.00, 0.00, -0.25, 0.00, 0.00, 0.00, -0.25, 0.00, -0.25, -0.25, 0.00, -0.25, 0.00, 0.00, 0.00, -0.25, 0.25, 0.00, -0.25, -0.25, 0.00, 0.00, 0.00, 0.00, 0.25, 0.00, 0.00, 0.00, 0.00, -0.25, -0.25, 0.00, 0.00, 0.25, 0.00, 0.00, 0.00, 0.00, 0.00, 0.00, -0.25, 0.00, 0.00, 0.00, 0.00, 0.00, 0.00, 0.00, 0.00, 0.00, -0.25, 0.25, -0.25, 0.25, 0.00, -0.25, 0.00, 0.00, 0.00, 0.00, 0.00, 0.00, 0.25, 0.00, -0.25, 0.00, 0.00, 0.00, 0.00, 0.00, 0.00, 0.25, 0.00, 0.00, 0.00, 0.00, 0.00, 0.00, 0.00, 0.00, -0.25, 0.25, 0.00, 0.00, -0.25, 0.00, 0.00, 0.00, 0.00, 0.00, 0.00, 0.00, 0.00, 0.00, 0.00, 0.00, 0.00, 0.00, 0.00, 0.25, -0.25, 0.00, 0.00, 0.00, 0.00, -0.25, -0.25, -0.25, 0.00, 0.00, 0.00, 0.00, 0.00, 0.00, 0.00, 0.00, 0.00, 0.25, 0.00, 0.00, 0.00, 0.00, -0.25, 0.25, -0.25, 0.25, -0.25, -0.25, 0.00, 0.00, 0.00, 0.00, 0.00, 0.25, 0.00, -0.25, 0.00, 0.00, 0.00, -0.25, 0.00, -0.25, -0.25, 0.00, 0.00, 0.00, 0.00, 0.25, 0.00, -0.25, 0.00, -0.25, 0.00, -0.25, 0.25, -0.25, -0.25, 0.00, 0.00, 0.00, -0.25, 0.00, 0.00, 0.00, 0.00, 0.00, -0.25, 0.00, 0.00, 0.00, 0.00, 0.00, 0.00, -0.25, 0.00, 0.00, 0.00, 0.00, 0.00, 0.00, 0.00, 0.00, 0.00, 0.00, 0.00, 0.00, 0.00, 0.00, 0.00, 0.00, 0.00, 0.00, 0.00, 0.00, 0.00, 0.00, -0.25, 0.00, -0.25, 0.25, 0.00, 0.00, 0.00, 0.25, 0.00, 0.00, 0.00, 0.00, -0.25, 0.00, 0.00, 0.00, 0.00, 0.00, 0.00, -0.25, 0.00, 0.25, 0.00, 0.00, 0.00, -0.25, -0.25, -0.25, -0.25, -0.25, 0.25, 0.00, 0.00, -0.25, -0.25, -0.25, 0.00, 0.00, 0.00, -0.25, 0.00, 0.00, 0.00, 0.00, -0.25, 0.00, 0.00, -0.25, 0.00, 0.00, 0.00, 0.00, -0.25, 0.00, 0.00, 0.00, 0.00, -0.25, 0.00, 0.00, 0.00, 0.00, 0.00, -0.25, -0.25, 0.25, 0.00, 0.00, 0.00, -0.25, -0.25, 0.00, 0.25, 0.00, 0.25, 0.00, 0.00, 0.00, 0.00, 0.00, 0.00, 0.00, 0.00, 0.00, 0.00, -0.25, 0.00, 0.00, 0.00, 0.00, 0.00, 0.00, 0.00, -0.25, 0.00, 0.00, -0.25, 0.00, 0.00, 0.00, 0.00, 0.00, 0.00, 0.25, 0.25, 0.00, 0.00, 0.00, 0.00, 0.00, 0.00, 0.00, 0.00, 0.00, 0.00, 0.25, 0.00, 0.00, 0.00, -0.25, -0.25, 0.00, 0.00, 0.00, 0.00, 0.00, 0.00, 0.25, 0.00, 0.25, 0.00, 0.00, 0.00, 0.00, -0.25, 0.00, 0.00, 0.00, 0.00, -0.25, -0.25, 0.25, 0.00, 0.25, 0.00, 0.00, 0.25, 0.00, 0.00, 0.00, 0.00, 0.00, 0.25, 0.00, 0.00, 0.00, -0.25, 0.25, 0.00, 0.00, 0.00, 0.00, 0.25, 0.00, 0.25, 0.00, 0.00, 0.25, 0.00, 0.00, 0.00, 0.25, 0.00, 0.00, 0.00, 0.00, 0.00, 0.00, 0.00, 0.00, -0.25, -0.25, 0.00, 0.00, -0.25, 0.00, 0.00, 0.00, 0.25, 0.00, 0.00, 0.00, 0.00, -0.25, 0.00, 0.25, 0.00, 0.00, 0.00, 0.25, 0.00, -0.25, -0.25, 0.00, 0.00, 0.00, 0.00, -0.25, 0.00, -0.25, 0.00, 0.00, 0.00, 0.25, 0.25, 0.00, 0.00, 0.00, 0.00, 0.00, 0.00, 0.00, 0.00, 0.00, -0.25, 0.00, 0.00, 0.00, 0.00, 0.00, 0.00, 0.00, 0.00, 0.00, 0.00, 0.00, 0.00, 0.00, -0.25, 0.00, 0.00, 0.00, 0.00, 0.00, 0.00, 0.00, 0.00, 0.00, 0.00, 0.00, 0.00, 0.00, 0.00, 0.00, 0.00, 0.00, 0.00, 0.00, 0.00, 0.00, 0.25, 0.00, 0.00, 0.00, 0.00, 0.00, -0.25, 0.00, 0.00, 0.00, 0.00, 0.00, 0.25, 0.00, 0.00, 0.00, 0.00, 0.00, -0.25, 0.00, -0.25, 0.00, 0.00, 0.00, 0.25, 0.00, 0.00, 0.00, 0.00, 0.00, 0.00, 0.00, 0.00, 0.00, 0.00, 0.25, 0.00, 0.00, 0.00, 0.00, 0.00, 0.00, 0.00, -0.25, 0.00, -0.25, 0.00, 0.00, 0.00, 0.00, 0.00, 0.00, 0.00, 0.00, 0.25, 0.00, 0.00, 0.25, 0.00, 0.00, 0.25, -0.25, 0.00, 0.00, 0.00, 0.00, -0.25, 0.25, 0.00, 0.00, -0.25, -0.25, 0.25, -0.25, 0.00, -0.25, 0.00, 0.00, 0.00, 0.00, 0.00, 0.00, 0.00, -0.25, 0.00, -0.25, 0.25, 0.00, 0.00, 0.25, -0.25, 0.00, 0.00, 0.00, 0.00, 0.00, -0.25, 0.00, -0.25, 0.00, -0.25, 0.00, 0.00, 0.25, 0.00, 0.25, 0.00, -0.25, 0.00, 0.00, 0.00, 0.00, 0.00, 0.00, 0.25, 0.00, 0.00, 0.00, 0.00, 0.00, 0.00, 0.00, 0.00, 0.00, 0.00, 0.00, 0.00, 0.00, 0.00, 0.00, 0.00, -0.25, 0.00, 0.00, 0.00, 0.00, 0.25, 0.00, 0.25, -0.25, 0.00, 0.00, 0.00, 0.00, 0.25, -0.25, -0.25, 0.00, 0.00, 0.25, 0.00, -0.25, 0.00, 0.25, 0.00, 0.00, 0.00, 0.00, 0.00, 0.00, -0.25, -0.25, 0.00, 0.00, -0.25, 0.00, 0.00, 0.00, 0.25, -0.25, 0.00, 0.00, -0.25, 0.00, -0.25, 0.00, 0.25, 0.00, 0.00, 0.00, 0.00, 0.00, -0.25, 0.25, 0.25, 0.00, 0.00, 0.00, 0.25, 